
\data\
ngram 1=10145
ngram 2=32997
ngram 3=2544

\1-grams:
-4.717163	'	-0.08541563
-4.717163	(	-0.08541563
-4.717163	)	-0.07156124
-1.031779	,	-0.4167726
-3.026967	-	-0.7357618
-4.416133	10	-0.2663757
-4.717163	11	-0.07156124
-4.717163	12	-0.08525734
-4.717163	1388	-0.07156124
-4.717163	1451	-0.06390052
-4.416133	18	-0.266434
-4.717163	23	-0.08531567
-4.717163	28	-0.0808773
-4.717163	2a	-0.08539897
-4.717163	35	-0.08531567
-4.717163	48	-0.08531567
-4.416133	6	-0.2663757
-4.717163	618	-0.07156124
-4.416133	7	-0.0638305
-2.359228	:	-0.163377
-1.719776	;	-0.412949
-1.31559	</s>
-99	<s>	-0.4986343
-3.225801	A	-0.1329948
-4.717163	Abyste	-0.085224
-4.717163	Acta	-0.08541563
-4.717163	Afganistan	-0.04305813
-4.717163	Afrika	-0.04305813
-4.416133	Aha	-0.2241765
-4.717163	Akvárium	-0.04305813
-3.513043	Ale	-0.0625301
-4.717163	Alpách	-0.06390052
-4.717163	Amen	-0.04305813
-4.717163	Ameriky	-0.06390052
-3.541071	Amina	-0.08635908
-3.939011	Amino	-0.1906355
-4.416133	Aminu	-0.04068242
-4.416133	Amině	-0.06389178
-4.717163	Anatolii	-0.07156124
-4.717163	Andrej	-0.08541563
-4.717163	Andrejeva	-0.04305813
-4.717163	Andulo	-0.04305813
-4.717163	Anglii	-0.07648665
-4.717163	Angličani	-0.08016968
-4.717163	Ani	-0.08489054
-4.717163	Annunzia	-0.04305813
-4.115103	Ano	-0.3133592
-3.76292	Anton	-0.9819921
-4.240041	Antona	-0.1397595
-4.717163	Antonína	-0.04305813
-4.717163	Arenelle	-0.04305813
-4.018193	Armén	-0.07578886
-4.717163	Arméni	-0.07706445
-4.717163	Arménie	-0.08398055
-4.717163	Arménovi	-0.06390052
-4.717163	Astrophytum	-0.08541563
-4.717163	Aszu	-0.08541563
-4.717163	Au	-0.06390052
-4.717163	Ať	-0.08489054
-4.717163	BALADA	-0.08539064
-4.717163	BARONA	-0.08541563
-4.416133	Babka	-0.06346267
-4.717163	Bacco	-0.04305813
-4.717163	Badenu	-0.0832696
-3.438409	Balabán	-0.4204313
-4.717163	Balabánovi	-0.06390052
-4.717163	Baladu	-0.08502396
-4.717163	Balady	-0.08502396
-4.717163	Bandinelliho	-0.04305813
-4.717163	Baran	-0.04305813
-3.394943	Bartošek	-0.1831159
-4.018193	Bartoškovi	-0.03265876
-4.717163	Baryna	-0.08523234
-4.416133	Barynu	-0.01926777
-4.717163	Baum	-0.06390052
-4.717163	Bejček	-0.04305813
-4.717163	Bellevue	-0.0817014
-4.416133	Benátkách	-0.04304895
-4.717163	Beran	-0.04305813
-4.717163	Bergr	-0.04305813
-4.717163	Bezmoc	-0.0808773
-4.717163	Bezuchý	-0.04305813
-4.717163	Bhútánu	-0.04305813
-4.717163	Biagio	-0.08349556
-4.717163	Biarritzi	-0.07156124
-4.717163	Bimbal	-0.08349556
-4.717163	Bimbala	-0.08264133
-4.416133	Bobek	-0.02774962
-4.717163	Bobot	-0.06390052
-4.240041	Boha	-0.1759017
-4.717163	Bohu	-0.08541563
-4.416133	Bolívie	-0.06238366
-4.717163	Borneo	-0.04305813
-4.717163	Bože	-0.04305813
-4.717163	Boží	-0.08519901
-4.717163	Brazílie	-0.04305813
-4.717163	Briggs	-0.08504064
-4.717163	Bristol	-0.04305813
-4.717163	Brna	-0.07706445
-4.717163	Browning	-0.08016968
-4.717163	Bubnech	-0.06390052
-4.717163	Budečské	-0.085324
-4.717163	Bukurešti	-0.07706445
-4.717163	Butera	-0.04305813
-4.717163	Bydlí	-0.08376321
-4.717163	Byl	-0.08407247
-4.717163	Bylo	-0.08536565
-4.416133	Bystřice	-0.2661339
-4.717163	Bílek	-0.04305813
-4.717163	Být	-0.08538231
-4.717163	Běžte	-0.07648665
-4.416133	Bůh	-0.08016125
-4.717163	Bůhví	-0.08342025
-4.717163	CUPOVI	-0.08436482
-4.717163	Castrogiovanni	-0.07156124
-4.416133	Cařihradě	-0.06097604
-4.416133	Cephalocereus	-0.2665256
-4.717163	Charles	-0.08541563
-4.717163	Chemického	-0.0854073
-4.018193	Chemickém	-0.5731118
-4.717163	Chemický	-0.08541563
-4.717163	Chmelenského	-0.08389697
-4.717163	Chvilku	-0.07948624
-4.717163	Chytli	-0.04305813
-4.717163	Chámovo	-0.06390052
-4.717163	Cikán	-0.08264133
-4.416133	Co	-0.01926777
-4.717163	Copak	-0.08436482
-4.717163	Curych	-0.06390052
-4.416133	Curychu	-0.06387427
-4.717163	DIRIGENTA	-0.08541563
-4.717163	Dar	-0.08539064
-4.717163	De	-0.08541563
-4.717163	Dejte	-0.08389697
-4.717163	Dickense	-0.04305813
-4.115103	Dillinger	-0.07498758
-4.717163	Dimitra	-0.08538231
-4.717163	Dlouhé	-0.08541563
-4.240041	Dobeš	-0.1550313
-4.717163	Dobré	-0.0854073
-4.717163	Dokonale	-0.08541563
-4.240041	Doktor	-0.08513232
-4.717163	Doktore	-0.04305813
-4.717163	Doktoři	-0.08535732
-4.240041	Doležal	-0.1755777
-4.717163	Dominga	-0.04305813
-4.717163	Domácí	-0.08521567
-4.717163	Dostanu	-0.08533233
-4.240041	Douglas	-0.05448627
-4.717163	Dudenka	-0.04305813
-4.416133	Dudáš	-0.01926777
-4.717163	Dundr	-0.08407247
-4.416133	Dydydy	-0.2241765
-4.717163	Dynda	-0.08398055
-4.717163	Dyť	-0.0811045
-4.717163	DÍTĚTEM	-0.08436482
-4.717163	Dámě	-0.08326123
-4.717163	Důstojnosti	-0.04305813
-4.416133	Echinocactus	-0.08540731
-4.717163	Egypt	-0.04305813
-4.717163	Ehm	-0.04305813
-4.717163	EmO	-0.04305813
-4.717163	Evropy	-0.06390052
-4.416133	Evropě	-0.08528234
-4.717163	Filipíny	-0.04305813
-4.416133	Firbas	-0.0826581
-4.717163	Firbase	-0.07706445
-4.717163	Fochovy	-0.08539064
-4.717163	Fodor	-0.04305813
-4.717163	Formosu	-0.08328635
-4.416133	Francii	-0.01926777
-4.717163	Frič	-0.04305813
-4.717163	Frontdiensttauglich	-0.06390052
-4.717163	GANDARY	-0.08436482
-4.717163	GRÓFINKA	-0.08436482
-4.717163	Gadete	-0.08541563
-4.018193	Gandara	-0.1463298
-4.717163	Gandarou	-0.06390052
-4.717163	Gandarovi	-0.08541563
-4.717163	Gandarovu	-0.08541563
-4.717163	Gandarovy	-0.08539897
-4.717163	Gandaru	-0.0854073
-4.717163	Gandary	-0.06390052
-4.717163	Gandarův	-0.08537398
-3.46189	Gierke	-0.1096928
-4.717163	Gierkeho	-0.08541563
-4.717163	Gierkem	-0.06390052
-4.717163	Gierkemu	-0.06390052
-4.416133	Gierkovo	-0.06389178
-4.416133	Gierkovu	-0.08537399
-4.717163	Gottfrieda	-0.08541563
-4.717163	Graessnerii	-0.04305813
-4.240041	Grenoblu	-0.01705047
-4.717163	Großpapa	-0.06390052
-4.717163	Grusona	-0.08389697
-4.717163	Gráessner	-0.04305813
-4.717163	Grébovky	-0.04305813
-4.717163	Guinea	-0.06390052
-4.717163	HAVLENY	-0.08436482
-4.717163	HIRSCHE	-0.08436482
-4.717163	HISTORIE	-0.08541563
-4.717163	Hadry	-0.04305813
-4.717163	Hamsuna	-0.04305813
-4.416133	Hannover	-0.01926777
-4.240041	Hanák	-0.1312777
-4.717163	Hardyho	-0.04305813
-4.416133	Harvard	-0.2661339
-4.717163	HavIeno	-0.04305813
-4.717163	Havelka	-0.04305813
-4.717163	Havelko	-0.04305813
-4.018193	Havlem	-0.06148682
-3.513043	Havlena	-0.1333987
-4.240041	Havleno	-0.1312777
-4.717163	Havlenovi	-0.06390052
-4.717163	Havlenu	-0.07156124
-4.717163	Havleny	-0.0832696
-4.416133	Havlenův	-0.08497394
-4.717163	Helejte	-0.04305813
-4.717163	Hergot	-0.06390052
-3.438409	Hirsch	-0.07889339
-3.637981	Hirsche	-0.05457772
-4.018193	Hirschem	-0.008195765
-4.115103	Hirschovi	-0.05951963
-4.717163	Hirschovou	-0.07156124
-3.814073	Hirschová	-0.1560523
-4.717163	Hirschové	-0.06390052
-4.416133	Hm	-0.2241765
-4.416133	Hochman	-0.07153545
-4.717163	Hochmana	-0.04305813
-4.717163	Hochmane	-0.04305813
-4.717163	Hohe	-0.08541563
-4.416133	Holan	-0.2241765
-4.240041	Holben	-0.07731911
-4.717163	Holbene	-0.04305813
-4.717163	Holbenovi	-0.07156124
-3.872065	Holbenovy	-0.2519078
-4.240041	Holbenových	-0.1974089
-3.225801	Holub	-0.9979693
-4.717163	Holube	-0.04305813
-4.717163	Holubem	-0.0832696
-4.717163	Honit	-0.08535732
-4.717163	Hooker	-0.04305813
-3.637981	Horvát	-0.03398884
-4.416133	Horváta	-0.06389178
-4.717163	Horvátovi	-0.04305813
-4.717163	Horálek	-0.04305813
-4.416133	Hospodin	-0.08537399
-4.717163	Hospodinem	-0.04305813
-4.240041	Houdek	-0.1458428
-4.717163	Hrom	-0.0832696
-4.717163	Hromádka	-0.04305813
-4.717163	Huber	-0.08398055
-4.717163	Huga	-0.06390052
-3.541071	Hugo	-0.367054
-4.717163	Hum	-0.04305813
-4.717163	Hybernské	-0.08526567
-4.717163	Indie	-0.04305813
-4.717163	Indiáni	-0.08524901
-4.717163	Indiánům	-0.08016968
-4.717163	Irma	-0.0846069
-4.416133	Irmu	-0.06253295
-4.717163	Itálie	-0.04305813
-4.717163	Itálii	-0.08531567
-4.717163	Ivan	-0.04305813
-4.717163	Ivanův	-0.08537398
-4.717163	JEHLA	-0.08436482
-4.717163	JUC	-0.06390052
-4.717163	JURAJI	-0.08541563
-4.717163	Jak	-0.07648665
-4.717163	Jakživ	-0.08518234
-4.717163	Jakživi	-0.08518234
-4.717163	Jan	-0.0854073
-4.717163	Jana	-0.08541563
-4.717163	Jandera	-0.04305813
-4.240041	Janské	-0.1509622
-4.717163	Jasiny	-0.07156124
-4.717163	Jasině	-0.06390052
-4.717163	Jděte	-0.04305813
-4.717163	Je	-0.08537398
-4.416133	Jejej	-0.2241765
-4.717163	Jen	-0.08541563
-4.717163	Jezusmankote	-0.06390052
-4.240041	Ježíšmarjá	-0.5064113
-4.717163	Josefa	-0.08541563
-4.717163	Jsem	-0.08541563
-3.637981	Juraj	-1.12212
-4.115103	Juraje	-0.4397721
-4.717163	Jurajem	-0.08541563
-4.717163	Juraji	-0.06390052
-4.717163	Justitze	-0.08541563
-3.225801	Já	-0.1119712
-4.717163	Jílek	-0.04305813
-4.717163	KAKTUS	-0.08436482
-4.717163	KALINY	-0.08436482
-4.717163	KASAŘI	-0.08516567
-4.717163	KRIMINÁLNÍKA	-0.08436482
-4.717163	KTERÝ	-0.08541563
-4.240041	Kadaník	-0.0833784
-4.717163	Kadaníka	-0.06390052
-4.717163	Kadaníkovi	-0.07156124
-4.717163	Kadaníkovou	-0.04305813
-4.717163	Kadaníková	-0.0854073
-4.416133	Kadaníkové	-0.03383288
-4.717163	Kalina	-0.08541563
-3.225801	Kalous	-0.340755
-4.717163	Kalousi	-0.04305813
-4.717163	Kalousovi	-0.08463193
-3.486714	Kalousová	-0.3159104
-4.717163	Kalousové	-0.07648665
-4.717163	Kalousovům	-0.07706445
-4.717163	Kalousů	-0.08421449
-4.717163	Kamenice	-0.0817014
-4.717163	Kamenici	-0.08264133
-4.018193	Karas	-0.06673929
-4.717163	Karláku	-0.04305813
-4.717163	Karpatech	-0.07706445
-4.717163	Kavka	-0.04305813
-4.717163	Každej	-0.08538231
-4.717163	Kdyby	-0.07648665
-3.939011	Když	-0.2472628
-4.416133	Keith	-0.05912158
-4.717163	Keithovi	-0.08264133
-4.717163	Kellera	-0.04305813
-4.717163	Kew	-0.08541563
-4.717163	Klimko	-0.08541563
-4.717163	Kobylisích	-0.06390052
-4.717163	Kohut	-0.04305813
-4.717163	Kolikrát	-0.084465
-4.717163	Kolikátého	-0.0808773
-4.717163	Kongo	-0.08264133
-4.717163	Kopytenka	-0.08398055
-4.416133	Kopytenko	-0.04146655
-4.717163	Korea	-0.06390052
-4.717163	Kostariky	-0.04305813
-4.416133	Kostelecký	-0.03383288
-4.717163	Koukej	-0.04305813
-4.717163	Koukejte	-0.04305813
-4.717163	Kovalenka	-0.04305813
-4.416133	Kovalenko	-0.04146655
-4.717163	Košíř	-0.07156124
-4.717163	Krakovem	-0.04305813
-4.717163	Krasoslava	-0.08541563
-4.018193	Kratochvíl	-0.006900258
-4.717163	Kristeježíši	-0.04305813
-4.717163	Kritického	-0.08538231
-4.717163	Krkonoš	-0.08541563
-4.240041	Kroupa	-0.07506435
-4.115103	Krucemburské	-0.3792571
-4.717163	Král	-0.04305813
-4.717163	Kuba	-0.04305813
-4.416133	Kubát	-0.01926777
-4.416133	Kukla	-0.0638305
-4.717163	Křemencové	-0.085324
-4.717163	LYRICKÉM	-0.08541563
-4.240041	Lacina	-0.1312777
-4.717163	Lacinou	-0.07706445
-4.717163	Laitii	-0.07156124
-4.717163	Landa	-0.08504897
-4.240041	Landovou	-0.1550589
-3.603219	Landová	-0.1125575
-4.717163	Landové	-0.04305813
-4.717163	Landy	-0.04305813
-4.115103	Lebeda	-0.124032
-4.717163	Lebedovi	-0.08358759
-4.717163	Lebedu	-0.04305813
-4.416133	Lehoty	-0.04167849
-4.717163	Lelek	-0.04305813
-4.416133	Lembergra	-0.07695405
-4.717163	Leone	-0.06390052
-4.717163	Leopold	-0.04305813
-4.717163	Leopoldii	-0.04305813
-4.717163	Lepota	-0.04305813
-4.240041	Lepoty	-0.1756916
-4.717163	Libérie	-0.04305813
-4.717163	Lidi	-0.04305813
-4.018193	Liverpoolu	-0.1670581
-4.717163	Lojzičko	-0.04305813
-4.416133	Lojzo	-0.2241765
-4.717163	Lojzu	-0.08541563
-3.37474	Lojzík	-0.1895365
-4.115103	Lojzíka	-0.1239676
-4.717163	Lojzíkem	-0.07156124
-4.416133	Lojzíkovi	-0.08535733
-4.717163	Lojzíku	-0.04305813
-4.717163	Lombardie	-0.04305813
-4.717163	Lombardu	-0.08398055
-4.717163	Londýna	-0.04305813
-4.717163	Lory	-0.0808773
-4.416133	Lotsenovou	-0.06389178
-4.717163	Lotsenův	-0.08541563
-4.717163	Louis	-0.08541563
-4.717163	Lucifer	-0.07706445
-3.939011	Lujza	-0.07930043
-4.717163	Lujzce	-0.08541563
-4.416133	Lujze	-0.2241765
-4.240041	Lujzička	-0.08520733
-4.416133	Lujzou	-0.2450188
-4.240041	Lujzu	-0.08525733
-4.240041	Lujzy	-0.183554
-4.018193	Lída	-0.3685386
-4.115103	Lído	-0.3133592
-4.416133	Lídu	-0.04067319
-4.717163	Lídě	-0.06390052
-4.717163	Líznera	-0.04305813
-4.717163	Löbla	-0.0854073
-4.717163	MURDER	-0.07156124
-4.717163	MUŽ	-0.04305813
-4.717163	Mackenzie	-0.0817014
-4.717163	Makedonec	-0.08534899
-4.717163	Malacorrhiza	-0.08541563
-4.717163	Malý	-0.04305813
-4.717163	Mamillaria	-0.08541563
-4.018193	Mandel	-0.00827536
-4.717163	Mandela	-0.07706445
-4.717163	Mandelův	-0.08533233
-4.240041	Marca	-0.07131177
-3.603219	Marco	-0.07624191
-4.717163	Marcova	-0.0854073
-4.416133	Marcovi	-0.06959607
-4.240041	Marcovy	-0.1758492
-4.717163	Maria	-0.04305813
-4.717163	Marie	-0.08541563
-4.717163	Martin	-0.0854073
-4.240041	Maryna	-0.08346208
-3.939011	Maryno	-0.5063379
-3.939011	Marynu	-0.2132444
-4.240041	Maryny	-0.5487522
-4.717163	Maryně	-0.07156124
-4.416133	Marš	-0.261288
-4.717163	Matejovou	-0.06390052
-4.115103	Matejovu	-0.1004334
-3.814073	Matejová	-0.5463495
-4.240041	Matejové	-0.1312777
-4.416133	Matko	-0.2241765
-4.717163	Matěje	-0.04305813
-4.717163	Maupassanta	-0.06390052
-4.717163	Mazanian	-0.07156124
-4.717163	Mařenko	-0.04305813
-4.717163	Mašková	-0.04305813
-3.486714	Mejzlík	-0.641732
-4.416133	Mejzlíku	-0.03383288
-4.717163	Melocactus	-0.08541563
-4.717163	Menšík	-0.04305813
-4.416133	Menšíku	-0.2241765
-4.717163	Menšíků	-0.08541563
-4.416133	Meranu	-0.06933683
-4.717163	Mexika	-0.04305813
-4.717163	Meyer	-0.04305813
-4.416133	Mihálička	-0.257605
-4.240041	Mihály	-0.06230458
-4.416133	Mihályovou	-0.05837758
-4.717163	Mihálíčku	-0.08541563
-4.717163	Milovicích	-0.0808773
-4.717163	Milý	-0.08409754
-4.717163	Mládenci	-0.04305813
-4.717163	Mně	-0.08385517
-4.717163	Moh	-0.08479045
-4.717163	Mordiáno	-0.04305813
-4.717163	Možné	-0.07489371
-4.717163	Mrtvého	-0.07706445
-3.814073	Musil	-0.07429105
-4.717163	Musile	-0.04305813
-4.717163	Musilem	-0.06390052
-4.717163	Musilovi	-0.06390052
-4.717163	Musilův	-0.08536565
-4.717163	Musíme	-0.08490722
-4.717163	Musíte	-0.08389697
-4.717163	My	-0.08016968
-4.717163	Myhala	-0.08541563
-4.717163	Málek	-0.07156124
-4.717163	Mám	-0.06390052
-4.717163	Máničce	-0.08535732
-4.717163	Mánička	-0.04305813
-4.717163	Máš	-0.08439822
-4.717163	Müller	-0.04305813
-4.717163	Měl	-0.08493224
-4.717163	Městě	-0.07156124
-4.717163	Můj	-0.08541563
-4.717163	N	-0.08501562
-4.717163	NEMOHL	-0.08541563
-4.717163	NOZE	-0.08436482
-4.240041	Na	-0.07478275
-4.717163	Najednou	-0.07648665
-4.416133	Načež	-0.0826078
-4.240041	Ne	-0.5064113
-4.717163	Neapole	-0.06390052
-4.717163	Nebo	-0.08541563
-4.717163	Nebojte	-0.07648665
-4.717163	Nebude	-0.04305813
-4.717163	Nechal	-0.08385517
-4.717163	Nedá	-0.04305813
-4.717163	Nejkratší	-0.08534066
-4.717163	Nejvíc	-0.08541563
-4.717163	Neměl	-0.08479045
-4.717163	Nesmysl	-0.04305813
-4.717163	Nesmíte	-0.07648665
-4.717163	Newton	-0.08398055
-4.717163	Neříkej	-0.08498227
-4.717163	Neříkejte	-0.07489371
-4.717163	Nicaragua	-0.04305813
-4.717163	Nikam	-0.08539897
-4.717163	Nizozemsko	-0.04305813
-4.717163	Nizze	-0.07706445
-4.115103	No	-0.04222167
-4.717163	Norska	-0.06390052
-4.416133	Novoves	-0.04932152
-4.717163	Novém	-0.08539897
-4.717163	Nový	-0.08541563
-4.717163	Nu	-0.08147451
-4.717163	Nějaký	-0.08519901
-4.717163	Někteří	-0.08496559
-4.717163	Němci	-0.08147451
-4.115103	O	-0.08539064
-4.717163	OBYČEJNÁ	-0.0854073
-4.717163	Oberhnder	-0.04305813
-4.018193	Oberhuber	-0.01882133
-4.717163	Oberhuberem	-0.07648665
-4.717163	Oberhuberovým	-0.08541563
-4.717163	Obžalovaná	-0.04305813
-4.717163	Ochraně	-0.08541563
-4.717163	Od	-0.08438987
-4.717163	Olšanech	-0.08541563
-4.717163	On	-0.07489371
-4.240041	Ono	-0.06097601
-4.717163	Orientě	-0.08354576
-4.717163	Ostende	-0.07156124
-4.717163	Otce	-0.04305813
-4.717163	Otáhal	-0.08398055
-4.416133	PANA	-0.08540731
-4.717163	PODVODNÍKA	-0.08436482
-4.717163	POROTCE	-0.08436482
-4.717163	POSLEDNÍ	-0.08541563
-4.416133	POVÍDKA	-0.08538232
-4.717163	PTÁCI	-0.08436482
-4.240041	Pak	-0.07471445
-4.240041	Palermu	-0.1529416
-4.717163	Palermě	-0.08398055
-4.717163	Palte	-0.06390052
-3.872065	Pan	-0.2283549
-3.438409	Pane	-0.2514887
-4.416133	Paní	-0.08524068
-4.717163	Pardubic	-0.0817014
-4.240041	Pardubicích	-0.1703875
-4.416133	Paulus	-0.05511196
-4.717163	Paříže	-0.06390052
-4.018193	Pepek	-0.06125792
-4.416133	Pepka	-0.07821776
-4.717163	Pepkem	-0.07489371
-4.240041	Pepku	-0.1458428
-4.717163	Persii	-0.08518234
-4.717163	Perunovy	-0.04305813
-4.717163	Peterka	-0.04305813
-4.717163	Philippa	-0.04305813
-4.240041	Pilocereus	-0.5487522
-3.416133	Pitr	-0.04931083
-4.416133	Pitra	-0.0770135
-4.717163	Pitrovi	-0.04305813
-4.717163	Pivoda	-0.04305813
-3.814073	Pištora	-0.4976951
-4.717163	Pištoro	-0.04305813
-4.717163	Pištorou	-0.04305813
-3.438409	Plichta	-0.1673252
-4.240041	Plichto	-0.5064113
-4.416133	Plichtu	-0.06229581
-4.717163	Po	-0.0845902
-4.717163	Podaří	-0.07648665
-4.717163	Podkarpatsku	-0.0817014
-4.717163	Podle	-0.08438987
-4.717163	Polgár	-0.04305813
-4.115103	Polgáre	-0.3974479
-4.717163	Političce	-0.06390052
-4.717163	Polizei	-0.06390052
-4.416133	Posel	-0.2665006
-4.240041	Posla	-0.1890319
-4.717163	Poslední	-0.085224
-4.416133	Poslouchejte	-0.2241765
-4.717163	Poslu	-0.08538231
-4.416133	Poslušně	-0.2665173
-4.717163	Potlačené	-0.08535732
-4.240041	Potom	-0.08536565
-4.115103	Počkejte	-0.3974479
-4.717163	Prahu	-0.0832696
-4.240041	Prahy	-0.1758754
-3.717163	Praze	-0.2556601
-4.717163	Procházka	-0.04305813
-4.717163	Prokrindapána	-0.04305813
-4.717163	Prostějova	-0.04305813
-4.115103	Prosím	-0.2235423
-4.717163	Protasov	-0.06390052
-4.717163	Pusťte	-0.08519901
-4.717163	Pánové	-0.04305813
-4.717163	Pánu	-0.08541563
-4.717163	Páně	-0.06390052
-4.717163	Páter	-0.08538231
-4.717163	PŘÍBĚH	-0.08539064
-4.717163	PŘÍBĚHY	-0.08541563
-4.717163	PŘÍPAD	-0.08541563
-4.240041	Před	-0.08539063
-4.717163	Předně	-0.0846069
-4.717163	Předseda	-0.08537398
-4.717163	Přihlas	-0.08376321
-4.240041	Přitom	-0.06756988
-4.717163	Přítelíčku	-0.04305813
-4.717163	Půjčte	-0.08526567
-4.115103	Racek	-0.1333126
-4.717163	Radlicích	-0.0854073
-4.717163	Rakousko	-0.04305813
-4.717163	Rakouská	-0.07648665
-4.416133	Readingu	-0.2450188
-4.717163	Reymonta	-0.07156124
-4.717163	Roseggera	-0.04305813
-4.717163	Roubalová	-0.08349556
-4.717163	Rožmberku	-0.08509065
-3.814073	Rus	-0.17885
-3.872065	Rusa	-0.09378638
-4.717163	Rusové	-0.08528233
-4.717163	Rusvák	-0.0817014
-4.717163	Rusy	-0.06390052
-4.416133	Rusňák	-0.08411425
-4.416133	Rusňáček	-0.01926777
-4.717163	Ráno	-0.07948624
-4.416133	Ráček	-0.04162321
-4.416133	Ráčka	-0.08326124
-4.416133	Růžence	-0.08530734
-3.76292	Růženka	-0.1636947
-4.717163	Růženko	-0.04305813
-4.717163	Růženkou	-0.085324
-4.018193	Růženku	-0.1246205
-4.717163	S	-0.08541563
-4.717163	SBÍRKA	-0.08541563
-4.717163	SMRT	-0.08541563
-4.717163	SOUD	-0.0854073
-4.717163	SPÁT	-0.08436482
-4.717163	STARÉHO	-0.08541563
-4.717163	Sakra	-0.06390052
-4.717163	Samozřejmě	-0.08479045
-4.717163	San	-0.08541563
-4.416133	Scholle	-0.2526796
-4.717163	Sdružení	-0.0854073
-4.717163	Sedmihradsku	-0.07706445
-4.416133	Sepp	-0.07643563
-4.717163	Seppem	-0.08421449
-4.717163	Settlements	-0.08264133
-4.416133	Severýnovou	-0.01926777
-3.637981	Severýnová	-0.1440576
-4.018193	Severýnové	-0.04719826
-4.416133	Siam	-0.02774962
-4.240041	Sir	-0.5487522
-4.717163	Skrz	-0.08537398
-3.717163	Skřivánek	-0.1647851
-4.717163	Slatině	-0.07706445
-4.717163	Slezské	-0.07156124
-4.717163	Slečno	-0.04305813
-4.717163	Smyrny	-0.08389697
-4.416133	Snad	-0.08489889
-3.355435	Spitz	-0.2075654
-4.416133	Spitze	-0.07703049
-4.717163	Spitzem	-0.08541563
-4.717163	Spitzovi	-0.04305813
-4.717163	Spolek	-0.0854073
-4.717163	Starém	-0.08541563
-4.717163	Storma	-0.04305813
-4.717163	Stočes	-0.07156124
-4.717163	Straits	-0.08541563
-4.416133	Strýc	-0.2663757
-4.717163	Státní	-0.08538231
-4.717163	Suicidium	-0.06390052
-4.717163	Svatého	-0.08541563
-4.717163	Sverige	-0.08539897
-4.717163	Svědomí	-0.04305813
-4.717163	SŇATKOVĚHO	-0.08541563
-4.717163	TELEGRAM	-0.08436482
-4.717163	Tady	-0.0808773
-4.717163	Tahleta	-0.08541563
-3.198649	Tak	-0.09535597
-4.717163	Takhle	-0.07948624
-4.717163	Taková	-0.08541563
-4.717163	Takového	-0.08535732
-4.717163	Takový	-0.07489371
-4.717163	Taky	-0.08519901
-4.717163	Tam	-0.08358759
-4.717163	Tatka	-0.04305813
-4.717163	Tatky	-0.06390052
-3.872065	Taussig	-0.1827079
-4.240041	Teda	-0.07731911
-4.240041	Tedy	-0.08483215
-4.717163	Telegram	-0.0808773
-4.717163	Ten	-0.08535732
-4.717163	Terentík	-0.06390052
-4.717163	Terezie	-0.04305813
-4.717163	Tisíce	-0.07156124
-3.198649	To	-0.22753
-4.717163	Tohle	-0.04305813
-4.115103	Tonda	-0.01909313
-4.717163	Tondo	-0.06390052
-4.717163	Tondu	-0.07156124
-4.717163	Totiž	-0.04305813
-4.717163	Trigemin	-0.08398055
-4.717163	Tu	-0.07648665
-4.717163	Turci	-0.0817014
-4.018193	Turková	-0.03758745
-4.416133	Turkové	-0.06262952
-4.717163	Turnovsko	-0.08398055
-3.76292	Ty	-0.427327
-4.717163	Tyhle	-0.08541563
-4.717163	Tymich	-0.04305813
-4.717163	Táborsko	-0.07156124
-4.717163	Táhni	-0.04305813
-4.717163	Té	-0.08520734
-4.717163	Tóth	-0.08541563
-4.717163	Tři	-0.08531567
-4.717163	UKRADENA	-0.0854073
-4.717163	Uher	-0.04305813
-4.416133	Ukažte	-0.2241765
-4.717163	UŠNÍ	-0.08541563
-4.717163	Už	-0.0808773
-4.115103	V	-0.1649232
-4.416133	VRAŽDA	-0.2654831
-4.717163	Vasylův	-0.06390052
-4.717163	Vaňka	-0.06390052
-4.717163	Vašaty	-0.04305813
-4.717163	Ve	-0.08539064
-4.717163	Velebný	-0.08409754
-4.717163	Veličenstva	-0.04305813
-4.717163	Velké	-0.08534066
-4.717163	Vem	-0.08535732
-4.717163	Vichy	-0.04305813
-4.717163	Vincku	-0.04305813
-4.717163	Vinohradech	-0.06390052
-3.872065	Vitásek	-0.2529776
-4.416133	Vitáska	-0.01926777
-4.717163	Vlado	-0.04305813
-4.717163	Vogt	-0.08398055
-4.717163	Vojtou	-0.04305813
-4.717163	Volova	-0.08541563
-4.240041	Volovy	-0.1973922
-4.416133	Volové	-0.08538232
-4.717163	Vorobec	-0.06390052
-4.018193	Voves	-0.07899025
-4.717163	Vrací	-0.04305813
-4.717163	Vršovic	-0.04305813
-4.717163	Vršovicích	-0.08537398
-4.717163	Vtom	-0.07648665
-4.240041	Vy	-0.08436481
-4.717163	Vysočanech	-0.07706445
-4.416133	Václav	-0.06389178
-4.717163	Václave	-0.07706445
-4.717163	Václavem	-0.08539897
-4.717163	Vídni	-0.08541563
-4.416133	Vídně	-0.03383288
-4.416133	Víte	-0.2241765
-4.717163	VĚCI	-0.08541563
-4.018193	Věra	-0.01666032
-4.717163	Věrou	-0.08509065
-4.416133	Věry	-0.2241765
-4.416133	Věře	-0.0839137
-4.717163	Všemohoucímu	-0.08264133
-4.717163	Vůbec	-0.06390052
-4.240041	Vždyť	-0.07911452
-4.240041	W	-0.1758667
-4.717163	Wand	-0.04305813
-4.717163	Weilovi	-0.0832696
-4.240041	Westermann	-0.1838549
-4.717163	Westermannem	-0.07156124
-4.717163	Westermaruz	-0.0808773
-4.717163	Wild	-0.06390052
-4.717163	Wildovy	-0.08541563
-4.717163	Wislizen	-0.08398055
-4.717163	Wislizena	-0.08469034
-4.717163	Wislizenii	-0.04305813
-4.717163	Wittia	-0.04305813
-4.416133	Z	-0.08539898
-4.717163	ZLODĚJI	-0.08436482
-4.717163	ZMIZENÍ	-0.0854073
-4.717163	ZNÁMEK	-0.08436482
-4.717163	ZPOVEĎ	-0.08436482
-4.717163	ZTRACENÉ	-0.08541563
-4.416133	Za	-0.08520734
-4.717163	Zach	-0.04305813
-4.717163	Zanelli	-0.04305813
-4.717163	Zanelliovou	-0.06390052
-4.416133	Zanelliová	-0.04304895
-4.416133	Zanelliů	-0.06248026
-4.717163	Zaplaťpánbůh	-0.04305813
-4.717163	Zas	-0.07948624
-4.717163	Zatrápená	-0.08510733
-4.717163	Zatím	-0.07648665
-4.717163	Zavraždil	-0.07948624
-4.717163	Zcela	-0.08541563
-4.717163	Zdeničky	-0.06390052
-4.416133	Ze	-0.266434
-4.416133	Zkrátka	-0.04284687
-4.717163	ZÁVRAŤ	-0.08436482
-4.717163	Zéland	-0.04305813
-1.502849	a	-0.09703879
-4.717163	abeced	-0.06390052
-4.717163	abnormálnímu	-0.04305813
-2.679736	aby	-0.1853442
-3.115103	abych	-0.2426059
-3.939011	abychom	-0.1766276
-3.939011	abys	-0.2560619
-3.302189	abyste	-0.6633586
-4.717163	adalin	-0.04305813
-4.416133	adresu	-0.07153545
-3.76292	advokát	-0.07202538
-4.416133	advokáta	-0.07155265
-4.717163	advokátských	-0.08541563
-4.717163	advokátů	-0.08531567
-4.717163	advokátův	-0.0854073
-4.717163	aeroplánem	-0.0832696
-4.416133	aféra	-0.2450188
-4.416133	aféry	-0.04932152
-4.240041	agent	-0.08259102
-4.717163	agenti	-0.0817014
-4.717163	agentů	-0.08541563
-3.814073	aha	-0.5249441
-4.717163	aktovce	-0.08493224
-4.416133	aktovkou	-0.08043939
-4.717163	akurátnost	-0.07156124
-4.717163	akvaristé	-0.04305813
-4.416133	akvaristů	-0.2241765
-4.717163	alarmujte	-0.08534066
-2.081679	ale	-0.188325
-4.717163	alejemi	-0.07156124
-4.717163	algokratin	-0.04305813
-4.416133	alibi	-0.01926777
-4.717163	alimenty	-0.08528233
-4.717163	amatér	-0.07706445
-4.240041	amen	-0.0181897
-4.717163	amin	-0.07156124
-4.717163	aminko	-0.04305813
-4.717163	amino	-0.04305813
-4.717163	analýze	-0.06390052
-4.717163	anatol	-0.08326123
-4.717163	anatolák	-0.08502396
-4.717163	andulo	-0.04305813
-4.717163	andílek	-0.04305813
-4.717163	anebo	-0.08531567
-4.416133	anglicky	-0.03383288
-4.717163	anglické	-0.08534899
-4.416133	anglický	-0.08525734
-4.717163	angličtiny	-0.07156124
-2.712841	ani	-0.1281117
-4.416133	anilinem	-0.04304895
-4.717163	anilinu	-0.06390052
-4.717163	aniž	-0.08407247
-4.018193	ano	-0.3471332
-4.240041	anonymní	-0.1973256
-4.717163	anonymních	-0.08539064
-4.717163	antikvity	-0.08433977
-4.717163	arabskou	-0.08541563
-4.717163	arch	-0.08538231
-4.717163	archeolog	-0.04305813
-4.717163	arest	-0.0808773
-4.717163	argumentů	-0.04305813
-4.717163	armáda	-0.0808773
-4.416133	arménský	-0.08395549
-4.717163	artilerie	-0.06390052
-3.225801	asi	-0.1363065
-4.717163	asistenti	-0.07156124
-3.225801	aspoň	-0.08325729
-4.416133	astmaticky	-0.2526796
-4.717163	astronomické	-0.0854073
-4.717163	atak	-0.07648665
-4.717163	atentáty	-0.08533233
-4.717163	atrofie	-0.08541563
-4.240041	auditor	-0.04297547
-4.717163	auditorem	-0.08487386
-4.717163	auditorium	-0.07156124
-4.717163	aura	-0.08541563
-4.416133	aurea	-0.266509
-4.416133	auta	-0.2526796
-4.717163	autem	-0.08487386
-4.717163	autor	-0.07648665
-4.717163	autorské	-0.08541563
-4.717163	autě	-0.08539897
-3.416133	ať	-0.1873008
-4.717163	aťs	-0.08469034
-3.035922	až	-0.18939
-3.814073	ba	-0.2574117
-4.717163	baba	-0.04305813
-4.416133	babička	-0.03319456
-4.717163	babičku	-0.07156124
-4.717163	babku	-0.06390052
-4.240041	babo	-0.5487522
-4.717163	babu	-0.08526567
-4.416133	baby	-0.04301222
-4.717163	bachratý	-0.07156124
-4.717163	bafů	-0.07156124
-4.717163	baganči	-0.08398055
-4.717163	bajonetem	-0.08536565
-4.416133	bajonety	-0.03383288
-4.416133	bakaná	-0.03383288
-4.717163	baladické	-0.08541563
-4.717163	baladu	-0.04305813
-4.717163	balík	-0.04305813
-4.717163	bandito	-0.08490722
-4.717163	bank	-0.04305813
-4.717163	bankovky	-0.04305813
-4.717163	banky	-0.04305813
-4.717163	baret	-0.07156124
-4.717163	barevná	-0.08541563
-3.939011	baron	-0.422639
-4.416133	barona	-0.08169301
-4.717163	barvené	-0.08478211
-4.717163	barvený	-0.085224
-4.717163	barvili	-0.08541563
-4.717163	barvivy	-0.07706445
-4.717163	barvu	-0.08016968
-4.717163	barvách	-0.04305813
-4.717163	barvě	-0.08499894
-4.717163	barzoj	-0.08537398
-4.416133	barák	-0.08540731
-4.416133	baráku	-0.06385677
-4.416133	bas	-0.07468032
-4.240041	basa	-0.04303975
-4.717163	basově	-0.07156124
-4.240041	basta	-0.1312777
-4.416133	baum	-0.01926777
-4.717163	bavil	-0.04305813
-4.717163	bavlněný	-0.0854073
-4.717163	bačkora	-0.07156124
-4.717163	beduín	-0.04305813
-4.717163	bejval	-0.08463193
-4.717163	bejvá	-0.0854073
-4.717163	bekem	-0.04305813
-4.717163	bellevue	-0.08541563
-4.717163	benyky	-0.04305813
-4.717163	benzín	-0.07706445
-4.416133	ber	-0.06369041
-4.717163	berany	-0.0817014
-4.717163	bere	-0.06390052
-4.717163	bergamo	-0.06390052
-4.717163	berlínského	-0.08537398
-4.717163	berlínský	-0.08541563
-4.717163	berní	-0.08541563
-4.717163	berou	-0.08541563
-4.717163	beránek	-0.07706445
-4.416133	bestie	-0.01926777
-4.717163	bestiální	-0.04305813
-3.270005	bez	-0.139853
-4.717163	bezbranné	-0.08541563
-4.018193	beze	-0.2236228
-4.717163	bezesnou	-0.08529067
-4.717163	bezmeznou	-0.08536565
-4.717163	bezmezně	-0.08539064
-4.717163	bezmoc	-0.0808773
-4.240041	bezmocně	-0.08326122
-4.717163	bezohledného	-0.08541563
-4.717163	bezprostřednost	-0.07156124
-4.717163	bezpráví	-0.06390052
-4.416133	bezradně	-0.05837758
-4.240041	beztoho	-0.085274
-4.717163	bezvědomí	-0.04305813
-4.717163	bibli	-0.08469034
-4.717163	bije	-0.04305813
-4.717163	bil	-0.04305813
-4.717163	bičem	-0.04305813
-4.717163	blahem	-0.08539897
-4.717163	blahobyt	-0.07706445
-4.717163	blahodárným	-0.07156124
-4.717163	blahovůli	-0.04305813
-4.717163	blamážemi	-0.07156124
-4.717163	blaženě	-0.07648665
-4.717163	blbec	-0.04305813
-4.717163	blbostmi	-0.04305813
-4.416133	bledou	-0.2526796
-4.115103	bledá	-0.02529798
-4.717163	bledé	-0.07156124
-4.717163	bledého	-0.08539064
-4.018193	bledý	-0.1636564
-4.717163	bledých	-0.08537398
-4.717163	bledým	-0.07156124
-4.717163	bledší	-0.08509065
-4.717163	blejská	-0.08016968
-4.717163	bližší	-0.08541563
-4.717163	blond	-0.08433142
-4.717163	blondýnka	-0.07648665
-4.717163	bloumá	-0.08433977
-4.717163	bludům	-0.07156124
-4.717163	blátem	-0.06390052
-3.872065	blázen	-0.3953634
-4.416133	bláznivá	-0.08366287
-4.717163	bláznivé	-0.085274
-4.717163	bláznovství	-0.04305813
-4.240041	blíž	-0.07022622
-4.717163	bobeček	-0.04305813
-4.717163	body	-0.08541563
-4.717163	bodáky	-0.07706445
-4.717163	boha	-0.04305813
-4.240041	bohatá	-0.04929435
-4.717163	bohatého	-0.08539064
-4.416133	bohatý	-0.07140642
-4.416133	bohatých	-0.266434
-4.416133	bohužel	-0.04291118
-4.717163	boj	-0.0817014
-4.717163	bojoval	-0.08389697
-4.717163	bojovat	-0.08389697
-4.717163	bojovný	-0.08328635
-4.717163	bojovně	-0.08541563
-4.717163	bojí	-0.07706445
-4.416133	bojím	-0.05837758
-4.717163	bojíte	-0.0854073
-4.717163	bok	-0.07948624
-4.416133	bolelo	-0.06306822
-3.394943	bolest	-0.1045222
-3.814073	bolesti	-0.1210635
-4.717163	bolestné	-0.07156124
-4.717163	bolestně	-0.04305813
-4.018193	bolestí	-0.147866
-4.717163	bolestín	-0.04305813
-4.717163	bolet	-0.07156124
-4.717163	bollandisté	-0.08352066
-4.240041	bolí	-0.06352398
-4.717163	bonbóny	-0.08264133
-4.717163	borůvčím	-0.08533233
-4.240041	boty	-0.1397595
-4.416133	botách	-0.01926777
-4.717163	bouchala	-0.08463193
-4.717163	bouchl	-0.08389697
-4.717163	bouchá	-0.04305813
-4.717163	boucháme	-0.08463193
-4.717163	bouře	-0.0817014
-4.717163	bouři	-0.08541563
-4.717163	bouřit	-0.04305813
-4.717163	boxerku	-0.04305813
-4.018193	bože	-0.5307876
-4.717163	božském	-0.08536565
-4.717163	božský	-0.07156124
-3.541071	boží	-0.1408854
-4.717163	božího	-0.0854073
-4.240041	božím	-0.04302139
-4.717163	brabec	-0.04305813
-4.717163	brada	-0.07156124
-4.717163	bradatý	-0.08541563
-4.416133	bradou	-0.01926777
-4.717163	brajgl	-0.06390052
-4.240041	bral	-0.1532368
-4.717163	bralo	-0.0832696
-4.717163	brankář	-0.0832696
-4.240041	bratr	-0.04300302
-4.717163	bratrance	-0.04305813
-4.717163	bratři	-0.085174
-4.717163	bravuru	-0.08398055
-4.240041	brašnář	-0.01924835
-4.717163	brašnáře	-0.0817014
-4.717163	brejle	-0.07156124
-4.717163	brejlil	-0.08541563
-4.115103	breku	-0.04615096
-4.717163	breptal	-0.07156124
-3.872065	brečel	0.006807238
-4.240041	brečet	-0.063848
-4.717163	brečí	-0.04305813
-4.717163	brilianty	-0.07156124
-4.240041	brouk	-0.03378596
-4.717163	brouků	-0.08398055
-4.717163	brouzdal	-0.07648665
-4.717163	brouček	-0.04305813
-4.717163	brovninku	-0.0832696
-4.717163	brumlal	-0.04305813
-4.717163	brumlá	-0.07706445
-4.717163	brunátný	-0.08541563
-4.416133	brutální	-0.04303977
-4.717163	brutálnímu	-0.08536565
-3.438409	bručel	-0.3548747
-4.416133	bryndáček	-0.03383288
-4.717163	brzdy	-0.06390052
-4.115103	brzo	-0.07971416
-4.115103	bránil	-0.4308765
-4.717163	bróm	-0.07156124
-4.717163	bubny	-0.07156124
-4.717163	bububu	-0.04305813
-4.717163	buchary	-0.04305813
-3.045065	bude	-0.06324954
-4.018193	budeme	-0.08513233
-4.115103	budete	-0.08095305
-4.416133	budeš	-0.08499061
-4.018193	budou	-0.0761464
-4.416133	budoucího	-0.06389178
-3.637981	budu	-0.06780843
-4.115103	budí	-0.07457784
-4.717163	burcoval	-0.08536565
-4.717163	burzu	-0.07156124
-4.717163	burácel	-0.08426461
-4.717163	burácení	-0.08354576
-4.717163	bučí	-0.07156124
-3.76292	buď	-0.1078017
-4.416133	buďte	-0.08126432
-4.717163	buďto	-0.0817014
-4.717163	buřince	-0.04305813
-2.507648	by	-0.2400092
-2.836349	bych	-0.2078192
-4.115103	bychom	-0.07349188
-4.018193	bydlel	-0.1435124
-3.939011	bydlí	-0.07424466
-4.717163	bydlím	-0.0817014
-4.717163	bydlíme	-0.0817014
-4.717163	bydlíte	-0.0817014
-2.37474	byl	-0.1306467
-2.725937	byla	-0.04101543
-3.541071	byli	-0.06584114
-2.555795	bylo	-0.203223
-3.185684	byly	-0.07752292
-4.240041	bys	-0.08388861
-3.302189	byste	-0.2416475
-4.115103	byt	-0.002788916
-4.416133	bytné	-0.04301222
-4.416133	byty	-0.07113966
-3.939011	bytě	-0.307917
-4.717163	bzučení	-0.07156124
-4.416133	bába	-0.08199535
-4.717163	bábou	-0.08349556
-4.416133	bábu	-0.07705596
-4.416133	báby	-0.01926777
-4.717163	bábě	-0.06390052
-4.717163	báječnou	-0.06390052
-4.717163	báječný	-0.08499061
-4.416133	bál	-0.01926777
-4.717163	báli	-0.04305813
-3.939011	báseň	-0.05250444
-4.240041	básní	-0.0583687
-4.717163	básníci	-0.08541563
-4.416133	básník	-0.03319456
-4.717163	básníka	-0.04305813
-3.717163	básně	-0.119862
-4.416133	básněmi	-0.01926777
-4.717163	bát	-0.08482382
-4.717163	báči	-0.04305813
-4.717163	bída	-0.08147451
-4.416133	bídný	-0.08327798
-4.717163	bídu	-0.04305813
-4.717163	bídě	-0.07156124
-4.717163	bílá	-0.04305813
-4.240041	bílé	-0.08537398
-4.240041	bílém	-0.04303057
-4.717163	bílí	-0.08464028
-3.939011	bílý	-0.09521396
-4.416133	bílých	-0.08539065
-4.717163	býk	-0.04305813
-2.924771	být	-0.05194185
-4.717163	bývají	-0.06390052
-4.416133	býval	-0.08455683
-4.416133	bývala	-0.04301222
-4.240041	bývalo	-0.05419995
-4.717163	bývá	-0.08524901
-4.717163	býváme	-0.06390052
-4.416133	bědoval	-0.07677565
-4.717163	bědovala	-0.085324
-4.717163	běhají	-0.08016968
-4.018193	běhal	-0.2955047
-4.717163	běhat	-0.07706445
-4.416133	během	-0.08534899
-4.416133	běhání	-0.2241765
-4.717163	běloučký	-0.08541563
-4.717163	bělovlasé	-0.08433142
-4.115103	běžel	-0.1603757
-4.717163	běželi	-0.0832696
-4.717163	běžet	-0.08541563
-4.416133	běží	-0.2652911
-4.416133	běžím	-0.0789032
-4.717163	břehu	-0.08539897
-4.717163	břehů	-0.06390052
-4.717163	břicha	-0.07156124
-4.416133	břichem	-0.07155265
-4.717163	břitkou	-0.08541563
-4.717163	břitva	-0.06390052
-4.717163	bříškem	-0.07156124
-4.115103	bůh	-0.3370852
-4.717163	bůhví	-0.085224
-4.717163	bůhvíjaká	-0.08541563
-4.717163	bůhvíkde	-0.07706445
-4.717163	caespitosum	-0.08539064
-4.717163	carcere	-0.08541563
-4.717163	care	-0.08541563
-4.717163	catenis	-0.06390052
-4.717163	cauda	-0.08541563
-4.416133	cavyky	-0.06932819
-4.717163	cavykách	-0.07156124
-4.717163	cedulka	-0.08326123
-4.416133	cela	-0.08435647
-4.416133	cele	-0.04303977
-4.717163	celkem	-0.08417273
-4.717163	cello	-0.04305813
-4.717163	celní	-0.08541563
-3.67577	celou	-0.3721998
-4.717163	celu	-0.08541563
-3.872065	cely	-0.1027992
-3.717163	celá	-0.1586189
-3.637981	celé	-0.09940871
-4.240041	celého	-0.085199
-4.240041	celém	-0.1973173
-3.254765	celý	-0.1360292
-4.717163	cena	-0.06390052
-4.717163	centimetrů	-0.08541563
-3.513043	cenu	-0.1607841
-4.717163	ceny	-0.04305813
-4.717163	cest	-0.08541563
-4.416133	cesta	-0.08414768
-4.018193	cestou	-0.07494491
-4.717163	cestovatelem	-0.08398055
-4.717163	cestování	-0.07156124
-3.717163	cestu	-0.06057051
-4.115103	cestující	-0.3371404
-4.240041	cesty	-0.1745429
-4.416133	chalup	-0.0770135
-4.717163	chalupy	-0.07156124
-4.717163	chalupě	-0.08539064
-4.717163	charakter	-0.06390052
-4.717163	charakterní	-0.08541563
-4.717163	chasník	-0.04305813
-4.717163	chatrný	-0.08528233
-4.717163	chatrnější	-0.08509065
-3.513043	chce	-0.02669588
-3.814073	chcete	-0.0472521
-4.416133	chceš	-0.2241765
-4.717163	chci	-0.08531567
-4.717163	chcíplá	-0.0854073
-4.717163	chemikové	-0.0832696
-4.717163	chladná	-0.04305813
-4.717163	chladných	-0.07156124
-4.717163	chladně	-0.08433142
-3.541071	chlap	-0.02693924
-4.115103	chlapa	-0.04359959
-4.717163	chlape	-0.04305813
-4.717163	chlapeček	-0.06390052
-4.717163	chlapečka	-0.08479045
-4.416133	chlapi	-0.0400171
-4.717163	chlapovi	-0.04305813
-4.717163	chlapské	-0.08541563
-4.717163	chlapy	-0.08539897
-4.115103	chlapík	-0.1249956
-4.416133	chlapíka	-0.04067319
-4.717163	chlapče	-0.04305813
-4.416133	chlapů	-0.07640161
-4.717163	chlastají	-0.07156124
-3.939011	chleba	-0.189083
-4.717163	chlubili	-0.04305813
-4.717163	chlubivost	-0.07156124
-4.717163	chlubí	-0.04305813
-4.717163	chlup	-0.06390052
-4.416133	chlupy	-0.05837758
-4.416133	chlácholil	-0.06323481
-4.717163	chlácholivého	-0.08541563
-4.717163	chlácholivě	-0.04305813
-4.717163	chládek	-0.08457351
-4.717163	chléb	-0.04305813
-4.717163	chlív	-0.0847988
-4.717163	chodbičku	-0.04305813
-4.717163	chodbu	-0.07156124
-4.416133	chodby	-0.07703898
-4.018193	chodbě	-0.07133759
-3.67577	chodil	-0.08158788
-4.416133	chodili	-0.2241765
-4.115103	chodit	-0.3573613
-4.416133	chodníku	-0.07117409
-3.939011	chodí	-0.08854748
-4.717163	chopil	-0.07648665
-4.717163	choroba	-0.0808773
-4.717163	chorobná	-0.08541563
-4.717163	chorobou	-0.04305813
-4.717163	chorobu	-0.04305813
-4.717163	choutky	-0.04305813
-4.717163	chovají	-0.08541563
-4.240041	choval	-0.08406411
-4.717163	chovali	-0.08328635
-4.240041	chovat	-0.1951205
-4.717163	chová	-0.07648665
-4.717163	chraptivě	-0.07156124
-4.416133	chraptěl	-0.0637342
-4.717163	chrchlaje	-0.08541563
-4.416133	chrlil	-0.03895232
-4.717163	chrochtají	-0.08541563
-4.717163	chrochtat	-0.04305813
-4.717163	chrochtá	-0.08541563
-4.717163	chromého	-0.04305813
-4.416133	chrup	-0.04156793
-4.416133	chrám	-0.06238366
-4.717163	chrámech	-0.08541563
-4.717163	chránil	-0.04305813
-4.717163	chrápala	-0.07156124
-4.717163	chrčivě	-0.08541563
-4.717163	chtíčům	-0.08541563
-4.717163	chtějí	-0.08537398
-3.37474	chtěl	-0.01053098
-3.872065	chtěla	-0.05978478
-4.018193	chtěli	-0.04300303
-4.717163	chudou	-0.08541563
-4.717163	chudá	-0.08539897
-4.240041	chudák	-0.08502395
-4.416133	chudáka	-0.04185348
-4.717163	chudí	-0.08519901
-4.717163	chutě	-0.06390052
-4.717163	chuť	-0.08541563
-4.018193	chvilku	-0.04294792
-4.717163	chválili	-0.07706445
-3.939011	chvíle	-0.01115099
-4.115103	chvílemi	-0.06673589
-3.198649	chvíli	-0.2004635
-4.717163	chvílích	-0.07948624
-4.717163	chvěním	-0.07648665
-4.240041	chyba	-0.5272537
-4.717163	chybičku	-0.06390052
-4.416133	chybu	-0.08347046
-4.115103	chybí	-0.08405576
-4.717163	chybělo	-0.07706445
-4.717163	chyběly	-0.0817014
-4.717163	chybět	-0.08539897
-4.240041	chystá	-0.08458185
-4.416133	chytal	-0.07646964
-4.717163	chytil	-0.08389697
-4.240041	chytit	-0.1745341
-3.939011	chytli	0.009472877
-4.416133	chytlo	-0.05837758
-4.717163	chytneme	-0.06390052
-4.717163	chytrák	-0.07156124
-4.717163	chytrý	-0.084465
-4.717163	chytřejší	-0.08509065
-4.717163	cifry	-0.08541563
-4.416133	cigaret	-0.06238366
-4.717163	cigareta	-0.08389697
-4.416133	cigarety	-0.02774962
-4.115103	cikáni	-0.009507261
-4.717163	cikánská	-0.04305813
-4.717163	cimře	-0.04305813
-4.717163	cinkl	-0.0854073
-4.717163	cinknul	-0.0832696
-4.717163	ciráty	-0.07706445
-4.115103	cit	-0.1142857
-4.717163	citem	-0.04305813
-4.115103	citerista	-0.1001035
-4.717163	citlivka	-0.04305813
-4.416133	citové	-0.08540731
-4.416133	citu	-0.05511196
-4.018193	city	-0.2700301
-4.717163	citů	-0.08509065
-4.717163	civile	-0.04305813
-4.717163	civilní	-0.08539897
-4.717163	civilního	-0.04305813
-4.717163	civilu	-0.04305813
-4.717163	cize	-0.08541563
-4.717163	cizinec	-0.04305813
-4.717163	ciziny	-0.08352066
-4.717163	cizokrajného	-0.0854073
-4.717163	cizokrajnými	-0.08541563
-4.240041	cizí	-0.04291117
-4.240041	cizího	-0.1970922
-4.717163	cizími	-0.08539897
-2.336951	co	-0.2198645
-4.717163	colubrina	-0.08539064
-4.717163	comandante	-0.04305813
-4.717163	confessionis	-0.06390052
-3.486714	copak	-0.1132089
-4.717163	copák	-0.0808773
-4.717163	corniger	-0.04305813
-4.717163	corpus	-0.08541563
-3.872065	cosi	-0.2135591
-3.939011	couro	-0.802598
-4.717163	cože	-0.04305813
-3.939011	cti	-0.2625979
-4.717163	ctibažný	-0.04305813
-4.717163	ctihodné	-0.08539064
-4.717163	ctihodní	-0.08530733
-4.717163	ctil	-0.07156124
-4.018193	ctižádost	-0.2347971
-4.717163	ctižádosti	-0.06390052
-4.717163	cukat	-0.07156124
-4.717163	cuklo	-0.04305813
-4.717163	curyšské	-0.08541563
-4.717163	cvakaly	-0.06390052
-4.717163	cvičení	-0.07706445
-4.717163	cvičili	-0.0817014
-4.717163	cynického	-0.07156124
-4.717163	cácorka	-0.04305813
-4.717163	césurách	-0.04305813
-4.717163	cín	-0.06390052
-4.717163	cíp	-0.08411425
-4.717163	církev	-0.08438987
-3.571035	cítil	-0.1111375
-4.240041	cítili	-0.1967503
-4.115103	cítit	-0.01923866
-4.717163	cítí	-0.08535732
-4.717163	cítím	-0.04305813
-4.717163	cítíte	-0.08539897
-4.717163	cůpek	-0.06390052
-4.717163	d	-0.08541563
-4.018193	dají	-0.06867939
-4.717163	daktyloskopie	-0.04305813
-4.717163	daktyloskopista	-0.08535732
-4.416133	daktýlky	-0.03383288
-3.394943	dal	-0.1184852
-4.018193	dala	-0.07972261
-4.717163	daleko	-0.08534899
-4.717163	daleké	-0.08539064
-3.814073	dali	-0.07660569
-3.872065	dalo	-0.129343
-4.717163	daly	-0.08541563
-4.240041	další	-0.04296628
-4.717163	dalších	-0.08534066
-4.717163	darebáci	-0.04305813
-4.717163	daroval	-0.08466531
-4.717163	darovat	-0.06390052
-4.717163	daruju	-0.0854073
-4.717163	dary	-0.08482382
-4.717163	datum	-0.07156124
-4.717163	daří	-0.08541563
-4.717163	dbát	-0.08436482
-4.717163	dcera	-0.04305813
-4.717163	dcerou	-0.0832696
-4.717163	dcery	-0.0854073
-4.416133	dddo	-0.08537399
-4.717163	dech	-0.08541563
-4.416133	dechem	-0.03650737
-4.115103	dechu	-0.01924836
-4.717163	defraudanta	-0.07156124
-4.717163	defraudanti	-0.07156124
-4.717163	dej	-0.08537398
-4.115103	dejme	-0.3776957
-4.240041	dejte	-0.06792557
-4.717163	dekret	-0.08459855
-4.416133	deku	-0.03383288
-4.717163	delicti	-0.06390052
-4.717163	delikt	-0.08541563
-4.717163	deliktu	-0.07156124
-4.717163	demarše	-0.04305813
-3.355435	den	-0.1148707
-4.717163	denní	-0.04305813
-4.416133	denně	-0.08063313
-4.717163	derbent	-0.04305813
-4.717163	dervišů	-0.07706445
-3.438409	deset	-0.2896694
-4.717163	desetiletý	-0.08528233
-4.717163	desetkrát	-0.06390052
-4.717163	desperátního	-0.06390052
-4.717163	desáté	-0.0854073
-4.018193	detektiv	-0.0379128
-4.717163	detektivovi	-0.04305813
-4.717163	detektivy	-0.07706445
-4.717163	detektivům	-0.07156124
-4.416133	devadesát	-0.2665256
-4.717163	devatenáct	-0.08398055
-4.115103	devět	-0.0427366
-4.717163	dezentér	-0.06390052
-4.717163	dezerce	-0.08389697
-4.717163	deziluze	-0.07156124
-4.416133	dešifrování	-0.04303059
-4.717163	dešti	-0.08498227
-4.416133	diamant	-0.06933683
-4.717163	diamantem	-0.0854073
-4.717163	diamanty	-0.08398055
-4.717163	diametrálně	-0.08530733
-4.416133	dio	-0.04304895
-4.717163	diplomati	-0.08538231
-3.872065	direkci	-0.1609938
-4.717163	dirigent	-0.07156124
-4.416133	dirigoval	-0.07650366
-4.717163	disciplinárku	-0.04305813
-4.717163	dispozici	-0.08385517
-4.416133	div	-0.08263295
-4.240041	divil	-0.008842066
-4.717163	divizní	-0.08530733
-4.717163	divizním	-0.08539064
-4.240041	divnou	-0.08509064
-4.240041	divná	-0.08437316
-3.717163	divné	-0.1250378
-4.717163	divného	-0.08352066
-3.939011	divný	-0.04298467
-4.416133	divných	-0.2526796
-4.416133	divným	-0.08540731
-4.240041	divně	-0.08496559
-4.717163	divoce	-0.04305813
-4.416133	divocí	-0.266509
-4.717163	divoké	-0.08541563
-4.717163	divotvorné	-0.08541563
-4.717163	diví	-0.04305813
-4.416133	divím	-0.03319456
-4.717163	divže	-0.07948624
-4.717163	diéty	-0.04305813
-4.717163	diškerece	-0.07706445
-4.416133	diťátko	-0.2241765
-4.717163	dlani	-0.06390052
-4.717163	dlažbu	-0.07156124
-3.872065	dlouho	-0.03049951
-4.717163	dlouhou	-0.08537398
-4.240041	dlouhá	-0.07150103
-4.240041	dlouhé	-0.0430122
-4.717163	dlouhého	-0.0854073
-4.416133	dlouhý	-0.04304895
-4.717163	dlouhých	-0.08537398
-4.717163	dlouhými	-0.08328635
-4.717163	dluh	-0.08264133
-4.717163	dluhem	-0.04305813
-4.240041	dluhy	-0.1550497
-4.717163	dluhům	-0.04305813
-4.717163	dlužen	-0.04305813
-3.513043	dne	-0.05851045
-4.717163	dnech	-0.0854073
-3.717163	dnes	-0.03200931
-4.115103	dneska	-0.07095885
-4.717163	dnešní	-0.08541563
-4.717163	dnešním	-0.08541563
-3.603219	dny	-0.05135234
-3.571035	dní	-0.009169251
-4.717163	dně	-0.08530733
-4.416133	dnů	-0.07944401
-4.717163	dnům	-0.08538231
-2.305543	do	-0.2231555
-4.717163	dob	-0.04305813
-4.717163	dobrodruh	-0.04305813
-4.717163	dobrodružnosti	-0.04305813
-4.717163	dobrodružností	-0.06390052
-4.240041	dobrodružství	-0.1671219
-4.115103	dobrou	-0.1664424
-4.717163	dobrovolné	-0.08539064
-4.717163	dobrovolně	-0.07156124
-4.416133	dobrozdání	-0.06387427
-4.717163	dobru	-0.06390052
-3.814073	dobrá	-0.3035887
-4.717163	dobráka	-0.08541563
-4.018193	dobré	-0.1252809
-4.717163	dobrého	-0.08541563
-4.717163	dobrém	-0.08538231
-4.240041	dobrý	-0.08521567
-4.717163	dobrých	-0.08526567
-3.939011	dobu	-0.07290074
-3.46189	doby	-0.05848381
-4.115103	době	-0.04195476
-3.285799	dobře	-0.1641479
-3.46189	docela	-0.05906111
-3.872065	docent	-0.5667402
-4.717163	docenta	-0.0854073
-4.717163	docentem	-0.08541563
-4.717163	docházely	-0.08539064
-4.717163	dochází	-0.08539897
-4.717163	docílit	-0.04305813
-4.240041	dodal	-0.08518233
-4.717163	dodala	-0.08541563
-4.717163	dodavatele	-0.06390052
-4.717163	dodnes	-0.08541563
-3.939011	dodával	-0.1342817
-4.717163	dodávala	-0.08433142
-4.717163	dodávat	-0.08539897
-4.717163	dodává	-0.04305813
-4.717163	dohazoval	-0.08541563
-4.717163	dohořívá	-0.0854073
-4.416133	dohromady	-0.03143432
-4.717163	dojat	-0.08328635
-4.416133	dojatě	-0.03319456
-4.717163	dojde	-0.08541563
-4.717163	dojede	-0.0832696
-4.717163	dojeli	-0.0832696
-4.416133	dojem	-0.01926777
-4.717163	dokazoval	-0.04305813
-4.717163	dokonalí	-0.08541563
-4.717163	dokonalý	-0.08541563
-3.872065	dokonce	-0.1181309
-4.717163	dokonám	-0.04305813
-4.717163	dokořán	-0.07156124
-3.16086	doktor	-0.6066101
-4.115103	doktora	-0.166184
-3.717163	doktore	-1.019268
-4.717163	doktorem	-0.06390052
-4.717163	doktorovi	-0.04305813
-4.717163	doktoru	-0.08541563
-4.717163	doktory	-0.04305813
-4.717163	doktoři	-0.08530733
-3.939011	dokud	-0.120208
-4.416133	dokázat	-0.03383288
-4.717163	doků	-0.07706445
-4.717163	dolarové	-0.08541563
-3.939011	dole	-0.03160407
-4.717163	doličný	-0.04305813
-4.717163	dolní	-0.08526567
-4.240041	dolus	-0.0317643
-3.571035	dolů	-0.1432341
-3.637981	doma	-0.03606852
-4.717163	domečku	-0.07156124
-4.717163	domino	-0.07156124
-4.717163	domlouvat	-0.06390052
-4.717163	domlouvám	-0.08497393
-4.717163	domluva	-0.04305813
-4.717163	domluvili	-0.06390052
-4.717163	domluvit	-0.06390052
-4.717163	domluvu	-0.08147451
-4.717163	domluvy	-0.085174
-4.717163	domnělou	-0.08541563
-4.717163	domov	-0.06390052
-4.717163	domova	-0.08541563
-4.717163	domovnice	-0.04305813
-4.717163	domovnici	-0.08524901
-4.717163	domovní	-0.08538231
-4.717163	domovníci	-0.07156124
-4.240041	domovník	-0.04091318
-4.717163	domovníka	-0.06390052
-4.717163	domovníkovi	-0.04305813
-4.717163	domovníkovým	-0.08541563
-4.717163	domovníkův	-0.0854073
-3.717163	domu	-0.167389
-4.717163	domácká	-0.08537398
-4.416133	domácnost	-0.03319456
-4.717163	domácnosti	-0.0808773
-4.115103	domácí	-0.08512399
-4.717163	domácích	-0.08531567
-4.240041	domě	-0.06094077
-3.37474	domů	-0.208276
-4.115103	donesl	-0.0839304
-4.416133	donesla	-0.08334494
-4.416133	dopadl	-0.04303059
-4.717163	dopadla	-0.08541563
-4.717163	dopadlo	-0.06390052
-4.416133	dopadne	-0.08046467
-3.67577	dopis	-0.1163563
-4.717163	dopisovala	-0.08482382
-4.115103	dopisy	-0.02531711
-4.115103	dopisů	-0.05795185
-4.717163	doporučil	-0.08541563
-4.717163	doprava	-0.08016968
-4.416133	doprovodím	-0.04242404
-4.717163	doptat	-0.04305813
-4.416133	dopustil	-0.03319456
-4.717163	dopustí	-0.08541563
-4.717163	dopáleně	-0.04305813
-4.717163	dopálil	-0.06390052
-4.717163	dorozumíme	-0.08519067
-4.717163	dort	-0.08389697
-4.717163	doručili	-0.08518234
-4.717163	dosah	-0.08541563
-4.717163	dosahuje	-0.08541563
-4.717163	dosavadní	-0.08539897
-4.717163	doslovně	-0.08524901
-4.717163	dospíval	-0.07706445
-4.717163	dospěle	-0.08352066
-3.67577	dost	-0.06341887
-3.319223	dostal	-0.02575824
-4.717163	dostala	-0.0832696
-4.240041	dostali	-0.0427274
-4.717163	dostaly	-0.08489888
-3.939011	dostane	-0.07286645
-4.717163	dostanete	-0.08516567
-4.717163	dostaneš	-0.04305813
-4.416133	dostanou	-0.08309378
-3.603219	dostat	-0.08613691
-4.416133	dostával	-0.08385518
-4.416133	dostávala	-0.08372977
-4.717163	dostávali	-0.08502396
-4.717163	dostává	-0.08538231
-3.872065	dosud	-0.08506563
-4.717163	dosvědčovali	-0.06390052
-4.717163	dosvědčím	-0.08509065
-4.717163	dosvědčíme	-0.06390052
-4.717163	dosvědčíte	-0.04305813
-4.717163	dotazy	-0.08264133
-4.717163	dotkl	-0.07648665
-4.717163	dotknout	-0.06390052
-4.717163	dotyčná	-0.08539064
-4.240041	dotyčného	-0.08535732
-4.717163	dotyčném	-0.08538231
-4.717163	dotyční	-0.08537398
-4.717163	dotýká	-0.08541563
-4.717163	dotěrným	-0.07706445
-4.717163	doufal	-0.04305813
-3.939011	dovede	-0.1126302
-4.416133	dovedete	-0.2665006
-4.115103	dovedl	-0.0806584
-4.416133	dovedli	-0.08381338
-4.240041	dovedou	-0.0630682
-4.717163	dovedu	-0.08539897
-4.717163	dovezli	-0.08016968
-4.717163	dovezu	-0.08417273
-4.416133	dovnitř	-0.01926777
-4.717163	dovolení	-0.04305813
-4.717163	dovolili	-0.04305813
-4.717163	dovolujete	-0.06390052
-4.717163	dovolával	-0.07648665
-4.717163	dovtípil	-0.04305813
-4.416133	dovídáme	-0.2241765
-4.717163	doznala	-0.04305813
-4.717163	doznávala	-0.08513233
-3.717163	dozorce	-0.03934103
-4.717163	dozvíme	-0.04305813
-4.717163	dočetl	-0.04305813
-4.416133	dočista	-0.08475709
-4.717163	dočíst	-0.08479045
-4.115103	došel	-0.1600206
-4.717163	došla	-0.08541563
-4.416133	dožral	-0.2526796
-4.416133	dožralo	-0.2241765
-4.717163	dožrán	-0.08328635
-4.717163	dožívá	-0.08534066
-4.115103	dr	-0.4182903
-4.717163	drahocenný	-0.08537398
-4.717163	drahá	-0.04305813
-4.717163	drahý	-0.08541563
-4.717163	drahých	-0.08541563
-4.717163	dramatická	-0.08541563
-4.717163	dramatickým	-0.08539064
-4.717163	drandil	-0.08266647
-4.416133	drbal	-0.2606046
-4.717163	drdůlek	-0.08541563
-4.717163	drkotají	-0.085224
-4.416133	drkotal	-0.08198696
-4.717163	drkotali	-0.085224
-4.717163	drmolil	-0.08524067
-3.814073	drobet	-0.1094935
-4.717163	drobnou	-0.07156124
-4.416133	drobného	-0.2526796
-4.717163	drobný	-0.084465
-4.717163	drsní	-0.08541563
-4.416133	drsný	-0.04304895
-4.717163	drtivě	-0.06390052
-4.717163	druh	-0.08541563
-4.717163	druha	-0.07706445
-4.717163	druhem	-0.08541563
-4.115103	druhou	-0.07362884
-4.717163	druhu	-0.04305813
-4.717163	druhy	-0.0854073
-4.018193	druhá	-0.04357208
-3.541071	druhé	-0.1100978
-4.240041	druhého	-0.1972839
-4.018193	druhém	-0.07151824
-4.240041	druhému	-0.04095009
-3.67577	druhý	-0.02995094
-4.018193	druhým	-0.1575196
-4.416133	druzí	-0.0636729
-4.717163	drzost	-0.04305813
-4.717163	dráhu	-0.06390052
-4.717163	dráhy	-0.07156124
-4.717163	dráze	-0.08539897
-4.115103	držel	-0.1637594
-4.717163	drželi	-0.0854073
-4.416133	držet	-0.04247922
-4.018193	drží	-0.1238443
-4.717163	držím	-0.08534899
-4.717163	držíte	-0.08411425
-4.717163	duběnkami	-0.07156124
-4.717163	ducha	-0.06390052
-4.717163	duchař	-0.07156124
-4.240041	duchem	-0.1972673
-4.717163	duchovní	-0.08541563
-4.717163	duchovně	-0.08541563
-4.717163	dudek	-0.06390052
-4.717163	duní	-0.04305813
-4.717163	duplikáty	-0.08541563
-4.717163	dupání	-0.07156124
-4.115103	duše	-0.0832696
-4.717163	dušeně	-0.08541563
-4.717163	dušezpytným	-0.07156124
-3.67577	duši	-0.1407981
-4.717163	dušovali	-0.07156124
-3.198649	dva	-0.1683696
-4.717163	dvaapadesát	-0.08530733
-3.939011	dvacet	-0.09514046
-4.416133	dvaceti	-0.266459
-4.717163	dvacetiletý	-0.08528233
-4.717163	dvacetkrát	-0.08533233
-3.76292	dvanáct	-0.05132341
-4.416133	dvanácti	-0.08540731
-3.717163	dveře	-0.139831
-4.240041	dveřmi	-0.05508514
-4.240041	dveří	-0.06226065
-3.67577	dveřích	-0.05385069
-4.717163	dvora	-0.04305813
-4.240041	dvorek	-0.04022973
-4.115103	dvorku	-0.1192187
-3.939011	dvou	-0.08254912
-4.240041	dvoře	-0.03716876
-4.717163	dvéře	-0.07156124
-3.336951	dvě	-0.222091
-4.717163	dvěma	-0.08531567
-4.416133	dvůr	-0.07154405
-4.717163	dychtivou	-0.08541563
-4.717163	dychtivě	-0.06390052
-4.717163	dycky	-0.0808773
-3.939011	dyť	-0.2104094
-3.814073	dá	-0.2241536
-3.486714	dál	-0.2000595
-3.76292	dále	-0.160893
-4.416133	dálky	-0.04304895
-4.416133	dálo	-0.01926777
-4.717163	dály	-0.08534899
-3.872065	dám	-0.08131476
-4.717163	dáma	-0.04305813
-4.416133	dáme	-0.08326124
-4.717163	dámou	-0.07156124
-4.115103	dámě	-0.03380473
-3.67577	dát	-0.06886117
-4.416133	dáte	-0.08539065
-4.717163	dávají	-0.08433977
-4.240041	dával	-0.05619133
-4.717163	dávala	-0.0854073
-4.717163	dávali	-0.08537398
-4.717163	dávat	-0.04305813
-4.717163	dávejte	-0.08537398
-4.717163	dávky	-0.08541563
-4.240041	dávno	-0.0799251
-4.717163	déle	-0.07489371
-4.717163	démon	-0.06390052
-4.717163	dík	-0.08506564
-4.717163	dílem	-0.08519067
-4.717163	dílny	-0.04305813
-4.717163	díra	-0.08398055
-4.717163	dírka	-0.07156124
-3.225801	dítě	-0.1335552
-4.416133	dítěte	-0.2241765
-4.115103	dítětem	-0.3540794
-4.717163	dítěti	-0.08016968
-3.872065	díval	-0.2227498
-4.416133	dívala	-0.07705596
-4.416133	dívali	-0.04093165
-4.416133	dívat	-0.04303059
-4.717163	dívám	-0.08016968
-4.416133	díváte	-0.08003477
-4.717163	díže	-0.0808773
-4.717163	díži	-0.04305813
-4.717163	dýchalo	-0.07706445
-4.416133	dýku	-0.05837758
-4.717163	dýl	-0.04305813
-4.416133	děcko	-0.07866637
-4.717163	dědeček	-0.08469034
-4.717163	dědečkovi	-0.06390052
-4.717163	dědil	-0.06390052
-4.717163	dědit	-0.06390052
-4.717163	děj	-0.07706445
-4.416133	děje	-0.08497394
-4.717163	dějin	-0.06390052
-4.717163	dějí	-0.08538231
-4.717163	děkujeme	-0.04305813
-4.018193	děkuju	-0.3709052
-3.76292	děl	-0.2841188
-4.717163	děla	-0.0854073
-3.67577	dělají	-0.07296506
-3.486714	dělal	-0.06148355
-4.416133	dělala	-0.06097604
-4.018193	dělali	-0.2578747
-4.717163	dělanou	-0.08541563
-3.336951	dělat	-0.217437
-4.115103	dělejte	-0.1204988
-3.46189	dělá	-0.06440219
-4.416133	dělám	-0.2450188
-4.717163	děláme	-0.08534899
-4.717163	dělány	-0.08498227
-4.717163	dělání	-0.08537398
-4.416133	děláte	-0.06380424
-4.416133	děsit	-0.2581828
-4.717163	děsná	-0.08538231
-4.416133	děsné	-0.04304895
-4.717163	děsného	-0.08541563
-4.416133	děsný	-0.08530734
-4.717163	děsných	-0.08541563
-4.717163	děsným	-0.08541563
-4.416133	děsně	-0.08539898
-4.717163	dětem	-0.08541563
-3.603219	děti	-0.0629568
-4.717163	dětičkami	-0.08016968
-4.717163	dětmi	-0.08264133
-4.717163	dětské	-0.08541563
-4.717163	dětský	-0.08541563
-4.416133	dětství	-0.04932152
-4.717163	děvkař	-0.07156124
-4.416133	děvče	-0.04300303
-4.416133	děvčátko	-0.0400171
-4.717163	děťátko	-0.07156124
-4.717163	dřeva	-0.06390052
-4.717163	dřevěná	-0.07706445
-4.717163	dřevěné	-0.08539897
-4.717163	dřevěný	-0.08524901
-4.717163	dřímal	-0.04305813
-3.76292	dřív	-0.06631829
-4.717163	důkladnost	-0.07156124
-4.717163	důkladná	-0.06390052
-4.717163	důkladný	-0.0854073
-4.717163	důlek	-0.0817014
-4.240041	důležité	-0.1757441
-4.717163	důležitého	-0.08376321
-4.717163	důležitě	-0.0854073
-4.717163	důležitější	-0.06390052
-4.416133	dům	-0.08253234
-4.416133	důmyslu	-0.2526796
-4.717163	důraz	-0.08016968
-4.717163	důsledný	-0.04305813
-4.717163	důstojnost	-0.08352066
-4.717163	důstojnou	-0.06390052
-4.717163	důstojníci	-0.08518234
-4.115103	důstojný	-0.1527119
-4.416133	důstojně	-0.07705596
-4.717163	důvod	-0.08541563
-4.717163	důvtipu	-0.07706445
-4.717163	důvěrnosti	-0.07948624
-4.717163	důvěrné	-0.08541563
-4.717163	důvěrníkem	-0.04305813
-4.717163	důvěrný	-0.08541563
-4.717163	důvěrně	-0.06390052
-4.416133	důvěrou	-0.08540731
-3.872065	důvěru	-0.01259151
-4.416133	důvěry	-0.2241765
-4.717163	důvěryhodné	-0.08541563
-4.717163	důvěře	-0.07706445
-4.717163	džentlmeni	-0.06390052
-4.717163	einbeinig	-0.04305813
-4.717163	einrücken	-0.06390052
-4.717163	elegantně	-0.08541563
-4.717163	elektrickou	-0.08541563
-4.717163	energicky	-0.08526567
-4.717163	energii	-0.04305813
-4.717163	enyky	-0.04305813
-4.717163	equina	-0.06390052
-4.416133	erár	-0.2654831
-4.717163	erární	-0.08524067
-4.717163	esli	-0.08326123
-4.717163	et	-0.08541563
-4.717163	evandělíci	-0.08537398
-4.717163	execiráku	-0.04305813
-4.416133	exempláře	-0.07155265
-4.717163	exhumaci	-0.08541563
-4.717163	existence	-0.07706445
-4.717163	existoval	-0.07706445
-4.717163	experimentu	-0.08524901
-4.717163	exponovaná	-0.0854073
-4.240041	extra	-0.07007092
-4.717163	extáze	-0.08541563
-4.717163	fabrikantem	-0.08541563
-4.717163	fabriky	-0.08016968
-4.717163	fair	-0.06390052
-4.717163	fakana	-0.06390052
-4.018193	faldíčky	-0.1017128
-4.717163	falešné	-0.08524067
-4.240041	falešný	-0.08515733
-4.717163	famílie	-0.04305813
-4.717163	fantazie	-0.08398055
-4.717163	fantazii	-0.04305813
-4.717163	fantazu	-0.07156124
-4.717163	faru	-0.07706445
-4.717163	farář	-0.08482382
-4.717163	feldvébl	-0.07706445
-4.717163	felčar	-0.08266647
-4.717163	fenu	-0.08541563
-4.717163	fialový	-0.08539064
-4.717163	fialovým	-0.0854073
-4.717163	figur	-0.08489054
-4.717163	fiktivní	-0.08531567
-4.416133	filatelista	-0.07680964
-4.717163	filatelisti	-0.04305813
-4.717163	filatelistické	-0.08541563
-4.717163	filozofové	-0.08407247
-4.240041	fimbriatus	-0.06250659
-4.717163	firem	-0.04305813
-4.717163	firma	-0.06390052
-4.240041	firmy	-0.1974089
-4.717163	flašinetář	-0.04305813
-4.717163	flašinetáře	-0.04305813
-4.240041	flek	-0.05509408
-4.717163	flekatá	-0.08482382
-4.717163	fleku	-0.08541563
-4.717163	fleky	-0.07706445
-4.717163	flirtovala	-0.08326123
-4.717163	flákač	-0.04305813
-4.717163	flámu	-0.07156124
-4.717163	foliantů	-0.08534899
-4.717163	forma	-0.08398055
-4.717163	formalitách	-0.06390052
-4.717163	formátu	-0.08199535
-4.717163	fortele	-0.08499894
-4.717163	forvard	-0.0817014
-4.717163	fotbalista	-0.07156124
-4.717163	fotelu	-0.08541563
-4.416133	fotografie	-0.04280093
-4.416133	fotografii	-0.07559294
-4.717163	fotografovat	-0.06390052
-4.717163	fotr	-0.04305813
-4.717163	foukl	-0.0832696
-4.717163	fousatý	-0.08521567
-4.717163	fousů	-0.08541563
-4.717163	fošen	-0.07156124
-4.717163	frajlinka	-0.04305813
-4.717163	francefús	-0.04305813
-4.416133	francouzsky	-0.06868806
-4.717163	franků	-0.0832696
-4.717163	frigidní	-0.08530733
-4.717163	frkal	-0.07156124
-3.872065	frontu	-0.2252258
-4.717163	fuchtle	-0.04305813
-4.416133	fuj	-0.2665256
-4.717163	fuk	-0.04305813
-4.717163	funebráků	-0.04305813
-4.717163	fungovat	-0.06390052
-4.717163	funkcím	-0.04305813
-4.717163	funěla	-0.08428131
-4.416133	fyzický	-0.2664923
-4.717163	fyzik	-0.06390052
-4.717163	fádní	-0.085324
-4.717163	fór	-0.08534899
-4.717163	fůru	-0.08539897
-4.717163	galantnosti	-0.08541563
-4.717163	galoše	-0.07156124
-4.717163	galán	-0.08526567
-4.416133	gatích	-0.07155265
-4.717163	gaunerů	-0.08506564
-4.717163	gauneři	-0.04305813
-4.717163	gazda	-0.08541563
-4.717163	gazdové	-0.08541563
-4.717163	gazdy	-0.08349556
-4.717163	gazdů	-0.07156124
-4.717163	generace	-0.08541563
-4.717163	generál	-0.07156124
-4.717163	generále	-0.04305813
-4.717163	geniální	-0.084465
-4.240041	geometr	-0.05942234
-4.717163	gesta	-0.07706445
-3.939011	gierke	-0.08538228
-4.717163	glochidy	-0.04305813
-4.717163	gotýsek	-0.07706445
-4.717163	grafolog	-0.07706445
-4.717163	grafologický	-0.08538231
-4.717163	gramy	-0.08479045
-4.416133	gramů	-0.01926777
-4.717163	grenoble	-0.08541563
-4.115103	grófinka	-0.04040532
-4.717163	grófinkou	-0.06390052
-4.717163	gumou	-0.04305813
-4.717163	gustem	-0.08199535
-4.717163	gymnazista	-0.04305813
-4.717163	gypsovku	-0.06390052
-4.240041	hadr	-0.5064113
-4.717163	hadry	-0.04305813
-4.717163	hadráře	-0.08539064
-4.416133	haf	-0.08539898
-4.717163	hafhaf	-0.04305813
-4.717163	hafáček	-0.08536565
-4.717163	hajat	-0.06390052
-4.416133	halt	-0.2450188
-4.018193	halíře	-0.1911503
-4.717163	hamadan	-0.06390052
-4.240041	hambatá	-0.5272537
-4.717163	hanbou	-0.06390052
-4.717163	hanbu	-0.04305813
-4.717163	hanby	-0.06390052
-4.717163	hanbíš	-0.04305813
-4.717163	hanebnou	-0.04305813
-4.717163	hantýruje	-0.06390052
-4.717163	hapatykářské	-0.04305813
-4.717163	haraburdí	-0.04305813
-4.717163	harant	-0.08519901
-4.717163	haranta	-0.08407247
-4.717163	harf	-0.07706445
-4.717163	harvard	-0.08501562
-4.115103	hasit	-0.09070227
-4.717163	hasič	-0.07648665
-4.717163	hasiči	-0.08264133
-4.717163	hasičský	-0.08541563
-4.717163	hasičů	-0.08509065
-4.717163	hasáku	-0.04305813
-4.717163	havlena	-0.08541563
-4.717163	havran	-0.07156124
-4.717163	hazard	-0.07706445
-4.717163	hazardní	-0.0854073
-4.717163	hašením	-0.07706445
-4.717163	hedvábné	-0.08541563
-4.416133	hedvábí	-0.05837758
-4.717163	hejbaly	-0.04305813
-4.717163	hejble	-0.07156124
-4.717163	hejblů	-0.07706445
-4.416133	hekal	-0.01926777
-4.416133	hele	-0.03383288
-4.717163	hemžilo	-0.08541563
-4.717163	hercem	-0.08398055
-4.115103	hergot	-0.3974479
-4.717163	heroická	-0.08541563
-4.717163	hezky	-0.08541563
-4.240041	hezká	-0.1835368
-4.717163	hezké	-0.0854073
-4.717163	hezký	-0.07156124
-4.717163	hezoučké	-0.08538231
-4.717163	himl	-0.04305813
-4.416133	historie	-0.04189032
-4.717163	historii	-0.08536565
-4.717163	historka	-0.08477377
-4.416133	hlad	-0.01926777
-4.717163	hladký	-0.08328635
-4.717163	hlaholil	-0.08457351
-4.717163	hlaholila	-0.08428131
-3.394943	hlas	-0.1128013
-4.115103	hlasem	-0.04626036
-4.240041	hlasitě	-0.06227822
-4.717163	hlasovat	-0.0811045
-4.717163	hlasy	-0.0854073
-4.240041	hlasů	-0.0316889
-4.717163	hlav	-0.08534899
-4.018193	hlava	-0.1187558
-4.018193	hlavní	-0.1442037
-3.872065	hlavně	-0.1234139
-3.438409	hlavou	-0.4622917
-3.814073	hlavu	-0.1223474
-3.872065	hlavy	-0.5577261
-4.240041	hlavě	-0.0313777
-4.717163	hledají	-0.0854073
-4.115103	hledal	-0.07888628
-4.115103	hledali	-0.03162291
-3.939011	hledat	-0.03569555
-4.717163	hledač	-0.08541563
-4.717163	hledejte	-0.08479045
-4.717163	hlediska	-0.08407247
-4.018193	hledá	-0.02740702
-4.717163	hledám	-0.04305813
-4.717163	hledáte	-0.06390052
-4.240041	hledí	-0.0807426
-3.939011	hleděl	-0.07891166
-4.240041	hledět	-0.1532368
-4.717163	hleď	-0.08539064
-4.416133	hleďte	-0.08539065
-4.416133	hloub	-0.04932152
-4.717163	hloubku	-0.07156124
-4.416133	hloubky	-0.03383288
-4.416133	hloupost	-0.04932152
-4.416133	hlouposti	-0.02774962
-4.717163	hloupostí	-0.07706445
-4.717163	hloupá	-0.06390052
-4.416133	hloupé	-0.01926777
-4.717163	hloupě	-0.0854073
-4.717163	hlouček	-0.07156124
-4.717163	hluboce	-0.08537398
-4.416133	hluboko	-0.04304895
-4.717163	hluboká	-0.08541563
-4.416133	hluboké	-0.08537399
-4.717163	hluboký	-0.0854073
-4.717163	hluchý	-0.04305813
-4.717163	hluk	-0.08541563
-4.717163	hlásal	-0.08352066
-4.717163	hlásala	-0.08459855
-4.115103	hlásil	-0.3371404
-4.717163	hlásila	-0.08541563
-4.416133	hlásit	-0.03726185
-4.240041	hlásím	-0.1550405
-4.717163	hlášeni	-0.08328635
-4.416133	hlášeno	-0.06389178
-4.717163	hlášení	-0.04305813
-4.717163	hlídač	-0.08463193
-4.416133	hlídače	-0.01926777
-4.115103	hm	-0.3974479
-4.717163	hmatal	-0.07948624
-4.717163	hmotnému	-0.08541563
-4.717163	hmyz	-0.06390052
-4.717163	hnal	-0.08518234
-4.416133	hnali	-0.08007693
-3.37474	hned	-0.09539094
-4.717163	hnedle	-0.08539064
-4.717163	hni	-0.04305813
-4.717163	hniloba	-0.08541563
-4.416133	hnoje	-0.03383288
-4.717163	hnojiště	-0.07156124
-4.717163	hnout	-0.06390052
-4.717163	hnusného	-0.04305813
-4.416133	hnědou	-0.08540731
-4.416133	hnědý	-0.01926777
-4.717163	hněvem	-0.08352066
-2.627258	ho	-0.005934268
-4.416133	hoch	-0.2581828
-4.717163	hochu	-0.04305813
-4.717163	hochštapler	-0.04305813
-4.240041	hodil	-0.0817854
-3.416133	hodin	-0.09305691
-4.717163	hodina	-0.0847988
-4.717163	hodinka	-0.08539897
-4.717163	hodinku	-0.08482382
-4.416133	hodinky	-0.07007094
-3.76292	hodinu	-0.05973257
-3.513043	hodiny	-0.1065303
-4.416133	hodině	-0.08505731
-4.717163	hodna	-0.07706445
-4.717163	hodnostní	-0.08539064
-4.717163	hodnou	-0.07156124
-4.240041	hodná	-0.02768301
-4.717163	hodné	-0.08519901
-4.717163	hodného	-0.08538231
-4.717163	hodní	-0.04305813
-4.240041	hodný	-0.1540107
-4.416133	hodně	-0.08531567
-4.717163	hodí	-0.04305813
-4.717163	hojila	-0.06390052
-4.717163	hojnosti	-0.07156124
-4.115103	hokynáře	-0.1235539
-4.416133	hokynáři	-0.04932152
-4.416133	holane	-0.2241765
-4.717163	holdoval	-0.08438987
-4.717163	holdují	-0.08541563
-4.416133	hole	-0.06292788
-4.717163	holedbat	-0.08478211
-4.717163	holemi	-0.08016968
-4.717163	holendr	-0.04305813
-4.416133	holenku	-0.2241765
-4.717163	holiči	-0.08398055
-4.115103	holka	-0.1089252
-4.717163	holky	-0.07156124
-4.717163	holohlavý	-0.04305813
-4.416133	holomek	-0.04213886
-4.717163	holomku	-0.04305813
-4.416133	holá	-0.08539065
-4.416133	holí	-0.07595916
-4.717163	holčičce	-0.04305813
-4.717163	holčička	-0.08459855
-4.717163	holčičku	-0.08326123
-3.571035	honem	-0.2596522
-4.717163	honili	-0.08433977
-4.416133	honit	-0.08402234
-4.416133	honorace	-0.03383288
-4.717163	honorací	-0.06390052
-4.717163	honorované	-0.08539064
-4.717163	honosíme	-0.04305813
-4.717163	hora	-0.07156124
-4.717163	horalově	-0.04305813
-4.717163	horeček	-0.04305813
-4.717163	horečku	-0.04305813
-4.717163	horečkách	-0.07156124
-4.416133	horko	-0.06387427
-4.717163	horký	-0.0854073
-4.717163	horlivostí	-0.04305813
-4.717163	horlivé	-0.08541563
-4.416133	horlivě	-0.08540731
-4.717163	hornatý	-0.08264133
-4.717163	horny	-0.07156124
-4.717163	horoucně	-0.04305813
-4.717163	horoval	-0.08436482
-4.717163	horské	-0.08541563
-4.717163	hory	-0.04305813
-4.240041	horách	-0.05508514
-4.717163	horácký	-0.08541563
-4.717163	horár	-0.04305813
-4.416133	horší	-0.08080155
-4.240041	horšího	-0.5272537
-4.717163	horším	-0.08509065
-4.717163	hospoda	-0.04305813
-4.240041	hospodin	-0.08479045
-4.416133	hospodou	-0.08528234
-4.018193	hospody	-0.1173242
-4.717163	hospodyně	-0.08519067
-4.416133	hospodě	-0.04303977
-4.717163	host	-0.0854073
-4.717163	hotel	-0.07156124
-4.717163	hotelovém	-0.08539064
-3.939011	hotelu	-0.006111108
-4.717163	hotelů	-0.08266647
-4.717163	hotov	-0.07156124
-4.416133	hotových	-0.06385677
-4.717163	houpe	-0.07156124
-4.717163	housce	-0.08498227
-4.018193	housek	-0.01608418
-4.416133	housku	-0.08016125
-3.67577	housky	-0.02965865
-4.717163	housliček	-0.07156124
-4.717163	hovadské	-0.08541563
-4.416133	hovor	-0.03804289
-4.717163	hovořil	-0.0832696
-4.240041	hovořili	-0.04300302
-4.717163	hovoří	-0.08326123
-4.717163	hořcově	-0.08539897
-4.717163	hoře	-0.04305813
-4.717163	hořekovaly	-0.08520734
-4.416133	hořela	-0.08537399
-4.717163	hořelo	-0.08541563
-4.717163	hořely	-0.085224
-4.717163	hořet	-0.085299
-4.717163	hořké	-0.08539897
-4.717163	hoří	-0.0854073
-4.416133	hra	-0.03383288
-4.717163	hrabal	-0.08457351
-4.416133	hradě	-0.08433142
-4.717163	hraj	-0.08389697
-4.717163	hraje	-0.0854073
-4.717163	hrajete	-0.08463193
-4.717163	hrají	-0.0832696
-4.717163	hranice	-0.04305813
-4.416133	hranicemi	-0.05511196
-4.717163	hraná	-0.08536565
-4.717163	hrda	-0.04305813
-4.717163	hrdi	-0.04305813
-4.717163	hrdinné	-0.07156124
-4.717163	hrdinný	-0.07156124
-4.717163	hrdinové	-0.08016968
-4.717163	hrdinská	-0.07156124
-4.717163	hrdinství	-0.08328635
-4.717163	hrdinu	-0.04305813
-4.717163	hrdiny	-0.07648665
-4.717163	hrdla	-0.08352066
-4.717163	hrdlem	-0.08541563
-4.416133	hrdlo	-0.0619003
-4.717163	hrdě	-0.06390052
-4.717163	hrejte	-0.04305813
-4.717163	hrnou	-0.085149
-4.717163	hrnu	-0.07648665
-4.717163	hrnéček	-0.08433977
-4.717163	hrnéčků	-0.06390052
-4.717163	hrníčku	-0.04305813
-4.717163	hrníčků	-0.04305813
-4.717163	hrobové	-0.08536565
-4.717163	hrobového	-0.0854073
-4.717163	hrobě	-0.04305813
-4.018193	hrom	-0.3390401
-4.416133	hromada	-0.08540731
-4.717163	hromadou	-0.08541563
-3.939011	hromadu	-0.08526569
-4.717163	hromady	-0.08264133
-4.717163	hrome	-0.04305813
-4.717163	hromoval	-0.07948624
-4.717163	hromovat	-0.08426461
-4.717163	hrozil	-0.04305813
-4.416133	hrozno	-0.07641862
-4.240041	hrozná	-0.1974006
-4.416133	hrozné	-0.08414768
-4.717163	hrozného	-0.08264133
-4.717163	hrozný	-0.0854073
-3.872065	hrozně	-0.08531566
-4.717163	hroznější	-0.08421449
-4.717163	hrtan	-0.04305813
-4.416133	hrubec	-0.05511196
-4.717163	hrubosti	-0.04305813
-4.717163	hrubostmi	-0.07156124
-4.717163	hrubou	-0.0854073
-4.717163	hrubé	-0.08539064
-4.416133	hrubý	-0.2526796
-4.717163	hrubě	-0.04305813
-4.717163	hry	-0.06390052
-4.416133	hrál	-0.04067319
-4.717163	hrálo	-0.04305813
-4.717163	hrály	-0.08531567
-4.416133	hrát	-0.08539898
-4.416133	hráč	-0.05511196
-4.717163	hráči	-0.04305813
-4.115103	hrůza	-0.2220499
-4.717163	hrůze	-0.07156124
-3.637981	hrůzou	-0.1328283
-4.416133	hrůzu	-0.08514068
-4.717163	hrůzy	-0.04305813
-4.240041	huba	-0.08539063
-4.717163	hubatou	-0.04305813
-4.717163	hubený	-0.08328635
-4.240041	hubou	-0.1312777
-4.416133	hubu	-0.2241765
-4.240041	huby	-0.1397595
-4.115103	hubě	-0.09070227
-4.416133	hudba	-0.03804289
-4.717163	hudby	-0.04305813
-4.717163	hudlaři	-0.07156124
-4.717163	hum	-0.04305813
-4.717163	humánní	-0.07156124
-4.717163	husa	-0.08541563
-4.717163	hučet	-0.08534066
-4.717163	hučí	-0.07156124
-4.717163	hvízdl	-0.07156124
-4.717163	hvězd	-0.07706445
-4.717163	hvězdy	-0.08326123
-4.717163	hvězdář	-0.08398055
-4.717163	hvězdáře	-0.08349556
-4.717163	hygiena	-0.07706445
-4.717163	hygienickým	-0.08541563
-4.717163	hypochondr	-0.08458186
-4.717163	hysterické	-0.07156124
-4.717163	hysterku	-0.04305813
-4.416133	hádal	-0.257605
-4.717163	hádali	-0.08016968
-4.717163	hádky	-0.04305813
-4.717163	hájil	-0.0854073
-4.717163	házel	-0.08541563
-4.717163	hřbetě	-0.07156124
-4.240041	hřebík	-0.006980084
-4.416133	hřeje	-0.06269974
-4.416133	hřích	-0.06389178
-4.416133	hříchy	-0.2241765
-4.717163	hříchů	-0.06390052
-4.717163	hříšník	-0.04305813
-4.717163	hříšně	-0.0854073
-4.416133	hůl	-0.04932152
-4.717163	hůlka	-0.06390052
-4.717163	hůř	-0.08352066
-2.85983	i	-0.126538
-4.717163	ignorovala	-0.07706445
-4.717163	ihned	-0.08541563
-4.717163	ikonou	-0.0854073
-4.717163	ilegálních	-0.08541563
-4.717163	iluze	-0.06390052
-4.717163	import	-0.08537398
-4.416133	in	-0.08540731
-4.717163	indigem	-0.04305813
-4.240041	informace	-0.06079093
-4.717163	informovat	-0.08264133
-4.717163	injekci	-0.07156124
-4.717163	inkoustem	-0.07156124
-4.717163	inkriminovaného	-0.0854073
-4.717163	inkriminovaný	-0.08539064
-4.717163	inkunábulí	-0.08398055
-4.416133	inspektor	-0.07094163
-4.717163	inspektory	-0.08482382
-4.717163	inspektoři	-0.04305813
-4.717163	inspirace	-0.04305813
-4.717163	instance	-0.04305813
-4.717163	instanci	-0.06390052
-4.717163	instinkt	-0.07706445
-4.717163	instrumentem	-0.08541563
-4.717163	intelektuála	-0.08352066
-4.717163	inteligentní	-0.07156124
-4.717163	intervalech	-0.04305813
-4.717163	intimity	-0.04305813
-4.717163	intuitivní	-0.08541563
-4.018193	inu	-0.5307876
-4.717163	invalida	-0.06390052
-4.717163	invalidita	-0.04305813
-3.939011	invalidní	-0.2873262
-4.717163	inzerát	-0.04305813
-4.717163	inzerátech	-0.08521567
-4.717163	inšpicírovat	-0.08541563
-4.416133	izby	-0.07150105
-4.717163	izbě	-0.08541563
-4.717163	ja	-0.04305813
-2.486714	jak	-0.319047
-3.939011	jakmile	-0.2771445
-2.308923	jako	-0.1508112
-4.115103	jakoby	-0.08473206
-3.67577	jakou	-0.09361953
-4.717163	jakoukoliv	-0.08538231
-4.717163	jakoupak	-0.08529067
-4.240041	jakousi	-0.08539896
-4.416133	jakož	-0.2659422
-3.76292	jakpak	-0.1028876
-3.270005	jaksi	-0.07467984
-4.416133	jaká	-0.07488519
-3.67577	jaké	-0.0736203
-4.717163	jakého	-0.07948624
-4.717163	jakékoliv	-0.0854073
-4.717163	jakém	-0.08539064
-4.018193	jakési	-0.08530733
-3.603219	jaký	-0.05616576
-4.717163	jakých	-0.08541563
-4.717163	jakýchsi	-0.08541563
-4.717163	jakým	-0.0854073
-4.018193	jakýmsi	-0.08538231
-4.115103	jakýsi	-0.08536565
-3.76292	jakživ	-0.1449211
-4.240041	jakživi	-0.08104561
-4.717163	jakživy	-0.08266647
-4.717163	jakžtakž	-0.08541563
-4.416133	jal	-0.07646114
-4.717163	jamce	-0.08541563
-4.717163	japabyne	-0.04305813
-4.115103	jasné	-0.046989
-4.717163	jasným	-0.08539064
-4.717163	jasnějších	-0.08541563
-4.717163	jaterní	-0.08537398
-4.717163	javor	-0.0817014
-4.717163	javoru	-0.07948624
-4.717163	jazyk	-0.07706445
-4.416133	jazykem	-0.04146655
-3.416133	jde	-0.2496976
-4.717163	jdeme	-0.0847404
-4.717163	jdete	-0.06390052
-4.416133	jdeš	-0.06385677
-3.939011	jdi	-0.20127
-4.416133	jdou	-0.07026937
-3.541071	jdu	-0.1234194
-4.018193	jděte	-0.03026314
-1.982363	je	-0.2190699
-4.416133	jed	-0.01926777
-4.717163	jede	-0.08538231
-4.717163	jedem	-0.06390052
-2.924771	jeden	-0.1354278
-4.717163	jedenadvacet	-0.08541563
-4.717163	jedenadvacátém	-0.07648665
-3.67577	jedenáct	-0.1472777
-4.717163	jedenáctá	-0.08539897
-4.416133	jedenácté	-0.08528234
-4.717163	jedete	-0.04305813
-4.717163	jedinečných	-0.08539897
-4.717163	jedinou	-0.0854073
-4.416133	jediné	-0.08539065
-4.416133	jediného	-0.08537399
-4.717163	jedinému	-0.08541563
-4.240041	jediný	-0.08442326
-3.394943	jedna	-0.2140245
-4.115103	jednak	-0.1618603
-4.717163	jednatelem	-0.04305813
-4.717163	jedni	-0.08541563
-3.717163	jedno	-0.1379291
-4.717163	jednoduchá	-0.06390052
-4.416133	jednoduché	-0.03383288
-4.416133	jednoduchý	-0.04275499
-4.115103	jednoduše	-0.08496559
-3.438409	jednoho	-0.09922073
-3.939011	jednom	-0.08336169
-4.018193	jednomu	-0.04299384
-4.717163	jednonohého	-0.08539064
-4.416133	jednonohý	-0.06389178
-4.717163	jednotu	-0.08533233
-3.001159	jednou	-0.04090451
-3.67577	jednu	-0.08357923
-4.416133	jednání	-0.07485958
-3.571035	jedné	-0.1254302
-4.115103	jedním	-0.08536565
-4.717163	jedněch	-0.085324
-4.115103	jedu	-0.1225502
-4.717163	jedí	-0.08482382
-4.416133	jehel	-0.01926777
-4.115103	jehla	-0.06962198
-4.717163	jehlami	-0.07706445
-4.717163	jehle	-0.0854073
-4.416133	jehlou	-0.06389178
-3.814073	jehlu	-0.1060907
-4.240041	jehly	-0.05979361
-4.717163	jehlám	-0.04305813
-3.083694	jeho	-0.04745964
-3.717163	jej	-0.03776411
-4.717163	jejej	-0.04305813
-3.438409	jejich	-0.08379664
-3.486714	její	-0.1210309
-4.717163	jejích	-0.08541563
-4.416133	jejího	-0.08539065
-4.717163	jejím	-0.08536565
-4.717163	jejími	-0.0854073
-4.717163	jejímu	-0.08536565
-4.717163	jektaje	-0.085224
-4.240041	jektal	-0.07580589
-3.76292	jel	-0.1398282
-4.717163	jela	-0.08389697
-4.717163	jelen	-0.04305813
-4.717163	jeleních	-0.08541563
-4.240041	jeli	-0.06153962
-4.416133	jelikož	-0.07647815
-4.717163	jelimánek	-0.04305813
-4.717163	jelitem	-0.04305813
-4.717163	jelo	-0.0817014
-4.717163	jemné	-0.0854073
-4.717163	jemný	-0.084465
-4.717163	jemu	-0.0808773
-2.744035	jen	-0.1479454
-2.803349	jenom	-0.01115761
-4.717163	jenomže	-0.04305813
-3.717163	jenže	-0.1321861
-4.717163	jest	-0.08539897
-3.717163	jestli	-0.1955133
-4.240041	jet	-0.02528841
-4.717163	jeti	-0.08497393
-4.717163	jevišti	-0.06390052
-4.416133	jezdil	-0.08428967
-4.416133	jezdila	-0.08240654
-4.416133	jezdí	-0.04093165
-4.717163	jezevčík	-0.0808773
-4.717163	ječela	-0.06390052
-4.240041	jeďte	-0.1781454
-4.717163	jeřáby	-0.07706445
-4.717163	ješitnost	-0.08398055
-4.717163	ješitnosti	-0.08541563
-4.717163	ješitností	-0.04305813
-2.758121	ještě	-0.08640321
-4.717163	jež	-0.0854073
-4.717163	ježibabo	-0.07156124
-4.717163	ježit	-0.0854073
-4.416133	ježíšikriste	-0.2241765
-4.717163	ježíšmankote	-0.04305813
-3.67577	ježíšmarjá	-1.036815
-2.836349	ji	-0.04023026
-3.814073	jich	-0.07995043
-3.302189	jim	-0.1131139
-4.717163	jimi	-0.08352066
-3.571035	jinak	-0.2042746
-4.717163	jinam	-0.08538231
-4.416133	jinde	-0.04932152
-3.872065	jindy	-0.05185835
-4.416133	jinou	-0.085324
-4.115103	jiná	-0.06355903
-4.018193	jináč	-0.07245469
-3.603219	jiné	-0.06236608
-3.513043	jiného	-0.1921409
-4.717163	jiném	-0.08533233
-4.416133	jinému	-0.2241765
-3.872065	jiní	-0.03328848
-3.76292	jiný	-0.06125977
-3.67577	jiných	-0.0915406
-3.939011	jiným	-0.4018312
-4.717163	jinými	-0.08541563
-4.240041	jistotu	-0.1485173
-4.717163	jistou	-0.0854073
-4.416133	jisté	-0.04230447
-3.637981	jistě	-0.05375097
-4.717163	jižní	-0.08541563
-3.939011	jmenoval	-0.1962095
-4.717163	jmenovalo	-0.08352066
-4.717163	jmenuj	-0.08519067
-3.872065	jmenuje	-0.1763365
-4.717163	jmenuju	-0.0854073
-4.717163	jmenují	-0.06390052
-4.240041	jména	-0.03822863
-3.76292	jménem	-0.1194482
-4.115103	jméno	-0.08529067
-4.115103	jménu	-0.3794821
-3.240041	jo	-1.472871
-1.867129	jsem	-0.2617474
-3.541071	jsi	-0.1759281
-2.872065	jsme	-0.2018985
-3.026967	jsou	-0.0472552
-2.946311	jste	-0.08151612
-4.416133	juraj	-0.266434
-4.416133	juraji	-0.2241765
-4.416133	jurvej	-0.266484
-4.717163	justice	-0.0817014
-4.717163	justiční	-0.08541563
-4.717163	jutou	-0.04305813
-4.717163	jutu	-0.04305813
-2.004513	já	-0.4848423
-4.717163	jámu	-0.0847988
-4.717163	játrech	-0.07706445
-4.240041	jářku	-0.5064113
-4.717163	jé	-0.04305813
-2.984769	jí	-0.03263118
-4.416133	jím	-0.0627875
-3.67577	jít	-0.003734976
-4.717163	jízdní	-0.08539897
-4.717163	jízlivě	-0.08516567
-2.541071	k	-0.3404661
-4.717163	kabristanů	-0.07156124
-4.717163	kabát	-0.07706445
-4.416133	kabátu	-0.04932152
-4.717163	kacíři	-0.04305813
-4.416133	kadenci	-0.02774962
-4.416133	kafe	-0.01926777
-4.717163	kafemlejnek	-0.08398055
-4.717163	kafi	-0.08541563
-4.717163	kajícníka	-0.08264133
-4.717163	kakabus	-0.08458186
-4.416133	kaktus	-0.04304895
-4.717163	kaktusu	-0.07706445
-3.571035	kaktusy	-0.1504961
-4.416133	kaktusář	-0.04300303
-4.115103	kaktusáři	-0.1239676
-4.416133	kaktusářů	-0.06292788
-4.115103	kaktusů	-0.3133592
-4.717163	kalamáře	-0.08516567
-4.717163	kalika	-0.08482382
-4.717163	kaliko	-0.04305813
-4.717163	kalupu	-0.07948624
-4.717163	kaluž	-0.08539064
-4.240041	kam	-0.08482381
-4.717163	kamarád	-0.04305813
-4.018193	kamaráda	-0.0566443
-4.416133	kamaráde	-0.2241765
-4.717163	kamarádi	-0.04305813
-4.717163	kamarádil	-0.07648665
-4.717163	kamarády	-0.07706445
-4.717163	kameloti	-0.0854073
-4.717163	kamenech	-0.06390052
-4.717163	kamenné	-0.08541563
-4.717163	kameny	-0.08541563
-4.717163	kampanile	-0.0817014
-4.717163	kampanilu	-0.07706445
-4.717163	kamsi	-0.08016968
-4.717163	kamzíky	-0.06390052
-4.717163	kaméliemi	-0.06390052
-4.717163	kamínkem	-0.06390052
-4.416133	kanapi	-0.0638305
-4.717163	kanceláře	-0.08535732
-4.717163	kanceláři	-0.07706445
-4.717163	kanár	-0.07156124
-4.717163	kanára	-0.0817014
-4.717163	kapacita	-0.08016968
-4.717163	kapacity	-0.04305813
-4.240041	kapesníkem	-0.07650364
-4.717163	kapitola	-0.04305813
-4.115103	kapitán	-0.07583144
-4.717163	kapitáne	-0.04305813
-4.717163	kapky	-0.06390052
-4.717163	kapradí	-0.08398055
-4.717163	kaprála	-0.07706445
-4.717163	kapse	-0.04305813
-4.416133	kapsy	-0.06389178
-4.717163	kapsářů	-0.07156124
-4.717163	karamany	-0.07156124
-4.717163	karel	-0.08541563
-4.717163	kariéru	-0.07156124
-4.717163	karkulce	-0.04305813
-4.717163	karta	-0.04305813
-4.717163	kartel	-0.07706445
-4.717163	kartoun	-0.07156124
-4.416133	kasa	-0.03804289
-4.240041	kasař	-0.03226354
-4.717163	kasaři	-0.04305813
-4.416133	kase	-0.08502397
-4.717163	kasematy	-0.04305813
-4.240041	kasu	-0.04217565
-4.416133	kasy	-0.07155265
-4.717163	katar	-0.07156124
-4.717163	katastrofální	-0.08539064
-4.717163	katolickém	-0.0854073
-4.717163	katolíky	-0.0817014
-4.717163	kavalec	-0.07156124
-4.717163	kavkám	-0.08489888
-4.240041	kavárně	-0.02774009
-4.717163	kazit	-0.08541563
-4.240041	kašlu	-0.5435229
-4.717163	kaštany	-0.06390052
-4.115103	každou	-0.1663091
-3.939011	každá	-0.08523235
-4.115103	každé	-0.08433977
-4.018193	každého	-0.0837214
-4.717163	každém	-0.08541563
-4.240041	každému	-0.06352398
-3.254765	každý	-0.09048043
-4.416133	každým	-0.08533233
-3.336951	kde	-0.08914973
-4.717163	kdekdo	-0.08529067
-4.717163	kdekomu	-0.08519067
-3.637981	kdepak	-0.5995424
-4.717163	kdes	-0.08358759
-4.018193	kdesi	-0.341199
-4.717163	kdežto	-0.0854073
-3.225801	kdo	-0.2168694
-3.872065	kdopak	-0.2779696
-4.717163	kdosi	-0.08500729
-3.416133	kdy	-0.1078936
-3.254765	kdyby	-0.1915754
-3.486714	kdybych	-0.1233999
-4.115103	kdybychom	-0.08442327
-3.67577	kdybyste	-0.1326295
-4.115103	kdykoliv	-0.1576037
-4.717163	kdysi	-0.08541563
-2.295559	když	-0.4387727
-4.717163	kdyžs	-0.08412261
-3.254765	ke	-0.4557494
-4.717163	kejchnout	-0.04305813
-4.717163	kelimy	-0.06390052
-4.717163	khorasan	-0.06390052
-4.240041	kilometrů	-0.04287442
-4.717163	kirman	-0.04305813
-4.416133	klacek	-0.06771741
-4.717163	klade	-0.0845902
-4.717163	kladl	-0.08541563
-4.717163	kladlo	-0.08524901
-4.717163	klame	-0.04305813
-4.115103	klarinet	-0.1545143
-4.717163	klarinetový	-0.04305813
-4.717163	klasický	-0.08541563
-4.717163	klec	-0.08326123
-4.717163	kleci	-0.07706445
-4.717163	klecí	-0.07156124
-4.416133	klekl	-0.0707435
-4.717163	klepen	-0.08352066
-4.717163	klepny	-0.07156124
-4.717163	klepů	-0.04305813
-4.717163	klesla	-0.06390052
-4.717163	kleslo	-0.08530733
-4.416133	klečela	-0.08015282
-4.717163	klečeli	-0.08463193
-4.416133	klid	-0.03383288
-4.717163	klidem	-0.08541563
-4.717163	klidnou	-0.08535732
-4.717163	klidným	-0.08541563
-4.717163	klidně	-0.08371304
-4.240041	klient	-0.083211
-4.717163	klientelu	-0.08469034
-4.717163	klikyháky	-0.08541563
-4.717163	klobouk	-0.08352066
-4.717163	klobouky	-0.07156124
-4.717163	kloudná	-0.08539897
-3.486714	kluk	-0.2135604
-3.814073	kluka	-0.05406854
-4.416133	kluku	-0.08539065
-4.717163	klást	-0.0854073
-4.717163	klíč	-0.08398055
-4.717163	klíční	-0.0854073
-4.717163	kmitl	-0.08541563
-4.717163	kmín	-0.04305813
-4.717163	knih	-0.07156124
-4.717163	knihu	-0.04305813
-4.717163	knihy	-0.07706445
-4.717163	knize	-0.0854073
-4.717163	kněžský	-0.0817014
-3.717163	koberce	-0.259312
-3.872065	koberci	-0.1709081
-4.240041	kobercích	-0.04131905
-4.115103	koberců	-0.02365904
-3.336951	koberec	-0.1227953
-4.717163	koberečky	-0.04305813
-4.717163	kobka	-0.04305813
-4.717163	kobylku	-0.06390052
-4.717163	kochají	-0.07706445
-3.814073	koho	-0.1565138
-4.717163	kohos	-0.07489371
-4.717163	kojence	-0.07156124
-4.717163	kojenců	-0.06390052
-4.416133	kojenec	-0.2450188
-4.115103	koktal	-0.1155617
-4.717163	koktaly	-0.04305813
-4.717163	kolega	-0.04305813
-3.717163	kolego	-0.8993561
-4.717163	kolegovi	-0.08541563
-4.717163	kolegové	-0.04305813
-4.717163	kolegy	-0.08539897
-4.240041	kolem	-0.08514066
-4.717163	kolen	-0.08199535
-4.240041	kolena	-0.0589888
-4.717163	kolenem	-0.08436482
-4.717163	koleno	-0.08533233
-4.717163	koleny	-0.085299
-4.240041	kolik	-0.08537398
-4.717163	kolikrát	-0.08266647
-4.717163	kolo	-0.0854073
-4.717163	kolony	-0.0854073
-4.717163	kom	-0.08349556
-4.717163	komandýr	-0.04305813
-4.717163	komandýrem	-0.06390052
-4.717163	komandýrovu	-0.07706445
-4.717163	kometo	-0.04305813
-3.185684	komisař	-0.3352217
-3.513043	komisaři	-1.233364
-4.240041	komisařství	-0.02632037
-4.018193	komoru	-0.00760828
-4.115103	komtesa	-0.1665674
-4.717163	komteska	-0.08541563
-4.717163	komtesko	-0.04305813
-4.717163	komteskou	-0.04305813
-4.717163	komtesou	-0.07706445
-4.416133	komtesu	-0.08538232
-4.240041	komu	-0.06900822
-4.717163	komupak	-0.07948624
-4.717163	komíny	-0.07706445
-4.717163	konají	-0.08537398
-4.717163	konal	-0.07706445
-4.240041	konce	-0.07696253
-4.717163	koncert	-0.08326123
-4.717163	koncích	-0.07706445
-3.76292	konec	-0.03284212
-4.717163	konejšivě	-0.04305813
-4.717163	koneček	-0.08541563
-3.637981	konečně	-0.1560447
-4.416133	konflikt	-0.04932152
-4.717163	konfrontuje	-0.08326123
-4.240041	koni	-0.02527884
-4.717163	konstatovat	-0.04305813
-4.717163	kontor	-0.06390052
-4.717163	kontorem	-0.08358759
-3.603219	kontoru	-0.05784571
-4.717163	kontraband	-0.07156124
-4.717163	kontrašpionáže	-0.04305813
-4.717163	kontrfejem	-0.07706445
-4.717163	kontrolu	-0.06390052
-4.717163	konvenčně	-0.08541563
-4.717163	konání	-0.0854073
-4.717163	koních	-0.07156124
-4.717163	končil	-0.08426461
-4.717163	končinách	-0.08541563
-4.717163	kopali	-0.0854073
-4.717163	kopané	-0.04305813
-4.717163	kopistem	-0.07706445
-4.717163	kopl	-0.08495726
-4.717163	korekce	-0.06390052
-4.717163	korekci	-0.04305813
-4.717163	korektní	-0.084465
-4.717163	korespondenci	-0.04305813
-4.717163	korodovat	-0.07706445
-4.717163	korouhevník	-0.04305813
-3.486714	korun	-0.2444741
-4.115103	koruny	-0.09070227
-4.717163	korunách	-0.04305813
-4.717163	korunám	-0.08541563
-4.416133	koruně	-0.04304895
-4.717163	korupce	-0.06390052
-4.416133	kost	-0.07007094
-4.717163	kostel	-0.04305813
-4.416133	kostela	-0.01926777
-4.416133	kostele	-0.085124
-4.717163	kostelem	-0.04305813
-4.416133	kostelník	-0.04303977
-4.717163	kostelích	-0.07156124
-4.717163	kostelíčka	-0.08264133
-4.717163	kosti	-0.06390052
-4.717163	kostrč	-0.0854073
-4.717163	kotě	-0.08398055
-4.717163	koudel	-0.07706445
-4.717163	kouk	-0.07156124
-4.115103	koukal	-0.1172354
-4.717163	koukalo	-0.08016968
-4.717163	koukat	-0.08433977
-4.416133	koukej	-0.2241765
-3.939011	koukejte	-0.3218438
-4.717163	koukl	-0.0854073
-4.018193	koukněte	-0.5642162
-4.416133	kouká	-0.06613547
-4.416133	koukám	-0.2241765
-3.872065	koupil	-0.09842368
-4.717163	koupila	-0.08463193
-4.115103	koupit	-0.02935426
-4.416133	koupím	-0.04303059
-4.416133	kousal	-0.08326124
-4.240041	kousek	-0.07582292
-4.717163	kousku	-0.08438987
-4.717163	kousky	-0.08385517
-4.717163	kouta	-0.07706445
-4.115103	koutě	-0.0364048
-4.717163	koutů	-0.08541563
-4.717163	kouzelnictví	-0.06390052
-4.717163	kouři	-0.04305813
-4.717163	kouřil	-0.0854073
-4.717163	kouřila	-0.0854073
-4.717163	kouřilo	-0.06390052
-4.717163	kouří	-0.08524901
-4.717163	kozácké	-0.08541563
-4.717163	kozí	-0.08541563
-4.416133	kočka	-0.02774962
-4.717163	kočku	-0.06390052
-3.939011	kočárek	-0.06643145
-4.115103	kočárkem	-0.02619629
-4.717163	kočárku	-0.08398055
-4.717163	koňskou	-0.08541563
-4.717163	kořenů	-0.04305813
-4.717163	kořist	-0.04305813
-4.717163	kořistí	-0.08524067
-4.717163	koše	-0.07156124
-4.717163	koši	-0.08533233
-4.717163	košili	-0.08539897
-4.717163	košiláček	-0.04305813
-4.717163	košilím	-0.08398055
-4.717163	koších	-0.08016968
-4.717163	kožichy	-0.08352066
-4.717163	kožichů	-0.08398055
-4.717163	kožuchu	-0.06390052
-4.717163	kožuchách	-0.08264133
-4.717163	koží	-0.04305813
-4.717163	krabice	-0.07648665
-4.717163	krabici	-0.07948624
-4.018193	krade	-0.09446205
-4.416133	kradená	-0.2450188
-4.717163	kradl	-0.08516567
-4.115103	kradou	-0.0660658
-4.717163	kradu	-0.06390052
-4.240041	kraj	-0.06387425
-4.717163	krajan	-0.04305813
-4.416133	krajinského	-0.08533233
-4.416133	krajinský	-0.08539065
-4.717163	krajinských	-0.0854073
-4.717163	krajinách	-0.04305813
-4.717163	krajíčku	-0.04305813
-4.717163	kramářku	-0.04305813
-4.717163	krapet	-0.08539064
-4.717163	krasovědným	-0.07706445
-4.717163	kravál	-0.07706445
-4.717163	kravály	-0.0847988
-4.717163	krchov	-0.06390052
-4.717163	kredit	-0.084465
-4.717163	krejcar	-0.06390052
-4.717163	krejčí	-0.04305813
-4.717163	krepdešínovým	-0.08541563
-4.240041	krev	-0.0583421
-4.717163	krevní	-0.08541563
-4.717163	krevních	-0.08541563
-4.416133	kriminál	-0.07242896
-4.018193	kriminále	0.001178659
-4.115103	kriminální	-0.1658254
-4.717163	kriminálních	-0.0854073
-4.416133	kriminálník	-0.0637517
-4.240041	kriminálu	-0.06182993
-4.717163	kristapána	-0.04305813
-3.939011	kristepane	-0.7817556
-4.717163	kriticky	-0.08426461
-4.717163	kritik	-0.04305813
-4.717163	kritikem	-0.04305813
-4.717163	krizi	-0.08541563
-4.416133	krk	-0.08535733
-4.416133	krku	-0.04132828
-4.717163	krok	-0.08389697
-4.240041	krokem	-0.07436427
-4.416133	kroky	-0.08263295
-3.76292	krom	-0.4255321
-4.115103	kromě	-0.08367123
-4.416133	kroutil	-0.266384
-4.717163	kroutit	-0.08526567
-4.717163	kroutí	-0.08535732
-4.717163	kroutě	-0.08526567
-4.717163	krov	-0.0808773
-4.717163	kruci	-0.04305813
-4.018193	krucinál	-0.5307876
-4.717163	kruhu	-0.08500729
-4.717163	krutostí	-0.04305813
-4.717163	krutě	-0.04305813
-4.416133	krvavé	-0.2665256
-4.717163	krvavě	-0.07156124
-4.115103	krve	-0.03141544
-4.717163	krvi	-0.06390052
-4.717163	krvácelo	-0.08530733
-4.416133	krví	-0.04070089
-4.717163	krysa	-0.07156124
-4.717163	krysy	-0.0854073
-4.717163	krysám	-0.08541563
-4.717163	krytou	-0.06390052
-4.240041	krádež	-0.0167774
-4.416133	krádeže	-0.0826078
-4.717163	krádeží	-0.08482382
-4.717163	králík	-0.08519067
-3.939011	krám	-0.09362148
-4.717163	krámek	-0.08457351
-4.717163	krámkem	-0.08433142
-4.240041	krámku	-0.04235965
-4.018193	krámu	-0.1267129
-4.717163	krámy	-0.06390052
-3.939011	krámě	-0.09503016
-4.240041	krása	-0.1534765
-4.018193	krásnou	-0.2887462
-4.115103	krásná	-0.04257115
-4.416133	krásné	-0.07152685
-4.416133	krásného	-0.04932152
-3.717163	krásný	-0.08921494
-4.717163	krásných	-0.08541563
-3.814073	krásně	-0.09790832
-3.814073	krást	-0.1779923
-4.717163	krásy	-0.08541563
-4.717163	krátkostí	-0.08199535
-4.717163	krátkých	-0.08541563
-4.717163	krátí	-0.08398055
-4.717163	kráčel	-0.04305813
-4.717163	kráčet	-0.08463193
-4.416133	krčil	-0.2665006
-4.717163	krčili	-0.08538231
-4.717163	krčku	-0.08482382
-4.717163	krčmou	-0.04305813
-4.717163	krčmu	-0.04305813
-4.717163	ksichtě	-0.06390052
-4.717163	kterak	-0.04305813
-3.717163	kterou	-0.17927
-3.438409	která	-0.09866761
-3.285799	které	-0.1205334
-3.872065	kterého	-0.1118199
-4.416133	kterém	-0.07924974
-4.717163	kterémkoliv	-0.08538231
-4.240041	kterému	-0.5398399
-4.717163	kterépak	-0.08541563
-3.009593	který	-0.158406
-3.872065	kterých	-0.07533725
-4.717163	kterýkoliv	-0.08534899
-4.416133	kterým	-0.08540731
-3.939011	kteří	-0.07489373
-4.717163	kuchali	-0.07706445
-4.717163	kuchařka	-0.085299
-4.416133	kuchyně	-0.2241765
-4.416133	kuchyňce	-0.07155265
-4.416133	kuchyňky	-0.0430214
-4.717163	kudla	-0.04305813
-4.115103	kufr	-0.02768302
-4.717163	kufrař	-0.04305813
-3.939011	kufru	-0.06487101
-4.717163	kufry	-0.06390052
-4.416133	kufřík	-0.04303977
-4.717163	kufříku	-0.08541563
-4.416133	kujóna	-0.08470704
-4.717163	kujóne	-0.04305813
-4.717163	kulatá	-0.07156124
-4.717163	kulaté	-0.08539897
-4.717163	kulhá	-0.08398055
-4.717163	kulminaci	-0.08536565
-4.717163	kultury	-0.07156124
-4.717163	kumbálek	-0.0817014
-4.717163	kunčofta	-0.0854073
-4.717163	kunčofty	-0.0811045
-4.717163	kupce	-0.08016968
-4.717163	kupodivu	-0.08537398
-4.717163	kupovat	-0.06390052
-4.717163	kupují	-0.0808773
-4.717163	kupy	-0.08541563
-4.717163	kupé	-0.08385517
-4.416133	kuráž	-0.04291118
-4.717163	kuráží	-0.08539064
-4.416133	kurýroval	-0.08470704
-4.717163	kurýrovat	-0.08525734
-3.486714	kus	-0.1129685
-4.717163	kuse	-0.0854073
-4.416133	kusem	-0.08321938
-4.717163	kusu	-0.08538231
-4.717163	kusy	-0.04305813
-4.717163	kvartýru	-0.06390052
-4.717163	kvas	-0.06390052
-4.717163	kvasu	-0.04305813
-4.416133	kvašení	-0.05450418
-4.717163	kverulant	-0.04305813
-4.717163	kverulanti	-0.07156124
-4.717163	kvičela	-0.04305813
-4.717163	kvočna	-0.04305813
-4.717163	kvásek	-0.07706445
-4.717163	kvér	-0.07156124
-4.717163	kvérgrifech	-0.04305813
-4.717163	kvílela	-0.085324
-4.717163	květy	-0.08264133
-3.603219	kvůli	-0.1299427
-4.717163	kyne	-0.04305813
-4.717163	kynoucího	-0.06390052
-4.717163	kyprou	-0.08541563
-4.717163	kyseliny	-0.0854073
-4.717163	kytici	-0.08389697
-4.115103	kámen	-0.1239401
-4.717163	káral	-0.08541563
-4.416133	káravě	-0.08235621
-4.717163	kát	-0.04305813
-3.872065	kázal	-0.2094471
-4.717163	kázni	-0.07156124
-4.717163	kód	-0.07156124
-4.717163	kódu	-0.08537398
-4.717163	kýble	-0.08326123
-4.717163	kým	-0.04305813
-4.717163	kývaje	-0.08526567
-4.717163	kývnutí	-0.08536565
-4.717163	kňučení	-0.04305813
-4.717163	křestním	-0.08534899
-4.717163	křesťansky	-0.08016968
-4.717163	křesťanskému	-0.08530733
-4.416133	křeče	-0.01926777
-4.717163	křečovitě	-0.08541563
-4.717163	křečí	-0.07156124
-4.717163	křečích	-0.06390052
-4.717163	křik	-0.06390052
-3.67577	křikl	-0.194579
-4.717163	křiku	-0.04305813
-4.416133	křivda	-0.06387427
-4.416133	křivdil	-0.2450188
-4.240041	křivé	-0.04299384
-3.541071	křičel	-0.1412702
-4.416133	křičela	-0.08059945
-4.717163	křičelo	-0.06390052
-4.416133	křičet	-0.07824317
-4.115103	křičí	-0.03275281
-4.240041	křičím	-0.05377908
-4.717163	křoupavé	-0.07156124
-4.717163	křída	-0.04305813
-4.717163	kříž	-0.04305813
-4.717163	kříži	-0.06390052
-4.717163	křížový	-0.08541563
-4.717163	křížových	-0.08541563
-4.416133	kšeft	-0.05998798
-4.717163	kšeftoval	-0.0817014
-4.240041	kšeftu	-0.01674812
-4.717163	kůlen	-0.07156124
-4.717163	kůlnička	-0.07706445
-4.717163	kůlničku	-0.07156124
-4.717163	kůlničky	-0.04305813
-4.416133	kůň	-0.07077797
-4.240041	kůže	-0.02710227
-4.717163	kůžemi	-0.04305813
-4.717163	kůži	-0.08016968
-4.717163	kůží	-0.04305813
-4.717163	labyrintu	-0.04305813
-4.416133	lacino	-0.06378673
-4.717163	laciným	-0.0854073
-4.717163	ladik	-0.08398055
-4.717163	lahvička	-0.08326123
-4.717163	lahvičku	-0.08541563
-4.717163	lajdák	-0.04305813
-4.717163	lajtnant	-0.04305813
-4.717163	lakomec	-0.04305813
-4.717163	lakomý	-0.04305813
-4.717163	lakoto	-0.08541563
-4.240041	lampu	-0.1312777
-4.717163	lapá	-0.08433977
-4.717163	laskav	-0.08264133
-4.717163	latentně	-0.07156124
-4.717163	lavici	-0.0854073
-4.717163	lazebník	-0.08512399
-4.416133	leckdo	-0.08264972
-4.717163	leckdy	-0.08533233
-4.717163	led	-0.06390052
-4.115103	ledacos	-0.0822807
-4.717163	ledničky	-0.07706445
-4.717163	lednové	-0.08520734
-4.717163	ledový	-0.08541563
-4.717163	ledovým	-0.08539897
-4.717163	ledově	-0.04305813
-4.717163	ledvin	-0.04305813
-4.717163	ledvinu	-0.06390052
-4.717163	legitimovat	-0.04305813
-4.717163	lehko	-0.08541563
-4.717163	lehkomyslnosti	-0.08398055
-4.717163	lehkomyslně	-0.04305813
-4.717163	lehkovážná	-0.04305813
-4.717163	lehkověrné	-0.06390052
-4.717163	lehká	-0.08521567
-4.717163	lehké	-0.08541563
-4.416133	lehl	-0.06613547
-4.717163	lehlo	-0.0854073
-4.717163	lehnut	-0.0832696
-4.717163	lejster	-0.07156124
-4.717163	lejstra	-0.04305813
-4.717163	lekl	-0.06390052
-4.717163	lekla	-0.04305813
-4.717163	lekli	-0.04305813
-4.717163	leknu	-0.04305813
-4.717163	leknutí	-0.08352066
-4.240041	lenošce	-0.1550497
-4.717163	lenošky	-0.04305813
-4.717163	lepkavých	-0.0854073
-3.76292	lepší	-0.05279297
-4.717163	lepších	-0.08539897
-4.717163	lepšího	-0.06390052
-4.717163	lesa	-0.04305813
-4.717163	leskla	-0.08541563
-4.717163	lesklý	-0.08541563
-4.717163	lest	-0.0846069
-3.571035	let	-0.2827261
-4.717163	letech	-0.04305813
-4.717163	letitý	-0.08521567
-4.416133	letní	-0.08521568
-4.416133	letním	-0.2664923
-4.416133	letos	-0.2628197
-3.717163	lety	-0.09273264
-4.115103	letím	-0.1641532
-4.717163	letěl	-0.08541563
-4.717163	letět	-0.08016968
-4.717163	levičkou	-0.04305813
-4.717163	levou	-0.0854073
-4.717163	levé	-0.08539064
-4.717163	lexikon	-0.04305813
-4.717163	leze	-0.08349556
-4.717163	lezl	-0.07948624
-4.717163	lezu	-0.08433977
-4.717163	lež	-0.04305813
-4.018193	ležel	-0.07602725
-4.115103	ležela	-0.03598498
-4.717163	leželo	-0.08016968
-4.416133	ležet	-0.05837758
-4.717163	ležete	-0.06390052
-4.717163	ležák	-0.07156124
-3.814073	leží	-0.0648448
-4.416133	lhostejně	-0.02774962
-3.148961	li	-0.1447627
-4.416133	liber	-0.07488519
-4.717163	libostí	-0.06390052
-4.717163	liboval	-0.07948624
-4.717163	lichotí	-0.07706445
-4.717163	lid	-0.04305813
-4.240041	lidech	-0.0430122
-4.240041	lidem	-0.07425319
-3.603219	lidi	-0.1789335
-4.240041	lidmi	-0.074219
-4.717163	lidová	-0.08541563
-4.717163	lidskou	-0.08541563
-4.717163	lidská	-0.0854073
-4.240041	lidské	-0.08534065
-4.416133	lidského	-0.08528234
-4.717163	lidském	-0.0854073
-4.115103	lidský	-0.08524901
-4.240041	lidských	-0.08537398
-4.416133	lidstvo	-0.05837758
-4.416133	lidu	-0.07705596
-3.285799	lidé	-0.1199094
-3.603219	lidí	-0.1058667
-4.018193	list	-0.08066098
-4.717163	listopadu	-0.07156124
-4.717163	listu	-0.04305813
-4.717163	listě	-0.07648665
-4.416133	literární	-0.08540731
-4.717163	literárním	-0.08541563
-4.416133	litovali	-0.2664673
-4.717163	litovat	-0.08534899
-4.717163	lituju	-0.06390052
-4.717163	liška	-0.07706445
-4.717163	liší	-0.04305813
-4.717163	lišíme	-0.0847404
-4.416133	lodi	-0.2241765
-4.717163	loděmi	-0.04305813
-4.717163	loděnicemi	-0.07156124
-4.717163	lojzík	-0.08539897
-4.717163	lojzíkova	-0.08541563
-4.717163	lokální	-0.08541563
-4.717163	lomcoval	-0.08534066
-4.717163	lomozil	-0.08426461
-4.717163	loni	-0.07948624
-4.717163	lopatky	-0.07156124
-4.717163	losař	-0.08526567
-4.717163	losové	-0.08538231
-4.717163	losy	-0.06390052
-4.717163	loudal	-0.07648665
-4.717163	loupež	-0.04305813
-4.416133	loupežnou	-0.2664257
-4.240041	loupežná	-0.5486772
-4.717163	loupí	-0.08464028
-4.717163	loučení	-0.08416437
-4.240041	lovec	-0.02610081
-4.717163	loviště	-0.07706445
-4.717163	lovíš	-0.08541563
-4.416133	loď	-0.04304895
-4.717163	lože	-0.08535732
-4.717163	ložnice	-0.04305813
-4.717163	lucernou	-0.07648665
-4.717163	luk	-0.06390052
-4.717163	lulánek	-0.04305813
-4.240041	lump	-0.1550405
-4.416133	lumpy	-0.0430214
-4.717163	lupa	-0.07706445
-4.416133	lupič	-0.0679516
-4.717163	lupiče	-0.08457351
-4.717163	lupou	-0.06390052
-4.717163	lupu	-0.085324
-4.717163	luštil	-0.08199535
-4.717163	luštit	-0.06390052
-4.717163	luští	-0.08525734
-4.717163	lysá	-0.06390052
-4.240041	lyže	-0.1397595
-4.717163	lyžemi	-0.07156124
-4.717163	lyžovat	-0.07706445
-4.416133	lze	-0.08530734
-4.717163	láká	-0.08502396
-4.416133	láptích	-0.2241765
-4.416133	lásce	-0.03804289
-3.872065	láska	-0.136223
-4.240041	láskou	-0.03786633
-4.717163	lásku	-0.07706445
-4.018193	lásky	-0.2496343
-4.717163	látce	-0.08147451
-4.416133	látku	-0.04299385
-4.115103	látky	-0.079368
-4.717163	lázní	-0.04305813
-4.717163	lázních	-0.06390052
-4.717163	lékaře	-0.08469034
-4.717163	lékařem	-0.08199535
-4.717163	lékařsky	-0.08493224
-4.717163	lékařské	-0.08536565
-4.717163	lékařský	-0.08541563
-4.717163	lékařů	-0.04305813
-4.717163	lékem	-0.04305813
-3.939011	léta	-0.109076
-4.416133	létě	-0.08519068
-4.717163	léčení	-0.08541563
-4.416133	líbala	-0.08270001
-4.240041	líbit	-0.1312777
-4.416133	líbí	-0.04179823
-4.717163	lícemi	-0.08541563
-3.939011	límec	-0.06999024
-4.717163	líná	-0.04305813
-4.240041	líp	-0.08507397
-4.240041	lístek	-0.04023897
-4.717163	lítla	-0.08533233
-3.939011	líto	-0.04461698
-4.115103	lítost	-0.1153368
-4.416133	lítosti	-0.04932152
-4.115103	lítostí	-0.01733314
-4.717163	líčení	-0.08541563
-4.416133	líčil	-0.07690309
-4.416133	líčit	-0.03383288
-4.416133	lže	-0.01926777
-4.717163	lži	-0.07156124
-4.717163	m	-0.06390052
-4.717163	madagaskar	-0.06390052
-4.416133	madam	-0.2241765
-4.717163	madonna	-0.04305813
-4.717163	majetek	-0.04305813
-4.416133	major	-0.2665173
-4.717163	majorem	-0.08541563
-4.717163	maják	-0.07156124
-3.513043	mají	-0.05204703
-4.717163	maledetto	-0.08521567
-4.717163	malicherný	-0.04305813
-4.717163	maličkost	-0.08482382
-4.717163	maličkosti	-0.04305813
-4.717163	maličké	-0.07156124
-4.717163	maličký	-0.08537398
-4.717163	malodušně	-0.07156124
-4.717163	malomyslně	-0.06390052
-4.717163	maloměsto	-0.04305813
-4.717163	malou	-0.08541563
-4.717163	malovanému	-0.08541563
-4.717163	malárii	-0.07156124
-4.018193	malé	-0.1487958
-4.717163	malého	-0.0854073
-4.416133	malý	-0.08526568
-3.814073	maminka	-0.155327
-4.018193	maminko	-0.5307876
-4.416133	maminku	-0.07101052
-4.416133	maminky	-0.08522401
-4.717163	mamlasovi	-0.06390052
-4.416133	manasses	-0.03895232
-4.717163	mandl	-0.08398055
-4.717163	manévrech	-0.06390052
-4.717163	mančaft	-0.04305813
-4.717163	manžel	-0.08438987
-4.416133	manžela	-0.06389178
-4.717163	manželka	-0.04305813
-4.717163	manželská	-0.08536565
-4.717163	manželské	-0.08541563
-4.717163	manželským	-0.08541563
-3.76292	manželství	-0.2824203
-4.717163	mariáš	-0.07156124
-4.717163	marky	-0.08349556
-4.717163	marnotratná	-0.08537398
-4.717163	marod	-0.0854073
-4.717163	marodi	-0.08534899
-4.717163	marodů	-0.07156124
-4.240041	maryna	-0.07643562
-3.814073	maryno	-0.3631103
-4.717163	marynu	-0.08539064
-4.717163	marš	-0.08539064
-4.717163	maršrútu	-0.0854073
-4.717163	maskoval	-0.07948624
-4.416133	matce	-0.0619003
-4.717163	matek	-0.07156124
-4.717163	materiálem	-0.08541563
-4.717163	mateřské	-0.08538231
-4.018193	matka	-0.1067099
-4.717163	matkou	-0.08481548
-4.416133	matky	-0.04212045
-4.717163	mazali	-0.0854073
-4.416133	mazavka	-0.2241765
-4.717163	mechanicky	-0.06390052
-4.717163	mechtle	-0.08326123
-4.717163	medicínské	-0.08541563
-4.717163	medicíny	-0.07156124
-4.717163	medicíně	-0.08521567
-4.717163	medvědích	-0.08541563
-4.416133	mejlka	-0.05511196
-4.717163	mela	-0.06390052
-4.717163	mely	-0.0854073
-4.717163	mermomocí	-0.08541563
-4.717163	metodický	-0.08541563
-4.717163	metodou	-0.06390052
-4.416133	metody	-0.2581828
-4.717163	metodám	-0.06390052
-4.717163	metrového	-0.0854073
-4.717163	metrovému	-0.0854073
-4.416133	metry	-0.0430214
-4.240041	metrů	-0.06382173
-3.717163	mezi	-0.08416439
-4.717163	mezinárodní	-0.0854073
-4.717163	mezku	-0.04305813
-4.717163	mezí	-0.08539064
-4.717163	meč	-0.04305813
-4.717163	mečel	-0.08539064
-4.717163	mečem	-0.08016968
-4.717163	mešity	-0.08398055
-3.438409	mi	-0.08709985
-4.717163	migradon	-0.08264133
-4.717163	mihálička	-0.08539897
-4.717163	mikroskopem	-0.08541563
-4.416133	mikroskopicky	-0.08540731
-4.717163	mikrosporami	-0.04305813
-4.717163	milenci	-0.0854073
-4.717163	milosrdný	-0.07706445
-4.416133	milost	-0.07678415
