
\data\
ngram 1=12651
ngram 2=34437
ngram 3=1181

\1-grams:
-4.6556	(Malacorrhiza	-0.06218897
-4.6556	)	-0.04751767
-4.354569	,	-0.05965724
-4.6556	,z	-0.06216977
-4.354569	10	-0.2600127
-4.6556	11	-0.04751767
-4.6556	12	-0.06201616
-4.6556	1388	-0.04751767
-4.6556	1451	-0.04236432
-4.354569	18	-0.06208336
-4.6556	23	-0.06218897
-4.6556	28	-0.0573728
-4.6556	2a	-0.06217937
-4.6556	35	-0.06211217
-4.6556	48	-0.06211217
-4.354569	6	-0.2600127
-4.6556	618	-0.04751767
-4.354569	7	-0.04228393
-4.6556	;	-0.05819698
-1.350248	</s>
-99	<s>	-0.4966563
-2.451479	A	-0.261011
-4.6556	Aby	-0.06175683
-3.877448	Abych	-0.1028707
-4.354569	Abys	-0.2600511
-3.614207	Abyste	-1.000203
-4.6556	Acta	-0.06218897
-4.354569	Advokát	-0.06217936
-4.6556	Afganistan,	-0.06218897
-4.6556	Afrika,	-0.06218897
-4.6556	Aha	-0.04236432
-3.752509	Aha,	-0.1471981
-4.6556	Akvárium,	-0.04751767
-2.551796	Ale	-0.2354321
-4.178478	Ale,	-0.05970552
-4.6556	Alpách	-0.04236432
-4.6556	Amen,	-0.06218897
-4.6556	Ameriky	-0.04236432
-4.6556	Amin	-0.04751767
-3.614207	Amina	-0.02495065
-4.6556	Amina!	-0.06216977
-4.178478	Amina,	-0.06199696
-4.6556	Aminko,	-0.06218897
-4.178478	Amino,	-0.06215058
-4.354569	Amino;	-0.06199695
-4.354569	Amino?	-0.258936
-4.6556	Aminu	-0.05977308
-4.6556	Aminu,	-0.06176643
-4.354569	Amině	-0.04235426
-4.6556	Anatolii	-0.04751767
-4.6556	Andrej	-0.06218897
-4.6556	Andrejeva,	-0.06218897
-4.354569	Andulo,	-0.06216016
-4.6556	Anebo	-0.06216977
-4.6556	Anglii	-0.05219827
-4.6556	Angličani	-0.05632336
-4.053539	Ani	-0.04770627
-4.053539	Ano,	-0.0498149
-4.6556	Anton	-0.04751767
-3.752509	Anton,	-0.05465654
-4.6556	Antona	-0.04751767
-4.354569	Antona,	-0.06153578
-4.6556	Antonína,	-0.06214097
-4.6556	Arenelle,	-0.06068904
-3.956629	Armén	-0.05149055
-4.6556	Arméni;	-0.05632336
-4.6556	Arménie	-0.06060235
-4.6556	Arménovi	-0.04236432
-3.956629	Asi	-0.4475639
-4.6556	Aspoň	-0.06044819
-4.6556	Astrophytum	-0.06218897
-4.6556	Aszu	-0.06218897
-4.6556	Atak	-0.05219827
-4.6556	Au!	-0.06218897
-3.956629	Ať	-0.222049
-4.178478	Až	-0.05571976
-4.6556	BALADA	-0.06214097
-4.6556	BARONA	-0.06218897
-4.6556	Ba	-0.06211217
-4.354569	Babka	-0.04216333
-4.6556	Bacco,	-0.06218897
-4.6556	Badenu	-0.05977308
-3.655599	Balabán	-0.1437189
-3.701357	Balabán,	-0.08276154
-4.6556	Balabánovi	-0.04236432
-4.6556	Baladu	-0.06174722
-4.6556	Balady	-0.06174722
-4.6556	Bandinelliho,	-0.06218897
-4.6556	Baran,	-0.06218897
-4.354569	Baron	-0.2601472
-3.42515	Bartošek	-0.1359841
-4.053539	Bartošek,	-0.06085275
-4.178478	Bartoškovi	-0.06105489
-4.6556	Bartoškovi,”	-0.06189132
-4.6556	Bartoškovi;	-0.05897124
-4.6556	Baryna	-0.06197775
-4.6556	Barynu!	-0.06209297
-4.6556	Barynu,	-0.06201616
-4.354569	Baum	-0.2403609
-4.6556	Baum,	-0.06218897
-4.6556	Bejček,	-0.06218897
-4.6556	Bellevue	-0.05819698
-4.6556	Benátkách	-0.06218897
-4.6556	Benátkách,	-0.06218897
-4.6556	Beran,	-0.06216977
-4.6556	Bergr,	-0.06218897
-4.6556	Bez	-0.06218897
-4.6556	Bezuchý,	-0.06171839
-4.6556	Bhútánu,	-0.06217937
-4.6556	Biagio	-0.06008183
-4.6556	Biarritzi	-0.04751767
-4.6556	Bimbal	-0.06008183
-4.6556	Bimbala	-0.05908726
-4.6556	Bobek	-0.04751767
-4.6556	Bobek,	-0.06195854
-4.6556	Bobot?	-0.06214097
-4.178478	Boha	-0.1638805
-4.6556	Bohu	-0.06218897
-4.6556	Bolest	-0.06218897
-4.354569	Bolívie	-0.04069337
-4.6556	Borneo,	-0.06218897
-4.6556	Boucháme	-0.06131464
-4.178478	Bože,	-0.0607372
-4.6556	Boží	-0.06215057
-4.6556	Brazílie,	-0.06218897
-4.6556	Briggs	-0.06177604
-4.6556	Bristol,	-0.06068904
-4.6556	Brna;	-0.05918393
-4.6556	Browning	-0.05632336
-4.6556	Bubnech	-0.04236432
-4.6556	Budete-li	-0.05219827
-4.6556	Budečské	-0.06212177
-4.6556	Bukurešti;	-0.0607372
-4.6556	Butera,	-0.06029397
-4.354569	Buď	-0.0612954
-4.6556	Bydlí	-0.06038073
-3.655599	Byl	-0.1880368
-4.354569	Byl,	-0.06063125
-3.956629	Byla	-0.1176468
-3.614207	Bylo	-0.04903402
-4.6556	Byly	-0.05213934
-4.354569	Bystřice-Novoves	-0.02698511
-4.6556	Básník	-0.05219827
-4.6556	Bílek,	-0.06218897
-4.6556	Běžte	-0.05219827
-4.178478	Bůh	-0.05627472
-4.6556	Bůhví	-0.06029397
-4.6556	CUPOVI	-0.06202576
-4.6556	Castrogiovanni	-0.04751767
-4.354569	Cařihradě	-0.03910707
-4.354569	Celou	-0.06200655
-4.6556	Celé	-0.06196815
-4.6556	Celý	-0.06213137
-4.354569	Cephalocereus	-0.2601759
-4.6556	Cestou	-0.05219827
-4.6556	Charles	-0.06218897
-4.6556	Chemického	-0.06218897
-3.956629	Chemickém	-0.4191759
-4.6556	Chemický	-0.06218897
-4.6556	Chlapečka	-0.06148772
-4.6556	Chmelenského	-0.06057345
-4.6556	Chvilku	-0.0557295
-4.6556	Chvíli	-0.0557295
-4.6556	Chámovo	-0.04236432
-4.6556	Cikán	-0.05908726
-3.400327	Co	-0.06696226
-4.6556	Co,	-0.06191052
-3.810501	Copak	-0.1567736
-4.6556	Copak,	-0.06065052
-4.6556	Copák	-0.0573728
-4.6556	Cože,	-0.06218897
-4.6556	Curych	-0.04236432
-4.6556	Curychu	-0.06218897
-4.6556	Curychu!	-0.06041928
-4.178478	Cítil	-0.1833983
-4.6556	DIRIGENTA	-0.06218897
-4.6556	Dar	-0.06216017
-4.6556	Darebáci,	-0.06057345
-4.6556	De	-0.06218897
-4.178478	Dejte	-0.1720713
-4.6556	Den	-0.06210257
-4.6556	Devět	-0.06213137
-4.6556	Dickense,	-0.06218897
-4.178478	Dillinger	-0.05995644
-4.6556	Dillinger;	-0.06216977
-4.6556	Dimitra	-0.06216977
-4.6556	Divná	-0.06218897
-4.6556	Dlouhé	-0.06218897
-4.6556	Dnes	-0.05937718
-4.6556	Dneska	-0.06218897
-3.956629	Do	-0.1296623
-4.6556	Dobeš	-0.06216977
-4.354569	Dobeš,	-0.06217936
-4.354569	Dobrou	-0.06206416
-4.354569	Dobrá,	-0.05179539
-4.6556	Dobrá;	-0.06057345
-4.6556	Dobré	-0.06218897
-4.6556	Dobrý	-0.06216977
-4.6556	Docent	-0.06205457
-4.6556	Dohromady	-0.05213934
-4.6556	Dokazoval,	-0.06207377
-4.6556	Dokonale	-0.06218897
-3.810501	Doktor	-0.1636981
-4.178478	Doktore,	-0.06215058
-4.6556	Doktoři	-0.06214097
-4.178478	Doležal	-0.1635186
-4.6556	Dominga,	-0.06202576
-4.6556	Domácí	-0.06201616
-4.6556	Doprovodím	-0.06198736
-4.6556	Dosavadní	-0.06217937
-4.6556	Dostanu	-0.06209297
-4.178478	Douglas	-0.03187046
-4.6556	Druhou	-0.06060235
-4.6556	Dudenka,	-0.06217937
-4.6556	Dudáš	-0.04236432
-4.6556	Dudáš,	-0.06213137
-4.6556	Dundr	-0.06065052
-4.354569	Dva	-0.06207376
-4.6556	Dvaapadesát	-0.06213137
-4.6556	Dvanácti	-0.06218897
-4.354569	Dydydy,	-0.06077571
-4.6556	Dynda	-0.06060235
-4.354569	Dyť	-0.2569678
-4.6556	DÍTĚTEM	-0.06215057
-4.6556	Dámě	-0.05975378
-4.6556	Démon	-0.04236432
-4.354569	Děkuju	-0.06217936
-4.6556	Dělají	-0.05213934
-4.354569	Echinocactus	-0.06217936
-4.6556	Egypt,	-0.06191052
-4.6556	Einbeinig,	-0.06215057
-4.6556	EmO,	-0.05918393
-4.6556	Evropy	-0.04236432
-4.354569	Evropě	-0.06205456
-4.354569	Falešný	-0.06215056
-4.6556	Filipíny,	-0.06207377
-4.354569	Firbas	-0.05936751
-4.6556	Firbase;	-0.05897124
-4.6556	Fochovy	-0.06216977
-4.6556	Fodor,	-0.06211217
-4.6556	Formosu	-0.05975378
-4.6556	Fotr,	-0.06193934
-4.6556	Francii	-0.04236432
-4.6556	Francii,	-0.06117035
-4.6556	Frič,	-0.06200656
-4.6556	Frontdiensttauglich!	-0.06217937
-4.6556	Fuj	-0.06217937
-4.6556	GANDARY	-0.06218897
-4.6556	GRÓFINKA	-0.06218897
-4.6556	Gadete	-0.06218897
-3.956629	Gandara	-0.128071
-4.6556	Gandarou?	-0.06215057
-4.6556	Gandarovi	-0.06218897
-4.6556	Gandarovu	-0.06218897
-4.6556	Gandarovy	-0.06216977
-4.6556	Gandaru	-0.06218897
-4.6556	Gandary	-0.04236432
-4.6556	Gandarův	-0.06216977
-3.42515	Gierke	-0.06113633
-4.6556	Gierke!	-0.06203537
-3.877448	Gierke,	-0.11786
-4.6556	Gierkeho	-0.06218897
-4.6556	Gierkem	-0.04236432
-4.6556	Gierkemu	-0.04236432
-4.354569	Gierkovo	-0.04235426
-4.354569	Gierkovu	-0.06214096
-4.6556	Gottfrieda	-0.06218897
-4.6556	Graessnerii,	-0.06143965
-4.6556	Grenoblu	-0.04236432
-4.6556	Grenoblu,	-0.04751767
-4.6556	Grenoblu:	-0.06041928
-4.6556	Großpapa!	-0.06217937
-4.6556	Grusona	-0.06057345
-4.6556	Gráessner,	-0.06217937
-4.6556	Grébovky,	-0.04751767
-4.6556	Grófinka	-0.06044819
-4.6556	Grófinka,	-0.06217937
-4.6556	Guinea!	-0.06218897
-4.6556	HAVLENY	-0.06215057
-4.6556	HIRSCHE	-0.06218897
-4.6556	HISTORIE	-0.06218897
-4.6556	Hadry,	-0.06065052
-4.6556	Hamsuna,	-0.06218897
-4.6556	Hannover!	-0.05908726
-4.6556	Hannover,	-0.06218897
-4.6556	Hanák	-0.04236432
-4.354569	Hanák,	-0.06215056
-4.6556	Hardyho,	-0.06218897
-4.354569	Harvard-Lotsenovou	-0.04235426
-4.6556	Harvard-Lotsenův	-0.06218897
-4.6556	Hasit,	-0.05213934
-4.6556	HavIeno,	-0.05897124
-4.6556	Havelka,	-0.06218897
-4.6556	Havelko,	-0.06078535
-3.956629	Havlem	-0.03966346
-3.509471	Havlena	-0.08488707
-4.178478	Havlena,	-0.04844
-4.354569	Havleno	-0.2403609
-4.6556	Havleno,	-0.06178565
-4.6556	Havlenovi?	-0.05908726
-4.6556	Havlenu	-0.04751767
-4.6556	Havleny	-0.05977308
-4.354569	Havlenův	-0.06188171
-4.6556	Helejte,	-0.06218897
-4.6556	Hergot!	-0.06215057
-4.6556	Hergot,	-0.06206417
-4.6556	Himl,	-0.06202576
-3.400327	Hirsch	-0.08592879
-4.6556	Hirsch,	-0.06065052
-3.701357	Hirsche	-0.0721804
-4.354569	Hirsche,	-0.0474283
-4.6556	Hirsche;	-0.06142042
-4.178478	Hirschem	-0.04111675
-4.6556	Hirschem,	-0.06212177
-4.6556	Hirschem;	-0.06142042
-4.053539	Hirschovi	-0.03752514
-4.6556	Hirschovou	-0.04751767
-4.053539	Hirschová	-0.06192013
-4.178478	Hirschová,	-0.06023613
-4.6556	Hirschová;	-0.06196815
-4.6556	Hirschové	-0.04236432
-4.354569	Hlas	-0.2601568
-4.6556	Hledat	-0.04751767
-4.6556	Hledejte	-0.06218897
-4.6556	Hledá	-0.05219827
-4.178478	Hm,	-0.06038073
-4.354569	Hned	-0.05893255
-4.354569	Hochman	-0.04749781
-4.6556	Hochmana,	-0.06171839
-4.6556	Hochmane,	-0.06192974
-4.6556	Hohe	-0.06218897
-4.354569	Holan,	-0.0600336
-4.354569	Holane,	-0.060506
-4.178478	Holben	-0.0533263
-4.6556	Holbene,	-0.06211217
-4.6556	Holbenovi	-0.04751767
-3.810501	Holbenovy	-0.1100314
-4.178478	Holbenových	-0.183696
-4.354569	Holenku,	-0.05959931
-4.053539	Holub	-0.2392248
-3.275388	Holub,	-0.214088
-4.178478	Holub;	-0.06175683
-4.6556	Holube,	-0.06178565
-4.6556	Holubem	-0.05977308
-4.6556	Honem,	-0.06151656
-4.6556	Hooker,	-0.06171839
-3.701357	Horvát	-0.05309147
-4.354569	Horvát,	-0.06188171
-4.6556	Horvát;	-0.06014934
-4.354569	Horváta	-0.04235426
-4.6556	Horvátovi,	-0.05660541
-4.6556	Horálek,	-0.06218897
-4.6556	Horší	-0.06202576
-3.956629	Hospodin	-0.06150696
-4.6556	Hospodinem,	-0.06211217
-4.354569	Houdek,	-0.05218844
-4.6556	Houdek;	-0.06057345
-3.956629	Hrom	-0.4458259
-4.6556	Hromádka,	-0.06218897
-4.6556	Huber	-0.06060235
-4.6556	Huga	-0.04236432
-3.877448	Hugo	-0.01603349
-4.6556	Hugo!	-0.06093939
-3.752509	Hugo,	-0.08962449
-4.6556	Husa	-0.06218897
-4.6556	Hybernské	-0.06207377
-4.178478	I	-0.05805165
-4.6556	Indie,	-0.06218897
-4.6556	Indiáni	-0.06199696
-4.6556	Indiánům	-0.05632336
-4.053539	Inu,	-0.0492714
-4.6556	Irma	-0.06133388
-4.6556	Irmu	-0.0607372
-4.6556	Irmu?	-0.06218897
-4.6556	Itálie,	-0.04751767
-4.6556	Itálii	-0.06208337
-4.6556	Ivan,	-0.06218897
-4.6556	Ivanův	-0.06218897
-4.6556	JEHLA	-0.06210257
-4.6556	JUC	-0.04236432
-4.6556	JURAJI	-0.06218897
-3.509471	Jak	-0.2369611
-4.6556	Jakmile	-0.06112225
-4.354569	Jako	-0.06064088
-4.354569	Jakpak	-0.05859395
-4.6556	Jakpak,	-0.06065052
-4.6556	Jaksi	-0.06208337
-4.6556	Jaké	-0.06217937
-4.053539	Jakživ	-0.13731
-4.354569	Jakživi	-0.05911626
-4.6556	Jan	-0.06218897
-4.6556	Jana	-0.06218897
-4.6556	Jandera,	-0.06217937
-4.6556	Janské	-0.05819698
-4.354569	Janské,	-0.0609105
-4.6556	Jasiny	-0.04751767
-4.6556	Jasině	-0.04236432
-4.6556	Jdi,	-0.06218897
-4.6556	Jděte	-0.05977308
-3.810501	Je	-0.2888319
-4.354569	Je,	-0.06056381
-4.354569	Jeden	-0.06195854
-4.6556	Jedenáctá	-0.06216977
-4.354569	Jedna	-0.06214096
-4.354569	Jednoho	-0.06203536
-3.576418	Jednou	-0.0780647
-4.354569	Jednou,	-0.05157906
-4.354569	Jejej,	-0.05144133
-4.6556	Jelikož	-0.05219827
-3.752509	Jen	-0.1325608
-3.956629	Jenom	-0.122538
-3.810501	Jenže	-0.1499055
-4.354569	Jestli	-0.05218844
-4.6556	Jezusmankote!	-0.06189132
-3.810501	Ještě	-0.1034236
-4.354569	Ježíšikriste,	-0.06192973
-3.655599	Ježíšmarjá,	-0.06083349
-4.6556	Jinak	-0.06137234
-4.6556	Jindy	-0.05219827
-4.354569	Jináč	-0.05993713
-4.6556	Jistě	-0.05975378
-4.053539	Jo,	-0.04679232
-4.6556	Josefa	-0.06218897
-4.354569	Jsem	-0.06217936
-3.541656	Juraj	-0.7861969
-4.6556	Juraj,	-0.05975378
-4.053539	Juraje	-0.2601471
-4.6556	Jurajem	-0.06218897
-4.6556	Juraji!	-0.05908726
-4.354569	Juraji,	-0.0616319
-4.6556	Justitze	-0.06218897
-2.388428	Já	-0.454252
-4.6556	Já,	-0.06218897
-4.6556	Jílek,	-0.06218897
-4.354569	K	-0.06214096
-4.6556	KAKTUS	-0.06217937
-4.6556	KALINY	-0.06218897
-4.6556	KASAŘI	-0.06066015
-4.6556	KRIMINÁLNÍKA	-0.06202576
-4.6556	KTERÝ	-0.06218897
-4.178478	Kadaník	-0.0600529
-4.6556	Kadaníka?	-0.05908726
-4.6556	Kadaníkovi	-0.04751767
-4.6556	Kadaníkovou,	-0.05918393
-4.6556	Kadaníková	-0.06218897
-4.6556	Kadaníkové,	-0.06029397
-4.6556	Kadaníkové;	-0.06014934
-4.6556	Kalina	-0.06218897
-3.208441	Kalous	-0.358012
-4.178478	Kalous,	-0.05124453
-4.6556	Kalousi,	-0.06217937
-4.6556	Kalousovi	-0.06131464
-3.509471	Kalousová	-0.2741916
-4.178478	Kalousová,	-0.06186251
-4.6556	Kalousové	-0.05219827
-4.6556	Kalousovům;	-0.06142042
-4.6556	Kalousů	-0.06112225
-4.354569	Kamaráde,	-0.2501359
-4.6556	Kamenice	-0.05819698
-4.6556	Kamenici	-0.05908726
-4.178478	Karas	-0.02695389
-4.6556	Karas,	-0.06218897
-4.6556	Karas,”	-0.06065052
-4.6556	Karel	-0.06218897
-4.6556	Karláku,	-0.06215057
-4.6556	Karpatech;	-0.06211217
-4.6556	Kavka,	-0.06216977
-4.6556	Každej	-0.06217937
-4.6556	Každá	-0.06218897
-4.053539	Každý	-0.05773176
-4.6556	Kde	-0.0573728
-4.6556	Kdepak	-0.06065052
-3.810501	Kdepak,	-0.05917426
-4.178478	Kdo	-0.06049637
-4.6556	Kdosi	-0.06200656
-3.877448	Kdyby	-0.09285083
-4.178478	Kdybych	-0.058623
-4.6556	Kdybychom	-0.06192013
-4.354569	Kdybyste	-0.06198735
-2.939596	Když	-0.3180026
-4.354569	Keith	-0.03731173
-4.6556	Keithovi	-0.05908726
-4.6556	Kellera,	-0.06218897
-4.6556	Kew	-0.06218897
-4.6556	Klimko	-0.06218897
-4.6556	Kluk,	-0.05660541
-4.6556	Kobylisích	-0.04236432
-4.6556	Kohut,	-0.06216977
-4.6556	Kolikrát	-0.05937718
-4.6556	Kolikátého	-0.0573728
-4.6556	Komisař	-0.05219827
-3.877448	Konečně	-0.1850338
-4.6556	Kongo	-0.05908726
-4.6556	Kopytenka	-0.06060235
-4.6556	Kopytenko	-0.06060235
-4.6556	Kopytenko,	-0.06139158
-4.6556	Korea!	-0.06218897
-4.6556	Kostariky,	-0.06143965
-4.6556	Kostelecký,	-0.06216977
-4.6556	Kostelecký;”	-0.06189132
-4.6556	Kostelník	-0.06217937
-4.178478	Koukej,	-0.06187211
-4.6556	Koukejte,	-0.06216017
-4.053539	Koukněte	-0.6425576
-4.6556	Koupil	-0.0557295
-4.6556	Kovalenka,	-0.06218897
-4.6556	Kovalenko	-0.06060235
-4.6556	Kovalenko,	-0.06029397
-4.6556	Košíř	-0.04751767
-4.6556	Krakovem,	-0.06218897
-4.6556	Krasoslava	-0.06218897
-4.178478	Kratochvíl	-0.03977464
-4.6556	Kratochvíl,	-0.06218897
-4.6556	Kratochvíl;	-0.06216977
-4.6556	Kristapána,	-0.06211217
-4.6556	Kristeježíši,	-0.06216017
-4.354569	Kristepane,	-0.06067941
-4.6556	Kritického	-0.06217937
-4.6556	Krkonoš	-0.06218897
-4.6556	Krok	-0.06057345
-4.354569	Krom	-0.2587723
-4.178478	Kroupa	-0.05058453
-4.053539	Krucemburské	-0.06195855
-4.354569	Krucinál,	-0.05830351
-4.6556	Král,	-0.06218897
-4.6556	Kuba,	-0.06218897
-4.6556	Kubát	-0.04236432
-4.6556	Kubát,	-0.06217937
-4.354569	Kukla	-0.04228393
-4.6556	Křemencové	-0.06218897
-4.6556	LYRICKÉM	-0.06218897
-4.354569	Lacina,	-0.06213136
-4.6556	Lacina?	-0.06051564
-4.6556	Lacinou;	-0.05632336
-4.6556	Laitii	-0.04751767
-4.6556	Landa	-0.06177604
-4.6556	Landovou	-0.06218897
-4.354569	Landovou,	-0.06013005
-3.701357	Landová	-0.06226575
-4.053539	Landová,	-0.05496895
-4.6556	Landové,	-0.04751767
-4.6556	Landy,	-0.05975378
-4.354569	Lebeda	-0.06211216
-4.354569	Lebeda,	-0.06206416
-4.6556	Lebedovi	-0.06025541
-4.6556	Lebedu,	-0.04751767
-4.6556	Lehoty	-0.06077572
-4.6556	Lehoty,	-0.06218897
-4.6556	Lelek,	-0.06216977
-4.6556	Lembergra	-0.06208337
-4.6556	Lembergra;	-0.04751767
-4.6556	Leone!	-0.06218897
-4.6556	Leopold,	-0.06218897
-4.6556	Leopoldii,	-0.06216977
-4.6556	Lepota,	-0.05213934
-4.178478	Lepoty	-0.1638805
-4.6556	Libérie,	-0.06218897
-4.178478	Lidi,	-0.1729675
-4.6556	Liverpoolu	-0.0573728
-4.354569	Liverpoolu,	-0.06203536
-4.354569	Liverpoolu;	-0.05169707
-4.6556	Lojzičko,	-0.06204497
-4.354569	Lojzo,	-0.06064088
-4.6556	Lojzu	-0.06218897
-3.42515	Lojzík	-0.08980623
-3.877448	Lojzík,	-0.02690183
-4.354569	Lojzíka	-0.06191052
-4.354569	Lojzíka,	-0.0587778
-4.6556	Lojzíkem	-0.04751767
-4.6556	Lojzíkova	-0.06218897
-4.354569	Lojzíkovi	-0.06213136
-4.6556	Lojzíku,	-0.06025541
-4.6556	Lombardie,	-0.06218897
-4.6556	Lombardu	-0.06060235
-4.6556	Londýna,	-0.04751767
-4.6556	Lory	-0.0573728
-4.6556	Louis	-0.06218897
-4.6556	Lucifer;	-0.06142042
-3.877448	Lujza	-0.05540789
-4.6556	Lujzce	-0.06218897
-4.354569	Lujze,	-0.05507628
-4.178478	Lujzička	-0.06195855
-4.6556	Lujzou!	-0.05908726
-4.6556	Lujzou?	-0.06065052
-4.178478	Lujzu	-0.06212178
-4.178478	Lujzy	-0.04749782
-4.354569	Lída	-0.2577504
-4.178478	Lída,	-0.1836192
-4.178478	Lído,	-0.06044819
-4.6556	Lído?	-0.06198736
-4.6556	Lídu	-0.05975378
-4.6556	Lídu,	-0.06218897
-4.6556	Lídě!	-0.06218897
-4.6556	Líznera,	-0.06177604
-4.6556	Löbla	-0.06217937
-4.6556	MURDER	-0.04751767
-4.6556	MUŽ,	-0.06218897
-4.6556	Mackenzie	-0.05819698
-4.6556	Madagaskar!	-0.06215057
-4.354569	Madam,	-0.2599359
-4.6556	Makedonec	-0.06211217
-4.6556	Malý,	-0.06217937
-4.6556	Mamillaria	-0.06218897
-4.354569	Maminko,	-0.05896157
-4.6556	Manasses	-0.05819698
-4.6556	Manasses,	-0.06217937
-4.053539	Mandel	-0.03141736
-4.6556	Mandel,	-0.06166074
-4.6556	Mandela;	-0.06211217
-4.6556	Mandelův	-0.06216977
-4.178478	Marca	-0.0472396
-3.614207	Marco	-0.07739537
-4.354569	Marco,	-0.04717998
-4.6556	Marcova	-0.06217937
-4.6556	Marcovi	-0.04751767
-4.6556	Marcovi:	-0.06196815
-4.178478	Marcovy	-0.1638202
-4.6556	Maria,	-0.05859396
-4.6556	Marie	-0.06218897
-4.6556	Martin	-0.06218897
-3.877448	Maryna	-0.04991364
-3.752509	Maryno	-0.4463578
-3.877448	Maryno,	-0.3335081
-3.877448	Marynu	-0.181251
-4.6556	Marynu,	-0.06217937
-4.178478	Maryny	-0.183696
-4.6556	Maryně	-0.04751767
-4.354569	Marš	-0.2543199
-4.6556	Matejovou	-0.04236432
-4.354569	Matejovu	-0.04235426
-4.354569	Matejovu,	-0.05863266
-4.6556	Matejová	-0.05975378
-3.810501	Matejová,	-0.1610382
-4.354569	Matejové	-0.2403609
-4.6556	Matejové,	-0.06217937
-4.354569	Matko,	-0.05733398
-4.6556	Matěje,	-0.06218897
-4.6556	Maupassanta	-0.04236432
-4.6556	Mazanian	-0.04751767
-4.6556	Mařenko,	-0.06218897
-4.6556	Mašková,	-0.05937718
-3.877448	Mejzlík	-0.1695693
-3.614207	Mejzlík,	-0.06776753
-4.6556	Mejzlíku,	-0.05897124
-4.6556	Mejzlíku;	-0.06178565
-4.6556	Melocactus	-0.06218897
-4.6556	Menšík,	-0.06217937
-4.354569	Menšíku,	-0.060506
-4.6556	Menšíků	-0.06218897
-4.354569	Meranu	-0.04500855
-4.6556	Mexika,	-0.06117035
-4.6556	Meyer,	-0.06068904
-4.178478	Mihálička	-0.1737048
-4.178478	Mihály	-0.03713892
-4.354569	Mihályovou	-0.03621261
-4.6556	Mihálíčku	-0.06218897
-4.6556	Milostivá,	-0.06204497
-4.6556	Milovicích	-0.0573728
-4.6556	Milá	-0.06206417
-4.6556	Mimoto	-0.06125693
-4.6556	Mimoto,	-0.06196815
-4.6556	Ministerstvo	-0.06213137
-4.6556	Mladý	-0.06139158
-4.354569	Mládenci,	-0.06210256
-4.6556	Mládenče	-0.06218897
-4.178478	Mne	-0.171874
-4.6556	Mnohokrát	-0.06216977
-3.810501	Mně	-0.05703299
-4.6556	Mně,	-0.06218897
-4.354569	Moc	-0.06213136
-4.6556	Modlete	-0.06193934
-4.6556	Moh	-0.06148772
-4.6556	Moment,	-0.06151656
-4.6556	Mordiáno,	-0.06014934
-4.354569	Možná,	-0.05503725
-4.6556	Mrtvého;	-0.06218897
-4.6556	Mrtvý	-0.0573728
-3.701357	Musil	-0.08902401
-4.6556	Musil,	-0.06218897
-4.6556	Musile,	-0.05213934
-4.6556	Musilem	-0.04236432
-4.6556	Musilovi	-0.04236432
-4.6556	Musilův	-0.06216017
-4.6556	Musí	-0.05213934
-4.6556	Musíme	-0.06167035
-4.6556	Musíte	-0.06064088
-4.6556	Muži,	-0.06218897
-3.752509	My	-0.1365583
-4.6556	Myhala	-0.06218897
-4.6556	Myslel	-0.06188171
-4.6556	Myslel,	-0.05660541
-4.6556	Myslím,	-0.05660541
-4.6556	Myslíte,	-0.05660541
-4.354569	Má	-0.06191052
-4.6556	Málek	-0.04751767
-4.6556	Máli	-0.06218897
-4.6556	Mám	-0.06202576
-4.6556	Mám!	-0.05908726
-4.6556	Mám-li	-0.05213934
-4.6556	Máme	-0.06038073
-4.6556	Máničce	-0.06218897
-4.6556	Mánička,	-0.06209297
-4.6556	Máry,	-0.06204497
-4.354569	Máš	-0.06215056
-4.6556	Müller,	-0.06218897
-4.178478	Měl	-0.0529931
-4.6556	Měli	-0.06194894
-4.6556	Mělo	-0.05213934
-4.6556	Měly	-0.06217937
-4.6556	Městě	-0.04751767
-4.053539	Můj	-0.06212178
-4.354569	Můžete	-0.05060423
-4.6556	N	-0.06174722
-4.6556	NEMOHL	-0.06218897
-4.6556	NOZE	-0.06202576
-3.354569	Na	-0.1402256
-4.6556	Nadává	-0.06216017
-4.6556	Nahoře	-0.06218897
-4.178478	Najednou	-0.04982478
-4.6556	Najednou,	-0.05213934
-4.354569	Nakonec	-0.04557735
-4.6556	Napište,	-0.05660541
-4.6556	Naprosto	-0.06217937
-4.354569	Například	-0.06138195
-4.6556	Nate,	-0.06217937
-4.354569	Nato	-0.05730486
-4.354569	Nač	-0.06064088
-3.956629	Načež	-0.1180128
-4.6556	Naše	-0.06218897
-4.6556	Našinec	-0.06167996
-3.877448	Ne,	-0.05407995
-4.6556	Ne?	-0.06212177
-4.6556	Neapole	-0.04236432
-3.752509	Nebo	-0.04223369
-4.6556	Nebudu	-0.05219827
-4.6556	Nebyl	-0.06205457
-4.6556	Nechal	-0.06044819
-4.6556	Nechte	-0.06176643
-4.6556	Nechtěl	-0.0557295
-4.6556	Nejdýl	-0.05213934
-3.752509	Nejdřív	-0.0868184
-4.6556	Nejkratší	-0.06210257
-4.6556	Nejlepší	-0.06202576
-4.6556	Nejsem	-0.06100677
-4.6556	Nejspíš	-0.06218897
-4.6556	Nejvíc	-0.06218897
-4.6556	Nejúčinnější	-0.05213934
-4.6556	Nekřičel	-0.06205457
-4.6556	Nelejte,	-0.05897124
-4.6556	Nemluvňata,	-0.05213934
-4.6556	Nemoc	-0.06218897
-4.6556	Nemocná,	-0.06218897
-4.354569	Neměl	-0.05141182
-4.6556	Neměli	-0.06216017
-4.6556	Není	-0.06218897
-4.6556	Nepál!	-0.06218897
-4.6556	Nerozsvěcet,	-0.06065052
-4.6556	Nesmysl,	-0.06216977
-4.6556	Newton	-0.06060235
-4.6556	Nezaběhlo,	-0.06218897
-4.6556	Neříkej	-0.06171839
-4.6556	Nešťastné	-0.06216977
-4.6556	Nic	-0.06218897
-4.354569	Nic,	-0.06210256
-4.6556	Nicaragua,	-0.06218897
-4.6556	Nikam	-0.06217937
-4.6556	Nikdo	-0.06127617
-4.6556	Nikdy,	-0.06216977
-4.6556	Nizozemsko,	-0.06191052
-4.6556	Nizze;	-0.05897124
-3.541656	No	-0.2455904
-3.752509	No,	-0.12557
-4.6556	Nono,	-0.06216977
-4.6556	Norska	-0.04236432
-4.6556	Nos	-0.05219827
-4.6556	Nová	-0.06218897
-4.6556	Novém	-0.06216977
-4.6556	Nový	-0.06218897
-4.178478	Nu	-0.05887454
-4.178478	Nu,	-0.05848749
-4.6556	Nyčko	-0.06099714
-4.6556	Nám	-0.06217937
-4.6556	Náprsní	-0.06217937
-4.6556	Nás	-0.06112225
-4.6556	Náš	-0.06210257
-4.6556	Nýbrž	-0.0573728
-4.6556	Něco	-0.05219827
-4.6556	Nějak	-0.06218897
-4.6556	Nějakou	-0.06218897
-4.354569	Nějaký	-0.06178564
-4.178478	Někdy	-0.1671035
-4.6556	Několik	-0.06208337
-4.6556	Němci	-0.05892289
-3.877448	O	-0.06101639
-4.6556	OBYČEJNÁ	-0.06217937
-4.6556	Oba	-0.06216977
-4.6556	Obchod	-0.0573728
-4.6556	Oberhnder,	-0.05892289
-4.053539	Oberhuber	-0.04194216
-4.6556	Oberhuber,	-0.06218897
-4.6556	Oberhuberem	-0.05219827
-4.6556	Oberhuberovým	-0.06218897
-4.6556	Obžalovaná	-0.06217937
-4.6556	Obžalovaná,	-0.06197775
-4.6556	Ochraně	-0.06218897
-3.752509	Od	-0.4381861
-4.6556	Odpoledne	-0.06218897
-4.6556	Odsouzena	-0.06077572
-4.6556	Okresní	-0.06208337
-4.6556	Olšanech	-0.06218897
-3.354569	On	-0.1325103
-3.701357	Ona	-0.07993225
-4.6556	Onehdy	-0.0557295
-4.178478	Oni	-0.04962722
-3.354569	Ono	-0.4890803
-4.6556	Onoho	-0.06217937
-4.6556	Orientě	-0.0600529
-4.354569	Ostatně	-0.05120514
-4.6556	Ostende	-0.04751767
-4.6556	Otce,	-0.04751767
-4.6556	Otci	-0.06127617
-4.354569	Otec	-0.2599263
-4.6556	Otevřel	-0.0557295
-4.6556	Otáhal	-0.06060235
-4.354569	Otče,	-0.06034216
-4.354569	PANA	-0.06217936
-4.6556	PODVODNÍKA	-0.06202576
-4.6556	POROTCE	-0.06218897
-4.6556	POSLEDNÍ	-0.06218897
-4.354569	POVÍDKA	-0.06213136
-4.6556	PTÁCI	-0.06218897
-4.6556	Pa-pane,	-0.06217937
-4.6556	Pacient	-0.06216977
-4.6556	Padesát	-0.06216017
-3.313177	Pak	-0.06797784
-4.6556	Palermu	-0.06008183
-4.6556	Palermu,	-0.04751767
-4.6556	Palermu,”	-0.06217937
-4.6556	Palermě	-0.06060235
-4.6556	Pamatuj	-0.06187211
-3.479508	Pan	-0.2126022
-2.923206	Pane	-0.453556
-3.354569	Pane,	-0.08333997
-4.6556	Panebože,	-0.0607372
-4.6556	Panenko	-0.06218897
-4.6556	Panečku,	-0.06182408
-3.400327	Paní	-0.1817505
-4.6556	Papoušek	-0.05219827
-4.6556	Pardubic	-0.05819698
-4.178478	Pardubicích	-0.1577388
-4.6556	Paulus	-0.04236432
-4.6556	Paulus;	-0.06218897
-4.6556	Paříže!	-0.06097789
-3.810501	Pepek	-0.03930948
-4.354569	Pepka	-0.05417772
-4.6556	Pepkem	-0.05213934
-4.354569	Pepku,	-0.05896157
-4.6556	Pepku;	-0.06216977
-4.6556	Per	-0.06218897
-4.6556	Persii	-0.06196815
-4.6556	Perunovy,	-0.06212177
-4.6556	Peterka,	-0.05918393
-4.6556	Philippa,	-0.06218897
-4.178478	Pilocereus	-0.183696
-3.451479	Pitr	-0.04720004
-4.178478	Pitr,	-0.05057467
-4.6556	Pitr;	-0.05892289
-4.6556	Pitra	-0.06218897
-4.6556	Pitra;	-0.06204497
-4.6556	Pitrovi,	-0.06213137
-4.6556	Pivoda,	-0.06218897
-4.178478	Pištora	-0.3570128
-3.956629	Pištora,	-0.05817761
-4.6556	Pištoro,	-0.06183368
-4.6556	Pištorou,	-0.06216017
-3.400327	Plichta	-0.07308561
-3.877448	Plichta,	-0.09736068
-4.6556	Plichta:	-0.06167996
-4.178478	Plichto,	-0.1802363
-4.354569	Plichtu	-0.04066311
-3.810501	Po	-0.1085502
-4.6556	Podaří	-0.05219827
-4.6556	Podkarpatsku	-0.05819698
-4.053539	Podle	-0.06050601
-4.6556	Podvody,	-0.05213934
-4.6556	Pojedu	-0.06218897
-4.6556	Pojď,	-0.06217937
-4.6556	Polgár,	-0.06218897
-4.053539	Polgáre,	-0.1480956
-4.6556	Policie	-0.06217937
-4.6556	Politika,	-0.05213934
-4.6556	Političce	-0.04236432
-4.6556	Polizei!	-0.06041928
-4.354569	Pomalu	-0.0502788
-4.354569	Posel	-0.2601472
-4.354569	Posla	-0.2601472
-4.6556	Posla;	-0.06218897
-4.354569	Poslední	-0.06196814
-4.6556	Poslouchej,	-0.06216977
-3.164238	Poslouchejte,	-0.1695679
-4.6556	Poslu	-0.06215057
-4.354569	Poslušně	-0.2601759
-4.354569	Poslyš,	-0.06214096
-3.956629	Poslyšte,	-0.1157126
-3.15045	Potom	-0.115333
-4.6556	Potřásl	-0.0557295
-4.6556	Povídky	-0.06218897
-4.6556	Pozdrav	-0.06216977
-4.6556	Později	-0.05219827
-4.178478	Počkej,	-0.05710098
-3.509471	Počkejte,	-0.2108302
-4.6556	Pořádný	-0.06208337
-4.6556	Pošlete	-0.06064088
-4.6556	Prahu	-0.05977308
-4.178478	Prahy	-0.1638503
-3.877448	Praze	-0.1716948
-4.053539	Praze,	-0.03795162
-3.655599	Pro	-0.1939399
-3.877448	Proboha,	-0.0561774
-4.6556	Probíral	-0.0557295
-4.6556	Procházka,	-0.06218897
-4.6556	Proježíšekrista,	-0.06125693
-4.354569	Prokrindapána,	-0.05212951
-4.178478	Prokristapána,	-0.06180487
-4.6556	Prokristáčka;	-0.06065052
-4.6556	Prostějova,	-0.06211217
-3.479508	Prosím	-0.7592928
-4.354569	Prosím,	-0.06103563
-4.6556	Protasov	-0.04236432
-4.6556	Protiva,	-0.06209297
-3.614207	Proto	-0.1014296
-4.053539	Protože	-0.05702328
-4.6556	Protože,	-0.06217937
-3.877448	Proč	-0.1785009
-4.6556	Proč,	-0.06217937
-4.6556	Pročpak	-0.06211217
-4.6556	První	-0.06214097
-4.6556	První,	-0.06206417
-4.6556	Pryč	-0.05975378
-4.6556	Práskl	-0.0557295
-4.6556	Prý	-0.06097789
-4.6556	Pusťte	-0.06193934
-4.6556	Páni	-0.06218897
-4.354569	Páni,	-0.05883584
-4.6556	Pánové,	-0.05897124
-4.6556	Pánu	-0.06218897
-4.6556	Páně	-0.04236432
-4.6556	Páter	-0.06217937
-4.6556	PŘÍBĚH	-0.06214097
-4.6556	PŘÍBĚHY	-0.06218897
-4.6556	PŘÍPAD	-0.06214097
-4.6556	Přece	-0.05213934
-3.956629	Před	-0.1308929
-4.053539	Předně	-0.04696134
-4.354569	Předseda	-0.2601663
-4.053539	Při	-0.06211217
-4.6556	Přihlas	-0.06038073
-4.6556	Přijďte	-0.05937718
-4.053539	Přitom	-0.04136857
-4.6556	Přišel	-0.0607372
-4.6556	Případ	-0.06025541
-4.6556	Přítelíčku,	-0.05213934
-4.6556	Pšt,	-0.06217937
-4.6556	Půjčte	-0.06202576
-4.6556	Půl	-0.06214097
-4.354569	Racek	-0.03910707
-4.354569	Racek;	-0.06037108
-4.6556	Radlicích	-0.06218897
-4.6556	Rakousko,	-0.05892289
-4.6556	Rakouská	-0.05219827
-4.354569	Readingu	-0.2403609
-4.6556	Reymonta	-0.04751767
-4.6556	Roseggera,	-0.06218897
-4.6556	Roubalová	-0.06008183
-4.6556	Rozsvěťte,	-0.05897124
-4.6556	Rozuměl	-0.06218897
-4.6556	Rozuměl,	-0.06218897
-4.6556	Rožmberku	-0.06199696
-4.053539	Rus	-0.05617741
-4.053539	Rus,	-0.05484206
-3.810501	Rusa	-0.07492989
-4.6556	Rusové	-0.06204497
-4.6556	Rusvák	-0.05819698
-4.6556	Rusy	-0.04236432
-4.354569	Rusňák	-0.06072756
-4.6556	Rusňáček	-0.04236432
-4.6556	Rusňáček,	-0.06159346
-4.6556	Rád	-0.06148772
-4.178478	Ráno	-0.1743918
-4.6556	Ráček	-0.0607372
-4.6556	Ráček,	-0.06218897
-4.354569	Ráčka	-0.05976342
-4.354569	Růžence	-0.06208336
-3.956629	Růženka	-0.05975379
-4.053539	Růženka,	-0.06060236
-4.6556	Růženko,	-0.06217937
-4.6556	Růženkou	-0.06218897
-4.178478	Růženku	-0.0593482
-4.354569	Růženku!	-0.06063124
-3.877448	S	-0.06202576
-4.6556	SBÍRKA	-0.06218897
-4.6556	SMRT	-0.06218897
-4.6556	SOUD	-0.06217937
-4.6556	SPÁT	-0.06215057
-4.6556	STARÉHO	-0.06218897
-4.6556	Safra,	-0.06065052
-4.6556	Sakra!	-0.04751767
-4.6556	Samozřejmě	-0.06148772
-4.6556	San	-0.06218897
-4.354569	Scholle	-0.2455142
-4.6556	Sdružení	-0.06218897
-4.6556	Sedmihradsku;	-0.0607372
-4.6556	Sedněte	-0.06187211
-4.354569	Seděl	-0.05424616
-4.354569	Sepp	-0.05214915
-4.6556	Seppe,	-0.06216977
-4.6556	Seppem	-0.06112225
-4.6556	Settlements	-0.05908726
-4.6556	Severýnovou	-0.04236432
-4.6556	Severýnovou,	-0.06213137
-3.877448	Severýnová	-0.02691224
-3.956629	Severýnová,	-0.1017825
-4.6556	Severýnová:	-0.06093939
-4.053539	Severýnové	-0.03400601
-4.6556	Severýnové;	-0.06206417
-4.6556	Siam	-0.04751767
-4.6556	Siam,	-0.06218897
-4.6556	Sierra	-0.06218897
-4.178478	Sir	-0.3768183
-4.6556	Skočte	-0.06157424
-4.354569	Skrz	-0.0602554
-3.752509	Skřivánek	-0.1585327
-4.354569	Skřivánek,	-0.06216016
-4.6556	Slatině;	-0.0618625
-4.6556	Slezské	-0.04751767
-4.6556	Slečno,	-0.05213934
-4.6556	Smyrny	-0.06057345
-4.6556	Smím	-0.06216977
-3.810501	Snad	-0.06736945
-4.6556	Snubní	-0.06218897
-4.354569	Sofort	-0.06216016
-4.6556	Soud	-0.05219827
-4.6556	Soudce,	-0.06128579
-3.479508	Spitz	-0.04672826
-3.752509	Spitz,	-0.09142593
-4.6556	Spitze	-0.06217937
-4.6556	Spitze;	-0.04751767
-4.6556	Spitzem	-0.06218897
-4.6556	Spitzovi,	-0.06218897
-4.6556	Spolehni	-0.05219827
-4.6556	Spolek	-0.06218897
-4.354569	Spánek	-0.2553694
-4.6556	Spánek,	-0.06196815
-4.178478	Starosta	-0.06163191
-4.6556	Starém	-0.06218897
-4.6556	Starý	-0.06093939
-4.6556	Stačí	-0.06218897
-4.6556	Sto	-0.06212177
-4.6556	Storma,	-0.06218897
-4.6556	Stočes	-0.04751767
-4.6556	Straits	-0.06218897
-3.877448	Strejčku,	-0.06016863
-4.6556	Strhl	-0.0557295
-4.6556	Strážník	-0.06217937
-3.877448	Strýc	-0.7090287
-4.6556	Stálo	-0.05213934
-4.354569	Státní	-0.2601663
-4.6556	Suicidium	-0.04236432
-4.6556	Svatého	-0.06218897
-4.6556	Sverige	-0.06216977
-4.6556	SŇATKOVĚHO	-0.06218897
-4.6556	TELEGRAM	-0.06217937
-3.752509	Ta	-0.1024465
-3.752509	Tady	-0.05242411
-4.6556	Tadyhle	-0.06193934
-2.538328	Tak	-0.2022443
-3.576418	Tak,	-0.1323002
-4.6556	Takhle	-0.0557295
-4.178478	Takovou	-0.06187211
-4.6556	Taková	-0.06218897
-4.354569	Takové	-0.06076608
-4.6556	Takového	-0.06215057
-3.956629	Takový	-0.120881
-4.6556	Takových	-0.06218897
-4.6556	Taky	-0.06199696
-4.053539	Tam	-0.2716072
-4.6556	Tatka,	-0.06218897
-4.6556	Tatky?	-0.06212177
-4.6556	Tauglich!	-0.05908726
-4.178478	Taussig	-0.0393803
-4.053539	Taussig,	-0.0422538
-3.224236	Teda	-0.2179134
-3.208441	Tedy	-0.1799035
-3.810501	Tehdy	-0.1512225
-4.6556	Tehdá	-0.06025541
-4.6556	Telegram	-0.0573728
-3.164238	Ten	-0.07835438
-4.6556	Tenhle	-0.06217937
-4.354569	Teprve	-0.06038072
-4.6556	Terentík?	-0.06097789
-4.6556	Terezie,	-0.06218897
-3.701357	Teď	-0.1321873
-4.6556	Ti	-0.06190092
-4.354569	Tihle	-0.06214096
-4.6556	Tisíce	-0.04751767
-2.412561	To	-0.5407197
-4.354569	To,	-0.06023612
-4.178478	Tohle	-0.05878748
-4.6556	Toho,	-0.06029397
-4.354569	Tomu	-0.0521688
-4.053539	Tonda	-0.04104622
-4.6556	Tonda,	-0.06217937
-4.6556	Tondo	-0.04236432
-4.6556	Tondu	-0.04751767
-3.810501	Totiž	-0.1300906
-4.6556	Totiž,	-0.06204497
-4.178478	Tož	-0.06066978
-4.6556	Trochu	-0.0557295
-4.6556	Trvá	-0.06153579
-3.655599	Tu	-0.1422224
-4.6556	Turci	-0.05819698
-4.053539	Turková	-0.05698442
-4.6556	Turková,	-0.06179526
-4.354569	Turkové	-0.04123763
-4.6556	Turnovsko	-0.06060235
-3.275388	Ty	-0.208593
-4.6556	Ty,	-0.06218897
-4.6556	Ty?	-0.06216977
-4.6556	Tyhle	-0.06206417
-4.6556	Tymich,	-0.06217937
-4.6556	Táborsko	-0.04751767
-4.6556	Táhni,	-0.05897124
-4.6556	Té	-0.06196815
-4.178478	Tím	-0.1836383
-4.6556	Tóth	-0.06218897
-4.6556	Tě	-0.06216977
-4.6556	Těbůh,	-0.06216017
-4.6556	Těch	-0.06210257
-4.6556	Těm	-0.06216977
-3.956629	Třeba	-0.03494724
-4.354569	Třetí	-0.06208336
-4.6556	Tři	-0.06208337
-4.354569	Třináctého	-0.2601663
-4.178478	U	-0.06167035
-4.6556	UKRADENA	-0.06217937
-4.6556	UKRADENÝ	-0.06218897
-4.6556	Uctivá	-0.06218897
-4.6556	Udal,	-0.05660541
-4.6556	Uf,	-0.06218897
-4.6556	Uher,	-0.06190092
-4.6556	Ukaž,	-0.06216977
-4.6556	Ukažte	-0.06064088
-4.178478	Ukažte,	-0.05963794
-4.6556	Ukázalo	-0.06193934
-4.6556	Uvnitř	-0.05213934
-4.6556	UŠNÍ	-0.06218897
-4.178478	Už	-0.05026895
-3.137085	V	-0.4451912
-4.354569	VRAŽDA	-0.06201616
-4.6556	Vasylův?	-0.06214097
-4.6556	Vaňka?	-0.06210257
-4.6556	Vašaty,	-0.06029397
-4.6556	Vdova	-0.06218897
-3.956629	Ve	-0.130768
-4.6556	Velebný	-0.06196815
-4.6556	Veliký	-0.06217937
-4.6556	Veličenstva,	-0.06214097
-4.6556	Velkomožný	-0.06196815
-4.6556	Velkoobchodník,	-0.06187211
-4.6556	Velké	-0.06214097
-4.6556	Vemte	-0.05937718
-4.6556	Vichy,	-0.05908726
-4.6556	Vidíte,	-0.06218897
-4.178478	Viděl	-0.05485182
-4.354569	Vincku,	-0.2600415
-4.6556	Vinohradech	-0.04236432
-3.877448	Vitásek	-0.3156841
-4.178478	Vitásek,	-0.0591646
-4.6556	Vitáska	-0.04236432
-4.6556	Vitáska,	-0.06216977
-4.6556	Vlado,	-0.06216017
-4.6556	Vlakem,	-0.06218897
-4.6556	Vloni	-0.0615454
-4.6556	Vo	-0.06218897
-4.6556	Vogt	-0.06060235
-4.6556	Vojtou,	-0.04751767
-4.6556	Volova	-0.06218897
-4.178478	Volovy	-0.1836863
-4.354569	Volové	-0.06216016
-4.6556	Vorobec?	-0.05908726
-4.354569	Voves	-0.03716941
-4.354569	Voves,	-0.06217936
-4.6556	Voves:	-0.06218897
-4.354569	Vrací	-0.2501948
-4.6556	Vrah	-0.06180486
-4.6556	Vražda,	-0.06206417
-4.6556	Vršovic,	-0.05892289
-4.6556	Vršovicích	-0.06214097
-4.354569	Vstaňte,	-0.05996607
-4.178478	Vtom	-0.1737146
-3.541656	Vy	-0.1930985
-4.6556	Vydíráním	-0.04236432
-4.6556	Vypište	-0.06216017
-4.6556	Vysočanech;	-0.06216017
-4.6556	Vyšetřující	-0.06216977
-4.6556	Vzadu	-0.05219827
-4.6556	Vzal	-0.0557295
-4.354569	Václav	-0.06205456
-4.6556	Václav?	-0.05908726
-4.6556	Václave,	-0.06216017
-4.6556	Václave;	-0.05213934
-4.6556	Václavem	-0.06218897
-4.6556	Vídni	-0.06218897
-4.6556	Vídně,	-0.04751767
-4.6556	Vídně;	-0.05918393
-4.178478	Víte	-0.3766935
-3.451479	Víte,	-0.1699004
-4.354569	Víš,	-0.0589519
-4.6556	Výborně!	-0.06217937
-4.6556	VĚCI	-0.06218897
-4.6556	Věděl	-0.06188171
-4.178478	Věra	-0.05966691
-4.6556	Věra!	-0.06213137
-4.6556	Věra,	-0.06201616
-4.6556	Věrou	-0.0618625
-4.354569	Věry,	-0.06063125
-4.354569	Věře	-0.06074682
-4.6556	Však	-0.06097789
-4.6556	Všechno	-0.06127617
-4.6556	Všechno,	-0.06029397
-4.6556	Všechny	-0.06188171
-4.6556	Všelijaké	-0.06161268
-4.6556	Všemohoucímu	-0.05908726
-4.6556	Všichni,	-0.06153579
-4.6556	Vždy	-0.0573728
-3.42515	Vždyť	-0.1927092
-4.178478	W	-0.1638403
-4.6556	Wand,	-0.04751767
-4.6556	Weilovi	-0.05977308
-4.178478	Westermann	-0.04724953
-4.6556	Westermannem	-0.04751767
-4.6556	Westermaruz	-0.0573728
-4.6556	Wild	-0.04236432
-4.6556	Wildovy	-0.06218897
-4.6556	Wislizen	-0.06060235
-4.6556	Wislizena	-0.06216017
-4.6556	Wislizenii,	-0.06216977
-4.6556	Wittia,	-0.06218897
-3.752509	Z	-0.2604255
-4.6556	Z-z-zastřelili	-0.06212177
-4.6556	ZLODĚJI	-0.06217937
-4.6556	ZMIZENÍ	-0.06217937
-4.6556	ZNÁMEK	-0.06202576
-4.6556	ZPOVEĎ	-0.06218897
-4.6556	ZTRACENÉ	-0.06218897
-3.479508	Za	-0.1043322
-4.354569	Zabil	-0.2598783
-4.6556	Zach,	-0.06216977
-4.6556	Zanelli,	-0.06216977
-4.6556	Zanelliovou	-0.04236432
-4.6556	Zanelliová	-0.06218897
-4.6556	Zanelliová,	-0.06029397
-4.6556	Zanelliů	-0.06065052
-4.6556	Zanelliů?	-0.06066015
-4.354569	Zaplaťpánbůh,	-0.05882616
-4.6556	Zas	-0.0557295
-4.6556	Zase	-0.05819698
-4.6556	Zasloužila	-0.06065052
-4.6556	Zatlačte	-0.06169918
-4.6556	Zato	-0.06217937
-4.354569	Zatracený	-0.06204496
-4.6556	Zatračená	-0.06218897
-4.354569	Zatrápená	-0.2600704
-4.6556	Zatrápení	-0.06215057
-3.810501	Zatím	-0.2143009
-4.6556	Zavraždil	-0.0557295
-4.6556	Zavražděný	-0.06139158
-4.6556	Zdeničky	-0.04236432
-4.178478	Ze	-0.1835904
-4.6556	Zesnulá	-0.06217937
-3.810501	Zkrátka	-0.05789658
-4.354569	Zkrátka,	-0.06011076
-4.6556	Zkuste	-0.05213934
-4.354569	Zničehonic	-0.2501948
-4.6556	Zrovna	-0.06194894
-4.6556	Zvedl	-0.06216977
-4.6556	Zvonek	-0.06218897
-4.6556	ZÁVRAŤ	-0.06218897
-4.6556	Záhadný	-0.06208337
-4.6556	Zéland,	-0.06218897
-4.6556	Zřítila	-0.05219827
-4.6556	Zůstal	-0.06065052
-1.478352	a	-0.03440675
-4.6556	a-tak	-0.05937718
-4.6556	abeced	-0.04236432
-4.6556	abnormálnímu,	-0.06029397
-2.626216	aby	-0.1514938
-4.6556	aby::	-0.04236432
-3.12412	abych	-0.2265038
-3.877448	abychom	-0.1621691
-4.053539	abys	-0.06050601
-3.451479	abyste	-0.4496513
-4.6556	adalin,	-0.06218897
-4.354569	adresu	-0.04748788
-3.810501	advokát	-0.04769634
-4.354569	advokáta	-0.04750773
-4.6556	advokátských	-0.06218897
-4.6556	advokátů	-0.06208337
-4.6556	advokátův	-0.06218897
-4.6556	aeroplánem	-0.05977308
-4.354569	aféra	-0.2403609
-4.354569	aféry	-0.02698511
-4.178478	agent	-0.05909693
-4.6556	agenti	-0.05819698
-4.6556	agentů	-0.06218897
-4.6556	aha,	-0.06065052
-4.6556	aktovce	-0.06165113
-4.354569	aktovkou	-0.05676093
-4.6556	akurátnost	-0.04751767
-4.6556	akvaristé,	-0.06166074
-4.354569	akvaristů,	-0.06128578
-4.6556	alarmujte	-0.06213137
-2.160055	ale	-0.1589257
-4.6556	alejemi	-0.04751767
-4.6556	algokratin,	-0.06218897
-4.6556	alibi	-0.04236432
-4.6556	alibi,	-0.05892289
-4.6556	alimenty	-0.06211217
-4.6556	amatér;	-0.06078535
-4.6556	amen	-0.04751767
-4.6556	amen;	-0.05897124
-4.6556	analýze	-0.04236432
-4.6556	anatol	-0.05975378
-4.6556	anatolák	-0.06174722
-4.6556	andílek,	-0.06218897
-4.6556	anglicky,	-0.06025541
-4.6556	anglicky;	-0.05918393
-4.6556	anglické	-0.06214097
-4.354569	anglický	-0.06203536
-4.6556	angličtiny	-0.04751767
-2.673328	ani	-0.07921429
-4.6556	anilinem	-0.06218897
-4.6556	anilinem,	-0.06217937
-4.6556	anilinu	-0.04236432
-4.6556	aniž	-0.06065052
-4.6556	ano	-0.04236432
-4.6556	ano,	-0.06158385
-4.354569	ano?	-0.0603518
-4.178478	anonymní	-0.183696
-4.6556	anonymních	-0.06216017
-4.6556	antikvity	-0.06100677
-4.6556	arabskou	-0.06218897
-4.6556	arch	-0.06216017
-4.6556	archeolog,	-0.06171839
-4.6556	arest	-0.0573728
-4.6556	argumentů,	-0.06213137
-4.6556	armáda	-0.0573728
-4.354569	arménský	-0.06058308
-4.6556	artilerie	-0.04236432
-3.240626	asi	-0.06386781
-4.6556	asistenti	-0.04751767
-3.193201	aspoň	-0.05560593
-4.354569	astmaticky	-0.2455142
-4.6556	astronomické	-0.06217937
-4.6556	atentáty	-0.06213137
-4.6556	atrofie	-0.06218897
-4.354569	auditor	-0.06212176
-4.6556	auditor,	-0.06196815
-4.6556	auditorem	-0.06157424
-4.6556	auditorium	-0.04751767
-4.6556	aura	-0.06218897
-4.354569	aurea	-0.2601759
-4.354569	auta	-0.2455142
-4.6556	autem	-0.06157424
-4.6556	autor	-0.05219827
-4.6556	autorské	-0.06218897
-4.6556	autě	-0.06217937
-3.451479	ať	-0.09551267
-4.6556	aťs	-0.06144927
-3.002387	až	-0.1625628
-3.810501	ba	-0.2306516
-4.6556	baba,	-0.05213934
-4.6556	babička	-0.05219827
-4.6556	babička,	-0.06218897
-4.6556	babičku	-0.04751767
-4.6556	babku	-0.04236432
-4.178478	babo	-0.3768183
-4.6556	babu	-0.06218897
-4.6556	baby	-0.06215057
-4.6556	baby,	-0.06203537
-4.6556	bachratý	-0.04751767
-4.6556	bafů	-0.04751767
-4.6556	baganči	-0.06060235
-4.6556	bajonetem	-0.06216017
-4.6556	bajonety,	-0.06215057
-4.6556	bajonety;	-0.05897124
-4.6556	bakaná,	-0.06078535
-4.6556	bakaná;	-0.06218897
-4.6556	baladické	-0.06218897
-4.6556	baladu,	-0.06166074
-4.6556	balík,	-0.06204497
-4.6556	bandito	-0.06218897
-4.6556	bank,	-0.05918393
-4.6556	bankovky,	-0.06193934
-4.6556	banky,	-0.06209297
-4.6556	baret	-0.04751767
-4.6556	barevná	-0.06218897
-4.053539	baron	-0.2545538
-4.354569	barona	-0.05818728
-4.6556	barvené	-0.06153579
-4.6556	barvený	-0.06203537
-4.6556	barvili	-0.06218897
-4.6556	barvivy;	-0.06127617
-4.6556	barvu	-0.05632336
-4.6556	barvách,	-0.05918393
-4.6556	barvě	-0.061728
-4.6556	barzoj	-0.06216017
-4.354569	barák	-0.06217936
-4.354569	baráku	-0.04231407
-4.354569	bas	-0.05190351
-4.354569	basa	-0.06217936
-4.6556	basa,	-0.06218897
-4.6556	basově	-0.04751767
-4.6556	basta	-0.04236432
-4.6556	basta!	-0.06209297
-4.6556	basta,	-0.06202576
-4.6556	bavil,	-0.04751767
-4.6556	bavlněný	-0.06218897
-4.6556	bačkora	-0.04751767
-4.6556	beduín,	-0.06218897
-4.6556	bejval	-0.06131464
-4.6556	bejvá	-0.06218897
-4.6556	bekem,	-0.05975378
-4.6556	bellevue	-0.06218897
-4.6556	benyky,	-0.06218897
-4.6556	benzín;	-0.05918393
-4.354569	ber	-0.04213317
-4.6556	berany	-0.05819698
-4.6556	bere?	-0.06218897
-4.6556	bergamo!	-0.06209297
-4.6556	berlínského	-0.06216017
-4.6556	berlínský	-0.06218897
-4.6556	berní	-0.06218897
-4.6556	berou	-0.06218897
-4.6556	beránek;	-0.05918393
-4.6556	bestie!	-0.06216977
-4.6556	bestie,	-0.06065052
-4.6556	bestiální,	-0.05660541
-3.224236	bez	-0.1130185
-4.6556	bezbranné	-0.06218897
-3.956629	beze	-0.2125931
-4.6556	bezesnou	-0.06217937
-4.6556	bezmeznou	-0.06214097
-4.6556	bezmezně	-0.06217937
-4.6556	bezmoc	-0.0573728
-4.178478	bezmocně	-0.05972483
-4.6556	bezohledného	-0.06218897
-4.6556	bezprostřednost	-0.04751767
-4.6556	bezpráví	-0.04236432
-4.354569	bezradně	-0.03621261
-4.178478	beztoho	-0.06204497
-4.6556	bezvědomí,	-0.06193934
-4.6556	bibli	-0.06144927
-4.6556	bije,	-0.05213934
-4.6556	bil,	-0.06200656
-4.6556	bičem,	-0.04751767
-4.6556	blahem	-0.06218897
-4.6556	blahobyt;	-0.04751767
-4.6556	blahodárným	-0.04751767
-4.6556	blahovůli,	-0.06151656
-4.6556	blamážemi	-0.04751767
-4.6556	blaženě	-0.05219827
-4.6556	blbec,	-0.05897124
-4.6556	blbostmi,	-0.06218897
-4.354569	bledou	-0.2455142
-4.178478	bledá	-0.0449786
-4.6556	bledá,	-0.05918393
-4.6556	bledé	-0.04751767
-4.6556	bledého	-0.06216017
-4.178478	bledý	-0.1665148
-4.354569	bledý,	-0.05952206
-4.6556	bledých	-0.06214097
-4.6556	bledým	-0.04751767
-4.6556	bledší	-0.06181447
-4.6556	blejská	-0.05632336
-4.6556	bližší	-0.06218897
-4.6556	blond	-0.06125693
-4.6556	blondýnka	-0.05219827
-4.6556	bloumá	-0.06100677
-4.6556	bludům	-0.04751767
-4.6556	blátem?	-0.06218897
-4.354569	blázen	-0.2403609
-3.956629	blázen,	-0.05710098
-4.354569	bláznivá	-0.06039036
-4.6556	bláznivé	-0.06218897
-4.6556	bláznovství,	-0.05918393
-4.178478	blíž	-0.0460259
-4.6556	bobeček,	-0.06218897
-4.6556	body	-0.06218897
-4.6556	bodáky;	-0.06198736
-4.6556	boha,	-0.06211217
-4.354569	bohatá	-0.04750773
-4.6556	bohatá?	-0.06216977
-4.6556	bohatého	-0.06218897
-4.354569	bohatý	-0.04734885
-4.354569	bohatých	-0.2601087
-4.6556	bohužel	-0.06216017
-4.6556	bohužel,	-0.0573728
-4.6556	boj	-0.05819698
-4.6556	bojoval	-0.06057345
-4.6556	bojovat	-0.06057345
-4.6556	bojovný	-0.05975378
-4.6556	bojovně	-0.06218897
-4.6556	bojí;	-0.04751767
-4.354569	bojím	-0.03621261
-4.6556	bojíte	-0.06218897
-4.6556	bok	-0.0557295
-4.354569	bolelo	-0.04143904
-3.451479	bolest	-0.1201475
-4.053539	bolest,	-0.05247319
-3.877448	bolesti	-0.0831572
-4.354569	bolesti;	-0.04733892
-4.6556	bolestné	-0.04751767
-4.6556	bolestně,	-0.05660541
-4.354569	bolestí	-0.2403609
-4.6556	bolestí,	-0.06029397
-4.354569	bolestí;	-0.0614108
-4.6556	bolestín,	-0.06218897
-4.6556	bolet	-0.04751767
-4.6556	bollandisté:	-0.06041928
-4.178478	bolí	-0.04210303
-4.6556	bonbóny	-0.05908726
-4.6556	borůvčím	-0.06211217
-4.6556	boty	-0.04751767
-4.354569	boty,	-0.06216976
-4.6556	botách	-0.04236432
-4.6556	botách,	-0.04751767
-4.6556	bouchala	-0.06131464
-4.6556	bouchl	-0.06057345
-4.6556	bouchá,	-0.05213934
-4.6556	bouře	-0.05819698
-4.6556	bouři	-0.06218897
-4.6556	bouřit,	-0.05660541
-4.6556	boxerku,	-0.06218897
-4.178478	bože,	-0.05872944
-4.6556	božském	-0.06216017
-4.6556	božský	-0.04751767
-3.614207	boží	-0.1077132
-4.178478	boží,	-0.06178565
-4.6556	boží;	-0.06216017
-4.6556	božího	-0.06217937
-4.354569	božím	-0.06216976
-4.6556	božím,	-0.0618625
-4.6556	brabec,	-0.04751767
-4.6556	brada	-0.04751767
-4.6556	bradatý	-0.06218897
-4.6556	bradou	-0.04236432
-4.6556	bradou,	-0.06117035
-4.6556	brajgl	-0.04236432
-4.354569	bral	-0.2583773
-4.6556	bral,”	-0.06216977
-4.6556	bralo	-0.05977308
-4.6556	brankář	-0.05977308
-4.354569	bratr	-0.06214096
-4.6556	bratr,	-0.06207377
-4.6556	bratrance,	-0.06192974
-4.6556	bratři	-0.06217937
-4.6556	bravuru	-0.06060235
-4.354569	brašnář	-0.04234422
-4.6556	brašnář,	-0.05213934
-4.6556	brašnáře	-0.05819698
-4.6556	brejle	-0.04751767
-4.6556	brejlil	-0.06218897
-4.053539	breku	-0.02346313
-4.6556	breptal	-0.04751767
-3.877448	brečel	-0.01724869
-4.6556	brečel,	-0.05897124
-4.354569	brečet	-0.06214096
-4.6556	brečet!	-0.06218897
-4.6556	brečí,	-0.05660541
-4.6556	brilianty	-0.04751767
-4.6556	brouk	-0.06217937
-4.6556	brouk,	-0.06127617
-4.6556	brouk;	-0.05892289
-4.6556	brouků	-0.06060235
-4.6556	brouzdal	-0.05219827
-4.6556	brouček,	-0.06218897
-4.6556	brovninku	-0.05977308
-4.6556	brumlal,	-0.05660541
-4.6556	brumlá;	-0.06180486
-4.6556	brunátný	-0.06218897
-4.6556	brutální	-0.06218897
-4.6556	brutální,	-0.06217937
-4.6556	brutálnímu	-0.06217937
-3.42515	bručel	-0.3664565
-4.6556	bručel,	-0.06060235
-4.6556	bručel:	-0.06218897
-4.6556	bryndáček,	-0.06217937
-4.6556	bryndáček;	-0.04751767
-4.6556	brzdy	-0.04236432
-4.053539	brzo	-0.0559243
-4.053539	bránil	-0.6328165
-4.6556	bróm	-0.04751767
-4.6556	bubny	-0.04751767
-4.6556	bububu,	-0.06218897
-4.6556	buchary,	-0.06218897
-2.992841	bude	-0.0953577
-4.6556	bude,	-0.06029397
-3.956629	budeme	-0.06192014
-4.178478	budete	-0.0588165
-4.6556	budeš	-0.06216977
-4.6556	budeš-li	-0.06159346
-3.956629	budou	-0.05196249
-4.354569	budoucího	-0.04235426
-3.614207	budu	-0.09169346
-4.6556	budu,	-0.06068904
-4.053539	budí	-0.05186421
-4.6556	burcoval	-0.06218897
-4.6556	burzu	-0.04751767
-4.6556	burácel	-0.06093939
-4.6556	burácení	-0.0600529
-4.6556	bučí	-0.04751767
-3.877448	buď	-0.05122484
-4.354569	buďte	-0.05889387
-4.6556	buďto	-0.05819698
-4.6556	buřince,	-0.06217937
-2.448774	by	-0.2380729
-4.6556	by,	-0.05660541
-2.786368	bych	-0.191374
-4.354569	bych,	-0.254602
-4.053539	bychom	-0.04882621
-3.956629	bydlel	-0.1248998
-3.877448	bydlí	-0.04993339
-4.6556	bydlím	-0.05819698
-4.6556	bydlíme	-0.05819698
-4.6556	bydlíte	-0.05819698
-2.350248	byl	-0.1311251
-4.6556	byl!	-0.06212177
-3.956629	byl,	-0.04416896
-4.6556	byl-li	-0.05859396
-2.701357	byla	-0.08298233
-4.6556	byla,	-0.05918393
-4.6556	byla-li	-0.06097789
-4.6556	byla;	-0.05897124
-3.541656	byli	-0.06873668
-4.354569	byli,	-0.05912592
-2.606381	bylo	-0.1332057
-3.42515	bylo,	-0.2808531
-4.6556	bylo,”	-0.06212177
-4.354569	bylo-li	-0.2501359
-4.354569	bylo:	-0.0614108
-4.6556	bylo;	-0.04751767
-3.137085	byly	-0.06627774
-4.178478	bys	-0.06046747
-3.240626	byste	-0.2042601
-4.178478	byt	-0.02668316
-4.6556	byt,	-0.05918393
-4.6556	bytné	-0.06215057
-4.6556	bytné,	-0.06131464
-4.354569	byty	-0.04750773
-4.354569	bytě	-0.2403609
-4.053539	bytě,	-0.1480088
-4.6556	bzučení	-0.04751767
-4.354569	bába	-0.05854556
-4.6556	bábou	-0.06008183
-4.6556	bábu	-0.06218897
-4.6556	bábu;	-0.0618625
-4.6556	báby!	-0.06051564
-4.6556	báby,	-0.06193934
-4.6556	bábě	-0.04236432
-4.6556	báječnou	-0.04236432
-4.6556	báječný	-0.06190092
-4.6556	bál	-0.04236432
-4.6556	bál,	-0.06078535
-4.6556	báli,	-0.05660541
-4.178478	báseň	-0.1751071
-4.6556	báseň!	-0.06051564
-4.6556	báseň,	-0.06065052
-4.6556	báseň;	-0.05213934
-4.178478	básní	-0.03620243
-4.6556	básníci	-0.06218897
-4.6556	básník,	-0.06117035
-3.752509	básně	-0.0960144
-4.6556	básně!	-0.06051564
-4.6556	básně?	-0.06211217
-4.6556	básněmi	-0.04236432
-4.6556	básněmi,	-0.05918393
-4.6556	bát	-0.06153579
-4.6556	báči,	-0.06193934
-4.6556	bída	-0.05892289
-4.354569	bídný	-0.05974412
-4.6556	bídu,	-0.05660541
-4.6556	bídě	-0.04751767
-4.6556	bílá,	-0.05975378
-4.178478	bílé	-0.06214098
-4.354569	bílém	-0.06217936
-4.6556	bílém,	-0.05660541
-4.6556	bílí	-0.06137234
-3.956629	bílý	-0.1309025
-4.6556	bílý,	-0.05975378
-4.354569	bílých	-0.06216016
-4.6556	býk,	-0.06218897
-2.915237	být	-0.04752817
-4.354569	být,	-0.05355155
-4.6556	být;	-0.06143965
-4.053539	být?	-0.06192013
-4.6556	bývají	-0.04236432
-4.354569	býval	-0.06123769
-4.6556	bývala	-0.06215057
-4.6556	bývala,	-0.04751767
-4.354569	bývalo	-0.04137862
-4.6556	bývalo;	-0.04751767
-4.6556	bývá	-0.06202576
-4.6556	býváme	-0.04236432
-4.6556	bědoval	-0.06210257
-4.6556	bědoval;	-0.04751767
-4.6556	bědovala	-0.06208337
-4.6556	běhají	-0.05632336
-3.956629	běhal	-0.2151181
-4.6556	běhat;	-0.05918393
-4.354569	během	-0.06212176
-4.354569	běhání,	-0.05621633
-4.6556	běloučký	-0.06218897
-4.6556	bělovlasé	-0.06125693
-4.053539	běžel	-0.1433069
-4.6556	běželi	-0.05977308
-4.6556	běžet	-0.06218897
-4.354569	běží	-0.2587723
-4.354569	běžím	-0.0548811
-4.6556	břehu	-0.06216977
-4.6556	břehů	-0.04236432
-4.6556	břicha	-0.04751767
-4.354569	břichem	-0.04750773
-4.6556	břitkou	-0.06218897
-4.6556	břitva	-0.04236432
-4.6556	bříškem	-0.04751767
-4.178478	bůh,	-0.04748789
-4.6556	bůhví	-0.06197775
-4.6556	bůhvíjaká	-0.06218897
-4.6556	bůhvíkde;	-0.05213934
-4.6556	caespitosum	-0.06217937
-4.6556	carcere	-0.06218897
-4.6556	care	-0.06218897
-4.6556	catenis?	-0.06041928
-4.6556	cauda	-0.06218897
-4.354569	cavyky	-0.04498858
-4.6556	cavykách	-0.04751767
-4.6556	cedulka	-0.05975378
-4.354569	cela	-0.0610645
-4.6556	cele	-0.06217937
-4.6556	cele,	-0.04751767
-4.6556	celkem	-0.06077572
-4.6556	cello,	-0.05918393
-4.6556	celní	-0.06218897
-3.701357	celou	-0.243064
-4.6556	celu	-0.06218897
-3.810501	cely	-0.08410731
-3.655599	celá	-0.07498798
-3.614207	celé	-0.05127405
-4.178478	celého	-0.06193934
-4.178478	celém	-0.06208337
-3.240626	celý	-0.1144275
-4.6556	celý,	-0.05892289
-4.6556	celý;	-0.06014934
-4.6556	cena	-0.04236432
-4.6556	centimetrů	-0.06218897
-3.810501	cenu	-0.03699654
-4.053539	cenu,	-0.03976453
-4.354569	cenu;	-0.0587778
-4.354569	cenu?	-0.06199695
-4.6556	cenu”	-0.06205457
-4.6556	ceny,	-0.06216017
-4.6556	cest	-0.06218897
-4.354569	cesta	-0.06074682
-4.053539	cestou	-0.06059272
-4.6556	cestovatelem	-0.06060235
-4.6556	cestování	-0.04751767
-3.655599	cestu	-0.03874253
-4.6556	cestující	-0.06218897
-4.178478	cestující,	-0.0450485
-4.178478	cesty	-0.1623607
-4.6556	chalup	-0.06214097
-4.6556	chalup;	-0.05819698
-4.6556	chalupy	-0.04751767
-4.6556	chalupě	-0.06216017
-4.6556	charakter	-0.04236432
-4.6556	charakterní	-0.06218897
-4.6556	chasník,	-0.05632336
-4.6556	chatrný	-0.06216017
-4.6556	chatrnější	-0.06181447
-3.541656	chce	-0.05353197
-4.6556	chce,	-0.06218897
-4.6556	chce-li	-0.06192974
-4.6556	chce?	-0.06051564
-4.053539	chcete	-0.04196227
-4.6556	chcete,	-0.06203537
-4.6556	chcete-li	-0.06218897
-4.6556	chcete-li,	-0.05897124
-4.6556	chcete;	-0.05897124
-4.354569	chceš,	-0.06116072
-4.6556	chci	-0.06208337
-4.6556	chcíplá	-0.06218897
-4.6556	chemikové	-0.05977308
-4.6556	chladná,	-0.06060235
-4.6556	chladných	-0.04751767
-4.6556	chladně	-0.06125693
-3.576418	chlap	-0.04827087
-4.6556	chlap,	-0.06171839
-4.354569	chlap;	-0.05722719
-4.178478	chlapa	-0.04142898
-4.6556	chlapa?	-0.06218897
-4.6556	chlape,	-0.06218897
-4.6556	chlapeček?	-0.06218897
-4.6556	chlapi	-0.05937718
-4.6556	chlapi,	-0.06206417
-4.6556	chlapovi,	-0.06014934
-4.6556	chlapské	-0.06218897
-4.6556	chlapy	-0.06218897
-4.178478	chlapík	-0.1533555
-4.6556	chlapík;	-0.06142042
-4.6556	chlapíka	-0.05975378
-4.6556	chlapíka,	-0.06216977
-4.6556	chlapče,	-0.06218897
-4.354569	chlapů	-0.05226701
-4.6556	chlastají	-0.04751767
-4.178478	chleba	-0.03953201
-4.178478	chleba,	-0.05965725
-4.6556	chlubili,	-0.05660541
-4.6556	chlubivost	-0.04751767
-4.6556	chlubí,	-0.06097789
-4.6556	chlup	-0.04236432
-4.354569	chlupy	-0.03621261
-4.354569	chlácholil	-0.04233417
-4.6556	chlácholivého	-0.06218897
-4.6556	chlácholivě,	-0.06214097
-4.6556	chládek	-0.06125693
-4.6556	chléb,	-0.06217937
-4.6556	chlív	-0.06157424
-4.6556	chodbičku,	-0.06187211
-4.6556	chodbu	-0.04751767
-4.6556	chodby	-0.06216977
-4.6556	chodby;	-0.04751767
-3.956629	chodbě	-0.04727934
-3.701357	chodil	-0.1298981
-4.6556	chodil,	-0.06218897
-4.6556	chodil;	-0.05213934
-4.354569	chodili,	-0.06066977
-4.178478	chodit	-0.163237
-4.6556	chodit!	-0.06093939
-4.354569	chodníku	-0.04708061
-3.956629	chodí	-0.124257
-4.6556	chodí,	-0.06166074
-4.6556	chopil	-0.05219827
-4.6556	choroba	-0.0573728
-4.6556	chorobná	-0.06218897
-4.6556	chorobou,	-0.06218897
-4.6556	chorobu,	-0.06218897
-4.6556	choutky,	-0.06193934
-4.6556	chovají	-0.06218897
-4.178478	choval	-0.06065052
-4.6556	chovali	-0.05975378
-4.178478	chovat	-0.1810772
-4.6556	chová	-0.05219827
-4.6556	chraptivě	-0.04751767
-4.354569	chraptěl	-0.04228393
-4.6556	chrchlaje	-0.06218897
-4.6556	chrlil	-0.05819698
-4.6556	chrlil,	-0.05975378
-4.6556	chrochtají	-0.06218897
-4.6556	chrochtat,	-0.06068904
-4.6556	chrochtá	-0.06218897
-4.6556	chromého,	-0.04751767
-4.6556	chrup	-0.06065052
-4.6556	chrup,	-0.05908726
-4.354569	chrám	-0.04069337
-4.6556	chrámech	-0.06218897
-4.6556	chránil,	-0.06187211
-4.6556	chrápala	-0.04751767
-4.6556	chrčivě	-0.06218897
-4.6556	chtíčům	-0.06218897
-4.6556	chtějí	-0.06217937
-3.354569	chtěl	-0.04114697
-4.6556	chtěl,	-0.06218897
-4.6556	chtěl?	-0.06041928
-3.877448	chtěla	-0.0579935
-4.6556	chtěla?	-0.06218897
-4.053539	chtěli	-0.06216018
-4.6556	chtěli,	-0.06218897
-4.6556	chudou	-0.06218897
-4.6556	chudá	-0.06218897
-4.178478	chudák	-0.06183369
-4.6556	chudáka	-0.06125693
-4.6556	chudáka,	-0.06216977
-4.6556	chudí	-0.06200656
-4.6556	chutě	-0.04236432
-4.6556	chuť	-0.06218897
-4.053539	chvilku	-0.06209297
-4.6556	chvilku,	-0.06151656
-4.6556	chválili;	-0.05918393
-3.956629	chvíle	-0.03448711
-4.6556	chvíle,	-0.06212177
-4.053539	chvílemi	-0.044489
-3.208441	chvíli	-0.1886156
-4.053539	chvíli,	-0.03794147
-4.6556	chvílích	-0.0557295
-4.6556	chvěním	-0.05219827
-4.178478	chyba	-0.3570128
-4.6556	chybičku	-0.04236432
-4.6556	chybu	-0.06216017
-4.6556	chybu:	-0.05660541
-4.053539	chybí	-0.06070831
-4.6556	chybělo;	-0.05918393
-4.6556	chyběly	-0.05819698
-4.6556	chybět	-0.06216977
-4.178478	chystá	-0.06124732
-4.354569	chytal	-0.05217862
-4.6556	chytil	-0.06057345
-4.178478	chytit	-0.1624011
-4.178478	chytli	-0.03724059
-4.6556	chytli!	-0.06213137
-4.6556	chytli,	-0.06171839
-4.354569	chytlo	-0.03621261
-4.6556	chytneme	-0.04236432
-4.6556	chytrák	-0.04751767
-4.6556	chytrý	-0.06198736
-4.6556	chytřejší	-0.06181447
-4.6556	cifry	-0.06218897
-4.354569	cigaret	-0.04069337
-4.6556	cigareta	-0.06057345
-4.6556	cigarety	-0.04751767
-4.6556	cigarety,	-0.06218897
-4.354569	cikáni	-0.04235426
-4.6556	cikáni,	-0.05897124
-4.6556	cikáni;	-0.04751767
-4.6556	cikánská,	-0.06218897
-4.6556	cimře,	-0.04751767
-4.6556	cinkl	-0.06218897
-4.6556	cinknul	-0.05977308
-4.6556	ciráty;	-0.06198736
-4.6556	cit	-0.06165113
-4.354569	cit,	-0.06210256
-4.6556	cit;	-0.0573728
-4.6556	citem,	-0.05975378
-4.354569	citerista	-0.04219348
-4.354569	citerista,	-0.06136272
-4.6556	citlivka,	-0.05918393
-4.354569	citové	-0.06217936
-4.6556	citu	-0.04236432
-4.6556	citu;	-0.06214097
-4.354569	city	-0.03980495
-4.6556	city!	-0.06213137
-4.6556	city;	-0.06014934
-4.6556	city?	-0.06205457
-4.6556	citů	-0.06181447
-4.6556	civile,	-0.06178565
-4.6556	civilní	-0.06216977
-4.6556	civilního,	-0.06117035
-4.6556	civilu,	-0.05918393
-4.6556	cize	-0.06218897
-4.6556	cizinec,	-0.06208337
-4.6556	ciziny:	-0.06218897
-4.6556	cizokrajného	-0.06217937
-4.6556	cizokrajnými	-0.06218897
-4.354569	cizí	-0.06207376
-4.6556	cizí,	-0.06217937
-4.178478	cizího	-0.1836288
-4.6556	cizími	-0.06218897
-2.358934	co	-0.2076772
-3.451479	co,	-0.08121193
-4.6556	co,”	-0.06215057
-4.354569	co:	-0.06214096
-4.6556	co;	-0.06198736
-4.178478	co?	-0.06161269
-4.6556	colubrina	-0.06217937
-4.6556	comandante,	-0.06193934
-4.6556	confessionis	-0.04236432
-3.701357	copak	-0.06062254
-4.6556	corniger,	-0.06202576
-4.6556	corpus	-0.06218897
-3.956629	cosi	-0.3039758
-4.6556	cosi,	-0.06216977
-4.6556	cosi;	-0.05897124
-3.877448	couro!	-0.1912934
-4.6556	cti	-0.04236432
-4.6556	cti!	-0.06041928
-4.178478	cti,	-0.0565179
-4.6556	cti;	-0.06117035
-4.6556	ctibažný,	-0.06218897
-4.6556	ctihodné	-0.06217937
-4.6556	ctihodní	-0.06217937
-4.6556	ctil	-0.04751767
-4.354569	ctižádost	-0.04069337
-4.178478	ctižádost,	-0.05653735
-4.6556	ctižádosti!	-0.06218897
-4.6556	cukat	-0.04751767
-4.6556	cuklo,	-0.04751767
-4.6556	curyšské	-0.06218897
-4.6556	cvakaly	-0.04236432
-4.6556	cvičení	-0.06218897
-4.6556	cvičili	-0.05819698
-4.6556	cynického	-0.04751767
-4.6556	cácorka,	-0.06218897
-4.6556	césurách,	-0.05908726
-4.6556	cín	-0.04236432
-4.6556	cíp	-0.06077572
-4.6556	církev	-0.06100677
-3.752509	cítil	-0.02354706
-4.178478	cítil,	-0.0548323
-4.178478	cítili	-0.06142043
-4.178478	cítit	-0.04233418
-4.6556	cítit,	-0.06068904
-4.6556	cítí	-0.06212177
-4.6556	cítím,	-0.05660541
-4.6556	cítíte	-0.06217937
-4.6556	cůpek	-0.04236432
-4.6556	d'Annunzia,	-0.06218897
-3.956629	dají	-0.04343798
-4.6556	daktyloskopie,	-0.06117035
-4.6556	daktyloskopista	-0.06212177
-4.6556	daktýlky,	-0.04751767
-4.6556	daktýlky;	-0.04751767
-3.400327	dal	-0.1512647
-4.6556	dal!	-0.05908726
-4.354569	dal,	-0.06216016
-3.956629	dala	-0.05589509
-4.6556	daleko	-0.06218897
-4.6556	daleké	-0.06217937
-3.752509	dali	-0.05578794
-3.810501	dalo	-0.06169918
-4.6556	daly	-0.06218897
-4.354569	další	-0.06216016
-4.6556	další,	-0.06211217
-4.6556	dalších	-0.06210257
-4.6556	daroval	-0.06140119
-4.6556	darovat	-0.04236432
-4.6556	daruju	-0.06217937
-4.6556	dary	-0.06157424
-4.6556	datum	-0.04751767
-4.6556	daří	-0.06218897
-4.6556	dbát	-0.06100677
-4.6556	dcera,	-0.06216977
-4.6556	dcerou	-0.05977308
-4.6556	dcery	-0.06217937
-4.354569	dddo	-0.06216976
-4.6556	dech	-0.06218897
-4.6556	dechem	-0.0557295
-4.6556	dechem,	-0.06215057
-4.178478	dechu	-0.04234423
-4.6556	dechu,	-0.06217937
-4.6556	defraudanta	-0.04751767
-4.6556	defraudanti	-0.04751767
-4.6556	dej	-0.06217937
-4.053539	dejme	-0.148192
-4.6556	dejte	-0.05632336
-4.6556	dekret	-0.06127617
-4.6556	deku,	-0.06218897
-4.6556	deku;	-0.05213934
-4.6556	delicti	-0.04236432
-4.6556	delikt	-0.06218897
-4.6556	deliktu	-0.04751767
-4.6556	demarše,	-0.06216977
-3.400327	den	-0.1103293
-4.178478	den,	-0.04358828
-4.6556	den;	-0.06014934
-4.6556	denní,	-0.06218897
-4.354569	denně	-0.05699413
-4.6556	derbent,	-0.06196815
-4.6556	dervišů;	-0.05897124
-3.400327	deset	-0.2665354
-4.6556	deset,	-0.06209297
-4.6556	desetiletý	-0.06215057
-4.6556	desetkrát	-0.04236432
-4.6556	desperátního	-0.04236432
-4.6556	desáté	-0.06217937
-3.956629	detektiv	-0.01475066
-4.6556	detektivovi,	-0.05660541
-4.6556	detektivy;	-0.05213934
-4.6556	detektivům	-0.04751767
-4.354569	devadesát	-0.06217936
-4.6556	devatenáct	-0.06060235
-4.354569	devět	-0.06200655
-4.6556	devět,	-0.06218897
-4.6556	dezentér	-0.04236432
-4.6556	dezerce	-0.06057345
-4.6556	deziluze	-0.04751767
-4.6556	dešifrování	-0.06216977
-4.6556	dešifrování,”	-0.06211217
-4.6556	dešti	-0.06171839
-4.354569	diamant	-0.04500855
-4.6556	diamantem	-0.06217937
-4.6556	diamanty	-0.06060235
-4.6556	diametrálně	-0.06212177
-4.6556	dio	-0.06218897
-4.6556	dio,	-0.06142042
-4.6556	diplomati	-0.06216017
-4.053539	direkci	-0.04104622
-4.178478	direkci,	-0.177869
-4.6556	dirigent	-0.04751767
-4.6556	dirigoval	-0.06157424
-4.6556	dirigoval;	-0.05918393
-4.6556	disciplinárku,	-0.06218897
-4.6556	dispozici	-0.06216017
-4.354569	div	-0.05907759
-4.354569	divil	-0.03189103
-4.6556	divil,	-0.06068904
-4.6556	divizní	-0.06208337
-4.6556	divizním	-0.06216017
-4.178478	divnou	-0.06196815
-4.354569	divná	-0.06215056
-3.956629	divné	-0.04475885
-4.053539	divné,	-0.04842019
-4.6556	divné;	-0.06215057
-4.6556	divného:	-0.06014934
-3.956629	divný	-0.06214098
-4.6556	divný,	-0.06218897
-4.354569	divných	-0.2455142
-4.354569	divným	-0.06217936
-4.178478	divně	-0.06169918
-4.6556	divoce,	-0.05660541
-4.354569	divocí	-0.06216016
-4.6556	divoké	-0.06218897
-4.6556	divotvorné	-0.06218897
-4.6556	diví,	-0.06213137
-4.6556	divím	-0.06193934
-4.6556	divím,	-0.05660541
-4.6556	divže	-0.0557295
-4.6556	diéty,	-0.06216017
-4.6556	diškerece;	-0.06166074
-4.354569	diťátko,	-0.06200655
-4.6556	dlani	-0.04236432
-4.6556	dlažbu	-0.04751767
-3.877448	dlouho	-0.04972601
-4.6556	dlouho,	-0.04751767
-4.6556	dlouhou	-0.06218897
-4.178478	dlouhá	-0.04744817
-4.354569	dlouhé	-0.06217936
-4.6556	dlouhé,	-0.06217937
-4.6556	dlouhého	-0.06218897
-4.6556	dlouhý	-0.06218897
-4.6556	dlouhý,	-0.06014934
-4.6556	dlouhých	-0.06218897
-4.6556	dlouhými	-0.05975378
-4.6556	dluh	-0.05908726
-4.6556	dluhem,	-0.06128579
-4.6556	dluhy	-0.06218897
-4.354569	dluhy,	-0.06216976
-4.6556	dluhům,	-0.06217937
-4.6556	dlužen,	-0.06151656
-3.509471	dne	-0.1298934
-4.6556	dne,	-0.05897124
-4.6556	dne;	-0.06206417
-4.6556	dnech	-0.06218897
-3.752509	dnes	-0.03388308
-4.6556	dnes?	-0.06217937
-4.178478	dneska	-0.0462251
-4.6556	dnešní	-0.06218897
-4.6556	dnešním	-0.06218897
-3.576418	dny	-0.07963235
-4.6556	dny,	-0.06117035
-3.576418	dní	-0.009125791
-4.354569	dní,	-0.05814853
-4.6556	dně	-0.06206417
-4.354569	dnů	-0.05568078
-4.6556	dnům	-0.06217937
-2.254199	do	-0.1550086
-4.6556	dob,	-0.06200656
-4.6556	dobrodruh,	-0.06216017
-4.6556	dobrodružnosti,	-0.06216977
-4.6556	dobrodružností	-0.04236432
-4.6556	dobrodružství	-0.04236432
-4.354569	dobrodružství;	-0.05815822
-4.354569	dobrou	-0.06216016
-4.6556	dobrovolné	-0.06216977
-4.6556	dobrovolně	-0.04751767
-4.354569	dobrozdání	-0.04235426
-4.6556	dobru	-0.04236432
-4.053539	dobrá	-0.254594
-4.6556	dobrá,	-0.05892289
-4.6556	dobráka	-0.06218897
-3.956629	dobré	-0.03976453
-4.6556	dobrého	-0.06218897
-4.6556	dobrém	-0.06216017
-4.354569	dobrý	-0.06217936
-4.6556	dobrých	-0.06202576
-3.956629	dobu	-0.05070281
-4.6556	dobu:	-0.06157424
-3.42515	doby	-0.1119345
-4.6556	doby,	-0.06200656
-4.178478	době	-0.06117998
-4.6556	době,	-0.06065052
-3.33338	dobře	-0.136
-3.956629	dobře,	-0.05517385
-4.6556	dobře;	-0.04751767
-3.42515	docela	-0.08083025
-4.6556	docela,	-0.06193934
-3.956629	docent	-0.4190798
-4.6556	docent,	-0.06203537
-4.6556	docenta	-0.06218897
-4.6556	docentem	-0.06218897
-4.6556	docházely	-0.06216017
-4.6556	dochází	-0.06216977
-4.6556	docílit,	-0.06204497
-4.178478	dodal	-0.06199696
-4.6556	dodala	-0.06218897
-4.6556	dodavatele	-0.04236432
-4.6556	dodnes	-0.06218897
-3.956629	dodával	-0.1292867
-4.6556	dodával:	-0.06210257
-4.6556	dodávala	-0.06125693
-4.6556	dodávat	-0.06218897
-4.6556	dodává,	-0.06209297
-4.6556	dohazoval	-0.06218897
-4.6556	dohořívá	-0.06218897
-4.6556	dohromady,	-0.06014934
-4.6556	dojat	-0.05975378
-4.6556	dojatě	-0.05219827
-4.6556	dojatě,	-0.06218897
-4.6556	dojde	-0.06218897
-4.6556	dojede	-0.05977308
-4.6556	dojeli	-0.05977308
-4.6556	dojem	-0.04236432
-4.6556	dojem,	-0.05660541
-4.6556	dokonalí	-0.06218897
-4.6556	dokonalý	-0.06218897
-3.810501	dokonce	-0.09749506
-4.6556	dokonám,	-0.06183368
-4.6556	dokořán	-0.04751767
-3.178478	doktor	-0.4103331
-4.6556	doktor!	-0.06213137
-4.6556	doktor,	-0.06218897
-4.053539	doktora	-0.06173762
-3.810501	doktore,	-0.08636408
-4.6556	doktore?	-0.06218897
-4.6556	doktorem	-0.04236432
-4.6556	doktorovi,	-0.06078535
-4.6556	doktoru	-0.06218897
-4.6556	doktory,	-0.04751767
-4.6556	doktoři	-0.06207377
-3.877448	dokud	-0.1011651
-4.6556	dokázat,	-0.05660541
-4.6556	dokázat;	-0.06133388
-4.6556	doků;	-0.06137234
-4.6556	dolarové	-0.06218897
-3.956629	dole	-0.05176591
-4.6556	dole,	-0.06218897
-4.6556	doličný,	-0.06218897
-4.6556	dolní	-0.06216977
-4.6556	dolus	-0.06025541
-4.6556	dolus,	-0.05918393
-4.6556	dolus;	-0.05660541
-3.614207	dolů	-0.2419243
-4.354569	dolů,	-0.06065051
-4.6556	dolů;	-0.06195854
-3.655599	doma	-0.03382161
-4.354569	doma,	-0.05583664
-4.6556	domečku	-0.04751767
-4.6556	domino	-0.04751767
-4.6556	domlouvat	-0.04236432
-4.6556	domlouvám	-0.06169918
-4.6556	domluva,	-0.06065052
-4.6556	domluvili	-0.04236432
-4.6556	domluvit	-0.04236432
-4.6556	domluvu	-0.05892289
-4.6556	domluvy	-0.06192013
-4.6556	domnělou	-0.06218897
-4.6556	domov	-0.04236432
-4.6556	domova	-0.06218897
-4.6556	domovnice,	-0.06207377
-4.6556	domovnici	-0.06202576
-4.6556	domovní	-0.06216977
-4.6556	domovníci	-0.04751767
-4.354569	domovník	-0.06006254
-4.6556	domovník,	-0.04751767
-4.6556	domovníka	-0.04236432
-4.6556	domovníkovi,	-0.05660541
-4.6556	domovníkovým	-0.06218897
-4.6556	domovníkův	-0.06217937
-3.956629	domu	-0.09420253
-4.178478	domu,	-0.04618527
-4.354569	domu;	-0.04417896
-4.6556	domácká	-0.06216977
-4.6556	domácnost	-0.05219827
-4.6556	domácnost,	-0.06218897
-4.6556	domácnosti	-0.0573728
-4.053539	domácí	-0.06206417
-4.6556	domácích	-0.06211217
-4.178478	domě	-0.03906659
-3.576418	domů	-0.09179225
-4.6556	domů!	-0.06218897
-3.810501	domů,	-0.05796443
-4.354569	domů;	-0.06199695
-4.053539	donesl	-0.06070831
-4.354569	donesla	-0.05989853
-4.6556	dopadl	-0.06216977
-4.6556	dopadl,	-0.06127617
-4.6556	dopadla	-0.06218897
-4.6556	dopadlo?	-0.06214097
-4.354569	dopadne	-0.05662484
-3.877448	dopis	-0.03002421
-4.6556	dopis,	-0.06117035
-4.178478	dopis;	-0.0472396
-4.6556	dopis?	-0.05908726
-4.6556	dopisovala	-0.06153579
-4.178478	dopisy	-0.04525813
-4.6556	dopisy,	-0.06199696
-4.053539	dopisů	-0.03602917
-4.6556	doporučil	-0.06218897
-4.6556	doprava	-0.05632336
-4.6556	doprovodím,	-0.06151656
-4.6556	doptat,	-0.06192974
-4.6556	dopustil	-0.05219827
-4.6556	dopustil,	-0.05892289
-4.6556	dopustí	-0.06218897
-4.6556	dopáleně,	-0.06014934
-4.6556	dopálil	-0.04236432
-4.6556	dorozumíme	-0.06193934
-4.6556	dort	-0.06057345
-4.6556	doručili	-0.06194894
-4.6556	dosah	-0.06218897
-4.6556	dosahuje	-0.06218897
-4.6556	doslovně	-0.06202576
-4.6556	dospíval;	-0.06184329
-4.6556	dospěle:	-0.06218897
-3.614207	dost	-0.04192204
-3.33338	dostal	-0.03562121
-4.178478	dostal,	-0.04967662
-4.6556	dostal?	-0.06214097
-4.6556	dostala	-0.05977308
-4.354569	dostali	-0.06188171
-4.6556	dostali,	-0.06216977
-4.6556	dostaly	-0.06161268
-3.877448	dostane	-0.04826164
-4.6556	dostanete	-0.06192013
-4.6556	dostaneš,	-0.05897124
-4.354569	dostanou	-0.05957034
-3.576418	dostat	-0.04167699
-4.6556	dostat!	-0.06051564
-4.354569	dostával	-0.06054454
-4.354569	dostávala	-0.06063124
-4.6556	dostávali	-0.06174722
-4.6556	dostává	-0.06216977
-3.810501	dosud	-0.06197776
-4.6556	dosvědčovali	-0.04236432
-4.6556	dosvědčím	-0.06215057
-4.6556	dosvědčíme!	-0.06200656
-4.6556	dosvědčíte,	-0.05660541
-4.6556	dotazy	-0.05908726
-4.6556	dotkl	-0.05219827
-4.6556	dotknout	-0.04236432
-4.6556	dotyčná	-0.06216017
-4.178478	dotyčného	-0.06214098
-4.6556	dotyčném	-0.06216977
-4.6556	dotyční	-0.06214097
-4.6556	dotýká	-0.06218897
-4.6556	dotěrným;	-0.06143965
-4.6556	doufal,	-0.05660541
-3.877448	dovede	-0.09483282
-4.354569	dovedete	-0.2601663
-4.053539	dovedl	-0.05829384
-4.354569	dovedli	-0.06042891
-4.178478	dovedou	-0.04148939
-4.6556	dovedu	-0.06218897
-4.6556	dovezli	-0.05632336
-4.6556	dovezu	-0.06077572
-4.6556	dovnitř	-0.04236432
-4.6556	dovnitř,	-0.06158385
-4.6556	dovolení,	-0.06218897
-4.6556	dovolili,	-0.06187211
-4.6556	dovolujete?	-0.06218897
-4.6556	dovolával	-0.05219827
-4.6556	dovtípil,	-0.05660541
-4.354569	dovídáme,	-0.06132425
-4.6556	doznala,	-0.05660541
-4.6556	doznávala	-0.0618625
-3.752509	dozorce	-0.03208654
-4.354569	dozorce,	-0.06063124
-4.6556	dozvíme,	-0.06212177
-4.6556	dočetl,	-0.06112225
-4.354569	dočista	-0.06206416
-4.6556	dočíst	-0.06151656
-4.053539	došel	-0.1426338
-4.6556	došla	-0.06218897
-4.354569	dožral	-0.2455142
-4.354569	dožralo,	-0.04498858
-4.6556	dožrán	-0.05975378
-4.6556	dožívá	-0.06211217
-4.053539	dr	-0.6229826
-4.6556	drahocenný	-0.06214097
-4.6556	drahá,	-0.06178565
-4.6556	drahý	-0.06218897
-4.6556	drahých	-0.06218897
-4.6556	dramatická	-0.06218897
-4.6556	dramatickým	-0.06216017
-4.6556	drandil	-0.05937718
-4.354569	drbal	-0.2537261
-4.6556	drdůlek	-0.06218897
-4.6556	drkotají	-0.06201616
-4.354569	drkotal	-0.05858427
-4.6556	drkotali	-0.06201616
-4.6556	drmolil	-0.06203537
-3.752509	drobet	-0.08756647
-4.6556	drobnou	-0.04751767
-4.354569	drobného	-0.2455142
-4.6556	drobný	-0.06198736
-4.6556	drsní	-0.06218897
-4.6556	drsný	-0.06218897
-4.6556	drsný,	-0.05632336
-4.6556	drtivě	-0.04236432
-4.6556	druh	-0.06218897
-4.6556	druha;	-0.04751767
-4.6556	druhem	-0.06218897
-4.6556	druhou	-0.06217937
-4.6556	druhou:	-0.06218897
-4.6556	druhou;	-0.05213934
-4.6556	druhu,	-0.05660541
-4.6556	druhy	-0.06217937
-3.956629	druhá	-0.02056779
-3.614207	druhé	-0.07681911
-4.178478	druhé,	-0.05510556
-4.178478	druhého	-0.1835808
-3.956629	druhém	-0.04746804
-4.6556	druhému	-0.06218897
-4.6556	druhému,	-0.06178565
-4.6556	druhému:	-0.06167996
-3.701357	druhý	-0.05887454
-4.6556	druhý,	-0.05660541
-4.6556	druhý;	-0.06212177
-4.178478	druhým	-0.1638403
-4.354569	druhým,	-0.06032288
-4.354569	druzí	-0.04215328
-4.6556	drzost,	-0.06215057
-4.6556	dráhu	-0.04236432
-4.6556	dráhy	-0.04751767
-4.6556	dráze	-0.06218897
-4.053539	držel	-0.1469468
-4.6556	drželi	-0.06217937
-4.6556	držet	-0.06161268
-4.6556	držet,	-0.06153579
-3.956629	drží	-0.1071995
-4.6556	držím	-0.06211217
-4.6556	držíte	-0.06077572
-4.6556	duběnkami	-0.04751767
-4.6556	ducha	-0.04236432
-4.6556	duchař	-0.04751767
-4.178478	duchem	-0.1835423
-4.6556	duchovní	-0.06218897
-4.6556	duchovně	-0.06218897
-4.6556	dudek	-0.04236432
-4.6556	duní,	-0.06218897
-4.6556	duplikáty	-0.06218897
-4.6556	dupání	-0.04751767
-4.053539	duše	-0.05984065
-4.6556	dušeně	-0.06218897
-4.6556	dušezpytným	-0.04751767
-3.877448	duši	-0.09664426
-4.053539	duši,	-0.0610164
-4.6556	duši;	-0.05918393
-4.6556	dušovali	-0.04751767
-3.164238	dva	-0.101783
-3.956629	dvacet	-0.130768
-4.6556	dvacet,	-0.06198736
-4.354569	dvaceti	-0.06216976
-4.6556	dvacetiletý	-0.06215057
-4.6556	dvacetkrát	-0.06216017
-3.752509	dvanáct	-0.07851362
-4.6556	dvanáct,	-0.06214097
-4.6556	dvanácti	-0.06218897
-3.752509	dveře	-0.2921148
-4.6556	dveře,	-0.06117035
-4.6556	dveře;	-0.05918393
-4.354569	dveřmi	-0.04235426
-4.6556	dveřmi;	-0.06216017
-4.178478	dveří	-0.03715926
-3.810501	dveřích	-0.07972305
-4.354569	dveřích,	-0.06174721
-4.6556	dveřích:	-0.06217937
-4.6556	dveřích;	-0.06188171
-4.6556	dvora,	-0.05892289
-4.354569	dvorek	-0.02698511
-4.6556	dvorek;	-0.05213934
-4.354569	dvorku	-0.05736309
-4.354569	dvorku,	-0.06167995
-3.877448	dvou	-0.05900025
-4.354569	dvoře	-0.05622606
-4.6556	dvoře,	-0.05918393
-4.6556	dvéře	-0.04751767
-3.313177	dvě	-0.1766861
-4.354569	dvě,	-0.06216016
-4.6556	dvěma	-0.06208337
-4.354569	dvůr	-0.04749781
-4.6556	dychtivou	-0.06218897
-4.6556	dychtivě	-0.04236432
-4.6556	dycky	-0.06216977
-4.053539	dyť	-0.1463762
-4.6556	dyť,	-0.06217937
-3.752509	dá	-0.2585529
-3.701357	dál	-0.09519541
-3.877448	dál,	-0.09237176
-4.6556	dál:	-0.06217937
-4.6556	dál;	-0.05632336
-3.877448	dále	-0.1717551
-4.6556	dále,	-0.05975378
-4.354569	dále;	-0.2599839
-4.6556	dálky	-0.06218897
-4.6556	dálky,	-0.06068904
-4.6556	dálo	-0.04236432
-4.6556	dálo,	-0.05213934
-4.6556	dály	-0.06213137
-3.810501	dám	-0.05794505
-4.6556	dáma,	-0.06211217
-4.354569	dáme	-0.05976342
-4.6556	dámou	-0.04751767
-4.354569	dámě	-0.06217936
-4.6556	dámě,	-0.06218897
-4.6556	dámě;	-0.06216017
-3.614207	dát	-0.04597608
-4.354569	dáte	-0.06217936
-4.6556	dávají	-0.06100677
-4.178478	dával	-0.03432339
-4.6556	dávala	-0.06217937
-4.6556	dávali	-0.06218897
-4.6556	dávat,	-0.06203537
-4.6556	dávejte	-0.06218897
-4.6556	dávky	-0.06218897
-4.178478	dávno	-0.05727575
-4.6556	déle	-0.05213934
-4.6556	dík	-0.06179526
-4.6556	dílem	-0.06196815
-4.6556	dílny,	-0.06184329
-4.6556	díra	-0.06060235
-4.6556	dírka	-0.04751767
-3.293872	dítě	-0.06100613
-4.178478	dítě!	-0.05925158
-4.6556	dítě,	-0.05660541
-4.354569	dítě;	-0.06024576
-4.354569	dítě?	-0.06043854
-4.354569	dítěte,	-0.06059271
-4.178478	dítětem	-0.159701
-4.6556	dítětem?	-0.06215057
-4.6556	dítěti	-0.05632336
-3.810501	díval	-0.1384316
-4.6556	dívala	-0.06218897
-4.6556	dívala;	-0.05918393
-4.6556	dívali	-0.06008183
-4.6556	dívali,	-0.06212177
-4.6556	dívat	-0.06218897
-4.6556	dívat,	-0.06068904
-4.6556	dívám	-0.05632336
-4.354569	díváte	-0.05616767
-4.6556	díže	-0.0573728
-4.6556	díži,	-0.04751767
-4.6556	dýchalo;	-0.04751767
-4.354569	dýku	-0.03621261
-4.6556	dýl,	-0.06209297
-4.354569	děcko	-0.05578794
-4.6556	dědeček	-0.06144927
-4.6556	dědečkovi	-0.04236432
-4.6556	dědil	-0.04236432
-4.6556	dědit	-0.04236432
-4.6556	děj;	-0.04751767
-4.354569	děje	-0.061728
-4.6556	dějin	-0.04236432
-4.6556	dějí	-0.06218897
-4.6556	děkujeme,	-0.06196815
-4.178478	děkuju,	-0.1836672
-3.701357	děl	-0.2182756
-4.6556	děla	-0.06217937
-3.810501	dělají	-0.09450018
-4.6556	dělají,	-0.06195854
-4.6556	dělají-li	-0.06201616
-4.6556	dělají;	-0.05918393
-3.509471	dělal	-0.05372693
-4.354569	dělal,	-0.04554744
-4.6556	dělal?	-0.06041928
-4.6556	dělala	-0.05908726
-4.6556	dělala?	-0.06041928
-4.053539	dělali	-0.2719839
-4.6556	dělali,	-0.06117035
-4.6556	dělanou	-0.06218897
-3.541656	dělat	-0.06971946
-4.6556	dělat!	-0.06097789
-4.6556	dělat!”	-0.06218897
-4.6556	dělat,	-0.06014934
-4.6556	dělat,”	-0.06213137
-4.6556	dělat:	-0.06216017
-4.354569	dělat;	-0.0490538
-4.053539	dělat?	-0.06026505
-4.354569	dělejte	-0.05934819
-4.354569	dělejte,	-0.06202576
-3.479508	dělá	-0.0721231
-4.354569	dělá,	-0.05544688
-4.6556	dělá-li	-0.06190092
-4.354569	dělám	-0.2403609
-4.6556	děláme	-0.06215057
-4.6556	dělány	-0.06171839
-4.6556	dělání	-0.06216977
-4.6556	děláte	-0.06209297
-4.6556	děláte?	-0.06203537
-4.354569	děsit;	-0.2565905
-4.6556	děsná	-0.06217937
-4.6556	děsné	-0.06218897
-4.6556	děsné,	-0.06207377
-4.6556	děsného	-0.06218897
-4.354569	děsný	-0.06208336
-4.6556	děsných	-0.06218897
-4.6556	děsným	-0.06218897
-4.354569	děsně	-0.06216976
-4.6556	dětem	-0.06218897
-3.655599	děti	-0.01851357
-4.354569	děti!	-0.0618721
-4.6556	děti,	-0.05918393
-4.6556	dětičkami	-0.05632336
-4.6556	dětmi	-0.05908726
-4.6556	dětské	-0.06218897
-4.6556	dětský	-0.06218897
-4.354569	dětství	-0.02698511
-4.6556	děvkař	-0.04751767
-4.6556	děvče	-0.06216017
-4.6556	děvče,	-0.05918393
-4.6556	děvčátko	-0.05937718
-4.6556	děvčátko,	-0.06014934
-4.6556	děťátko	-0.04751767
-4.6556	dřeva	-0.04236432
-4.6556	dřevěná;	-0.06201616
-4.6556	dřevěné	-0.06218897
-4.6556	dřevěný	-0.06216977
-4.6556	dřímal,	-0.06014934
-3.752509	dřív	-0.05071266
-4.6556	dřív;	-0.04751767
-4.6556	důkladnost	-0.04751767
-4.6556	důkladná	-0.04236432
-4.6556	důkladný	-0.06217937
-4.6556	důlek	-0.05819698
-4.354569	důležité	-0.04223368
-4.6556	důležité?	-0.06211217
-4.6556	důležitého	-0.06038073
-4.6556	důležitě	-0.06218897
-4.6556	důležitější	-0.04236432
-4.354569	dům	-0.05901958
-4.354569	důmyslu	-0.2455142
-4.6556	důraz	-0.05632336
-4.6556	důsledný,	-0.06218897
-4.6556	důstojnost:	-0.05918393
-4.6556	důstojnou	-0.04236432
-4.6556	důstojníci	-0.06192013
-4.053539	důstojný	-0.1352991
-4.6556	důstojně	-0.06218897
-4.6556	důstojně;	-0.06217937
-4.6556	důvod	-0.06218897
-4.6556	důvtipu;	-0.05213934
-4.6556	důvěrnosti	-0.0557295
-4.6556	důvěrné	-0.06218897
-4.6556	důvěrníkem,	-0.06014934
-4.6556	důvěrný	-0.06218897
-4.6556	důvěrně	-0.04236432
-4.354569	důvěrou	-0.06217936
-3.877448	důvěru	-0.03564161
-4.6556	důvěru,	-0.04751767
-4.354569	důvěry,	-0.06209296
-4.6556	důvěryhodné	-0.06218897
-4.6556	důvěře;	-0.06200656
-4.6556	džentlmeni	-0.04236432
-4.6556	einrücken!	-0.06066015
-4.6556	elegantně	-0.06218897
-4.6556	elektrickou	-0.06218897
-4.6556	energicky	-0.06205457
-4.6556	energii,	-0.06217937
-4.6556	enyky,	-0.06218897
-4.6556	equina	-0.04236432
-4.354569	erár	-0.2590033
-4.6556	erární	-0.06207377
-4.6556	esli	-0.05975378
-4.6556	et	-0.06218897
-4.6556	evandělíci	-0.06214097
-4.6556	execiráku,	-0.06217937
-4.354569	exempláře	-0.04750773
-4.6556	exhumaci	-0.06218897
-4.6556	existence;	-0.06218897
-4.6556	existoval;	-0.06209297
-4.6556	experimentu	-0.06202576
-4.6556	exponovaná	-0.06218897
-4.178478	extra	-0.04654363
-4.6556	extáze	-0.06218897
-4.6556	fabrikantem	-0.06218897
-4.6556	fabriky	-0.05632336
-4.6556	fair	-0.04236432
-4.6556	fakana?	-0.06218897
-4.354569	faldíčky	-0.0461255
-4.6556	faldíčky!	-0.05908726
-4.6556	faldíčky;	-0.06207377
-4.6556	faldíčky?	-0.06211217
-4.6556	falešné	-0.06216017
-4.6556	falešný	-0.06216977
-4.6556	famílie	-0.06218897
-4.6556	fantazie	-0.06060235
-4.6556	fantazii,	-0.05213934
-4.6556	fantazu	-0.04751767
-4.6556	faru;	-0.05918393
-4.6556	farář	-0.06157424
-4.6556	feldvébl;	-0.05897124
-4.6556	felčar	-0.05937718
-4.6556	fenu	-0.06218897
-4.6556	fialový	-0.06218897
-4.6556	fialovým	-0.06218897
-4.6556	figur	-0.06159346
-4.6556	fiktivní	-0.06207377
-4.6556	filatelista	-0.06193934
-4.6556	filatelista;	-0.06214097
-4.6556	filatelisti,	-0.06166074
-4.6556	filatelistické	-0.06218897
-4.6556	filozofové	-0.06065052
-4.354569	fimbriatus	-0.04705079
-4.6556	fimbriatus;	-0.04751767
-4.6556	firem,	-0.06193934
-4.6556	firma	-0.04236432
-4.178478	firmy	-0.183696
-4.6556	flašinetář,	-0.04751767
-4.6556	flašinetáře,	-0.06128579
-4.354569	flek	-0.04235426
-4.6556	flek;	-0.04751767
-4.6556	flekatá	-0.06157424
-4.6556	fleku	-0.06218897
-4.6556	fleky;	-0.06183368
-4.6556	flirtovala	-0.05975378
-4.6556	flákač,	-0.06144927
-4.6556	flámu	-0.04751767
-4.6556	foliantů	-0.06211217
-4.6556	forma	-0.06060235
-4.6556	formalitách	-0.04236432
-4.6556	formátu	-0.05859396
-4.6556	fortele	-0.061728
-4.6556	forvard	-0.05819698
-4.6556	fotbalista	-0.04751767
-4.6556	fotelu	-0.06218897
-4.6556	fotografie	-0.06192974
-4.6556	fotografie,	-0.06218897
-4.6556	fotografii	-0.06060235
-4.6556	fotografii;	-0.06218897
-4.6556	fotografovat!	-0.06051564
-4.6556	foukl	-0.05977308
-4.6556	fousatý	-0.06201616
-4.6556	fousů	-0.06218897
-4.6556	fošen	-0.04751767
-4.6556	frajlinka,	-0.05937718
-4.6556	francefús,	-0.06218897
-4.354569	francouzsky	-0.04429899
-4.6556	franků	-0.05977308
-4.6556	frigidní	-0.06211217
-4.6556	frkal	-0.04751767
-4.354569	frontu	-0.06158384
-4.354569	frontu!	-0.05878747
-4.178478	frontu,	-0.05201162
-4.6556	fuchtle,	-0.06078535
-4.6556	fuj	-0.06217937
-4.6556	fuk,	-0.04751767
-4.6556	funebráků,	-0.05918393
-4.6556	fungovat	-0.04236432
-4.6556	funkcím,	-0.05660541
-4.6556	funěla	-0.06097789
-4.354569	fyzický	-0.2601472
-4.6556	fyzik	-0.04236432
-4.6556	fádní	-0.06218897
-4.6556	fór	-0.06213137
-4.6556	fůru	-0.06216977
-4.6556	galantnosti	-0.06218897
-4.6556	galoše	-0.04751767
-4.6556	galán	-0.06201616
-4.354569	gatích	-0.04750773
-4.6556	gaunerů	-0.06180486
-4.6556	gauneři,	-0.06204497
-4.6556	gazda	-0.06218897
-4.6556	gazdové	-0.06218897
-4.6556	gazdy	-0.06008183
-4.6556	gazdů	-0.04751767
-4.6556	generace	-0.06218897
-4.6556	generál	-0.04751767
-4.6556	generále,	-0.06215057
-4.6556	geniální	-0.06198736
-4.178478	geometr	-0.03418008
-4.6556	gesta;	-0.06060235
-4.6556	glochidy,	-0.05892289
-4.6556	gotýsek;	-0.06142042
-4.6556	grafolog;	-0.05918393
-4.6556	grafologický	-0.06216017
-4.6556	gramy	-0.06148772
-4.6556	gramů	-0.04236432
-4.6556	gramů,	-0.04751767
-4.6556	grenoble	-0.06218897
-4.354569	grófinka	-0.06131463
-4.6556	grófinkou	-0.04236432
-4.6556	gumou,	-0.06065052
-4.6556	gustem	-0.05859396
-4.6556	gymnazista,	-0.06216977
-4.6556	gypsovku	-0.04236432
-4.178478	hadr,	-0.05929989
-4.6556	hadry,	-0.06137234
-4.6556	hadráře	-0.06216977
-4.6556	haf	-0.06218897
-4.6556	hafhaf,	-0.06218897
-4.6556	hafáček‘	-0.04236432
-4.6556	hajat!	-0.06218897
-4.354569	halt!	-0.06207376
-4.178478	halíře	-0.1613514
-4.354569	halíře;	-0.04662322
-4.6556	hamadan	-0.04236432
-4.178478	hambatá!	-0.05778994
-4.6556	hanbou	-0.04236432
-4.6556	hanbu,	-0.06218897
-4.6556	hanby	-0.04236432
-4.6556	hanbíš,	-0.06217937
-4.6556	hanebnou,	-0.04751767
-4.6556	hantýruje	-0.04236432
-4.6556	hapatykářské,	-0.04751767
-4.6556	haraburdí,	-0.06193934
-4.6556	harant	-0.06193934
-4.6556	haranta	-0.06065052
-4.6556	harf;	-0.0607372
-4.6556	hasit	-0.04236432
-4.6556	hasit,	-0.06060235
-4.6556	hasit;	-0.05918393
-4.6556	hasič	-0.05219827
-4.6556	hasiči	-0.05908726
-4.6556	hasičský	-0.06218897
-4.6556	hasičů	-0.06181447
-4.6556	hasáku,	-0.06216977
-4.6556	havran	-0.04751767
-4.6556	hazard;	-0.06183368
-4.6556	hazardní	-0.06218897
-4.6556	hašením;	-0.06200656
-4.6556	hedvábné	-0.06218897
-4.354569	hedvábí	-0.03621261
-4.6556	hejbaly,	-0.04751767
-4.6556	hejble	-0.04751767
-4.6556	hejblů;	-0.06209297
-4.6556	hekal	-0.04236432
-4.6556	hekal,	-0.06068904
-4.6556	hele,	-0.06216017
-4.6556	hele;	-0.06142042
-4.6556	hemžilo	-0.06218897
-4.6556	hercem	-0.06060235
-4.178478	hergot,	-0.05878748
-4.6556	heroická	-0.06218897
-4.6556	hezky	-0.06218897
-4.178478	hezká	-0.04747796
-4.6556	hezké	-0.06217937
-4.6556	hezký	-0.04751767
-4.6556	hezoučké	-0.06215057
-4.6556	historie	-0.06100677
-4.6556	historie,”	-0.06215057
-4.6556	historii	-0.06216017
-4.6556	historka	-0.06165113
-4.6556	hlad	-0.04236432
-4.6556	hlad,	-0.06218897
-4.6556	hladký	-0.05975378
-4.6556	hlaholil	-0.06125693
-4.6556	hlaholila	-0.06097789
-3.451479	hlas	-0.07248767
-4.178478	hlas,	-0.05977309
-4.053539	hlasem	-0.02359952
-4.178478	hlasitě	-0.03711858
-4.6556	hlasovat	-0.06217937
-4.6556	hlasy	-0.06218897
-4.6556	hlasů,	-0.06218897
-4.6556	hlasů:	-0.06078535
-4.6556	hlasů;	-0.06112225
-4.6556	hlav	-0.06211217
-4.178478	hlava	-0.04231409
-4.6556	hlava;	-0.05632336
-4.6556	hlava?	-0.06203537
-3.956629	hlavní	-0.1305471
-3.810501	hlavně	-0.1028968
-3.479508	hlavou	-0.6792705
-4.6556	hlavou!	-0.06190092
-4.354569	hlavou,	-0.05740191
-4.6556	hlavou;	-0.05918393
-3.810501	hlavu	-0.06587332
-4.6556	hlavu?	-0.06051564
-3.877448	hlavy,	-0.3266169
-4.6556	hlavy;	-0.06218897
-4.354569	hlavě	-0.05208039
-4.6556	hlavě,	-0.06218897
-4.6556	hledají	-0.06217937
-4.053539	hledal	-0.05537864
-4.178478	hledali	-0.05081121
-4.6556	hledali,	-0.05918393
-4.178478	hledat	-0.05783842
-4.6556	hledat!	-0.05908726
-4.6556	hledat;	-0.06014934
-4.6556	hledač	-0.06218897
-4.6556	hlediska	-0.06065052
-4.178478	hledá	-0.05675123
-4.6556	hledá,	-0.06212177
-4.6556	hledám,	-0.06174722
-4.6556	hledáte?	-0.06218897
-4.178478	hledí	-0.05729516
-3.877448	hleděl	-0.05513482
-4.6556	hledět	-0.06038073
-4.354569	hledět,	-0.04734885
-4.6556	hleď	-0.06218897
-4.354569	hleďte	-0.06216976
-4.354569	hloub	-0.02698511
-4.6556	hloubku	-0.04751767
-4.6556	hloubky,	-0.06158385
-4.6556	hloubky;	-0.06204497
-4.6556	hloupost	-0.04751767
-4.6556	hloupost!	-0.06218897
-4.6556	hlouposti	-0.04751767
-4.6556	hlouposti,	-0.06213137
-4.6556	hloupostí;	-0.0618625
-4.6556	hloupá!	-0.06041928
-4.6556	hloupé	-0.04236432
-4.6556	hloupé,	-0.06213137
-4.6556	hloupě	-0.06217937
-4.6556	hlouček	-0.04751767
-4.6556	hluboce	-0.06217937
-4.6556	hluboko	-0.06218897
-4.6556	hluboko,	-0.06217937
-4.6556	hluboká	-0.06218897
-4.354569	hluboké	-0.06216976
-4.6556	hluboký	-0.06217937
-4.6556	hluchý,	-0.05908726
-4.6556	hluk	-0.06218897
-4.6556	hlásal:	-0.06093939
-4.6556	hlásala	-0.06127617
-4.6556	hlásil	-0.06218897
-4.178478	hlásil,	-0.05880683
-4.6556	hlásila	-0.06218897
-4.6556	hlásit	-0.05632336
-4.6556	hlásit,	-0.04751767
-4.6556	hlásím	-0.06216977
-4.354569	hlásím,	-0.2595131
-4.6556	hlášeni	-0.05975378
-4.354569	hlášeno	-0.04235426
-4.6556	hlášení,	-0.05660541
-4.6556	hlídač	-0.06131464
-4.6556	hlídače	-0.04236432
-4.6556	hlídače,	-0.06218897
-4.178478	hm,	-0.05576847
-4.6556	hmatal	-0.0557295
-4.6556	hmotnému	-0.06218897
-4.6556	hmyz	-0.04236432
-4.6556	hnal	-0.06194894
-4.354569	hnali	-0.05623579
-3.42515	hned	-0.09200354
-4.178478	hned,	-0.06213138
-4.6556	hnedle	-0.06216017
-4.6556	hni,	-0.06128579
-4.6556	hniloba	-0.06218897
-4.6556	hnoje,	-0.0607372
-4.6556	hnoje;	-0.06213137
-4.6556	hnojiště	-0.04751767
-4.6556	hnout	-0.04236432
-4.6556	hnusného,	-0.06218897
-4.354569	hnědou	-0.06217936
-4.6556	hnědý	-0.04236432
-4.6556	hnědý,	-0.05975378
-4.6556	hněvem:	-0.06218897
-2.591141	ho	-0.02908832
-4.354569	ho,	-0.06004325
-4.178478	ho;	-0.04282622
-4.354569	ho?	-0.05905825
-4.354569	hoch;	-0.06197774
-4.6556	hochu,	-0.06014934
-4.6556	hochštapler,	-0.06216977
-4.178478	hodil	-0.05826478
-3.376846	hodin	-0.128197
-4.6556	hodin,	-0.06157424
-4.6556	hodina	-0.06157424
-4.6556	hodinka	-0.06216977
-4.6556	hodinku	-0.06157424
-4.354569	hodinky	-0.04586647
-3.810501	hodinu	-0.04482878
-4.354569	hodinu,	-0.06176643
-3.541656	hodiny	-0.06308116
-4.178478	hodiny,	-0.05679982
-4.354569	hodině	-0.06190091
-4.6556	hodna;	-0.06198736
-4.6556	hodnostní	-0.06218897
-4.6556	hodnou	-0.04751767
-4.354569	hodná	-0.04750773
-4.6556	hodná,	-0.06065052
-4.6556	hodné	-0.06195854
-4.6556	hodného	-0.06216017
-4.6556	hodní,”	-0.06210257
-4.354569	hodný	-0.06192012
-4.6556	hodný,”	-0.06216977
-4.354569	hodně	-0.06207376
-4.6556	hodí,	-0.04751767
-4.6556	hojila	-0.04236432
-4.6556	hojnosti	-0.04751767
-4.354569	hokynáře	-0.06151656
-4.354569	hokynáře,	-0.06058308
-4.354569	hokynáři	-0.02698511
-4.6556	holdoval	-0.06100677
-4.6556	holdují	-0.06218897
-4.6556	hole	-0.04751767
-4.6556	hole;	-0.06215057
-4.6556	holedbat	-0.06215057
-4.6556	holemi	-0.05632336
-4.6556	holendr,	-0.06218897
-4.6556	holiči	-0.06060235
-4.178478	holka	-0.1690339
-4.6556	holka,	-0.06211217
-4.6556	holky	-0.04751767
-4.6556	holohlavý,	-0.05975378
-4.6556	holomek	-0.06143965
-4.6556	holomek,	-0.06204497
-4.6556	holomku,	-0.06218897
-4.354569	holá	-0.06217936
-4.6556	holí	-0.06100677
-4.6556	holí;	-0.06171839
-4.6556	holčičce,	-0.04751767
-4.6556	holčička	-0.06127617
-4.6556	holčičku	-0.05975378
-3.956629	honem	-0.03186017
-4.6556	honem!	-0.06066015
-3.877448	honem,	-0.04345801
-4.6556	honem:	-0.06041928
-4.6556	honili	-0.06100677
-4.354569	honit	-0.06077571
-4.6556	honorace,	-0.06208337
-4.6556	honorace;	-0.04751767
-4.6556	honorací?	-0.06217937
-4.6556	honorované	-0.06216977
-4.6556	honosíme,	-0.05660541
-4.6556	hora	-0.04751767
-4.6556	horalově,	-0.05660541
-4.6556	horeček,	-0.06217937
-4.6556	horečku,	-0.06217937
-4.6556	horečkách	-0.04751767
-4.354569	horko	-0.04234422
-4.6556	horký	-0.06217937
-4.6556	horlivostí,	-0.06216977
-4.6556	horlivé	-0.06218897
-4.354569	horlivě	-0.06217936
-4.6556	hornatý	-0.05908726
-4.6556	horny	-0.04751767
-4.6556	horoucně,	-0.06216977
-4.6556	horoval	-0.06100677
-4.6556	horské	-0.06218897
-4.6556	hory,	-0.05975378
-4.354569	horách	-0.04234422
-4.6556	horách;	-0.06198736
-4.6556	horácký	-0.06218897
-4.6556	horár,	-0.06216017
-4.6556	horší	-0.06211217
-4.6556	horšího	-0.04236432
-4.354569	horšího?	-0.06206416
-4.6556	horším	-0.06181447
-4.6556	hospoda,	-0.06213137
-4.354569	hospodou	-0.06211216
-3.956629	hospody	-0.09997204
-4.6556	hospodyně	-0.06196815
-4.6556	hospodě	-0.06217937
-4.6556	hospodě,	-0.04751767
-4.6556	host	-0.06217937
-4.6556	hotel	-0.04751767
-4.6556	hotelovém	-0.06218897
-4.053539	hotelu	-0.03901597
-4.6556	hotelu,	-0.06187211
-4.6556	hotelu;	-0.05918393
-4.6556	hotelů	-0.05937718
-4.6556	hotov	-0.04751767
-4.354569	hotových	-0.04232412
-4.6556	houpe	-0.04751767
-4.6556	housce	-0.06171839
-4.053539	housek	-0.03917794
-4.6556	housek,	-0.04751767
-4.354569	housku	-0.05631363
-3.752509	housky	-0.03475301
-4.6556	housky!	-0.06192974
-4.6556	housky,	-0.06216977
-4.6556	housky;	-0.06207377
-4.6556	housliček	-0.04751767
-4.6556	hovadské	-0.06218897
-4.6556	hovor	-0.0573728
-4.6556	hovor,	-0.05213934
-4.6556	hovořil	-0.05977308
-4.354569	hovořili	-0.06205456
-4.6556	hovořili,	-0.05908726
-4.6556	hovoří	-0.05975378
-4.6556	hořcově	-0.06216977
-4.6556	hoře,	-0.06199696
-4.6556	hořekovaly	-0.06194894
-4.354569	hořela	-0.06216016
-4.6556	hořelo	-0.06218897
-4.6556	hořely	-0.06198736
-4.6556	hořet	-0.06209297
-4.6556	hořké	-0.06218897
-4.6556	hoří	-0.06217937
-4.6556	hra,	-0.06161268
-4.6556	hra;	-0.06166074
-4.6556	hrabal	-0.06125693
-4.354569	hradě	-0.06099714
-4.6556	hraj	-0.06211217
-4.6556	hraje	-0.06218897
-4.6556	hrajete	-0.06131464
-4.6556	hrají	-0.05977308
-4.6556	hranice,	-0.06215057
-4.6556	hranicemi	-0.04236432
-4.6556	hranicemi;	-0.06218897
-4.6556	hraná	-0.06213137
-4.6556	hrda,	-0.06214097
-4.6556	hrdi,	-0.05660541
-4.6556	hrdinné	-0.04751767
-4.6556	hrdinný	-0.04751767
-4.6556	hrdinové	-0.05632336
-4.6556	hrdinská	-0.04751767
-4.6556	hrdinství	-0.05975378
-4.6556	hrdinu,	-0.06060235
-4.6556	hrdiny	-0.05219827
-4.6556	hrdla:	-0.06196815
-4.6556	hrdlem	-0.06218897
-4.6556	hrdlo	-0.04236432
-4.6556	hrdlo:	-0.06212177
-4.6556	hrdě	-0.04236432
-4.6556	hrejte,	-0.06218897
-4.6556	hrnou	-0.06190092
-4.6556	hrnu	-0.05219827
-4.6556	hrnéček	-0.06100677
-4.6556	hrnéčků	-0.04236432
-4.6556	hrníčku,	-0.05977308
-4.6556	hrníčků,	-0.06216977
-4.6556	hrobové	-0.06215057
-4.6556	hrobového	-0.06217937
-4.6556	hrobě,	-0.06198736
-4.6556	hrom	-0.05977308
-4.354569	hromada	-0.06217936
-4.6556	hromadou	-0.06218897
-3.877448	hromadu	-0.06204496
-4.6556	hromady	-0.05908726
-4.6556	hrome,	-0.06177604
-4.6556	hromoval	-0.06188171
-4.6556	hromovat	-0.06093939
-4.6556	hrozil,	-0.06210257
-4.354569	hrozno	-0.05213933
-4.178478	hrozná	-0.06216018
-4.354569	hrozné	-0.06200655
-4.6556	hrozného	-0.06218897
-4.6556	hrozný	-0.06217937
-3.810501	hrozně	-0.06208337
-4.6556	hroznější	-0.06203537
-4.6556	hrtan,	-0.06133388
-4.6556	hrubec	-0.04236432
-4.6556	hrubec;	-0.06198736
-4.6556	hrubosti,	-0.06025541
-4.6556	hrubostmi	-0.04751767
-4.6556	hrubou	-0.06217937
-4.6556	hrubé	-0.06216977
-4.354569	hrubý	-0.2455142
-4.6556	hrubě,	-0.06218897
-4.6556	hry	-0.04236432
-4.6556	hrál	-0.05975378
-4.6556	hrál,	-0.05908726
-4.6556	hrálo,	-0.06203537
-4.6556	hrály	-0.06210257
-4.354569	hrát	-0.06216976
-4.6556	hráč	-0.04236432
-4.6556	hráč;	-0.06178565
-4.6556	hráči,	-0.06218897
-4.354569	hrůza	-0.2580784
-4.354569	hrůza,	-0.05507628
-4.6556	hrůze	-0.04751767
-3.877448	hrůzou	-0.02357853
-3.956629	hrůzou,	-0.05691642
-4.6556	hrůzou;	-0.06218897
-4.354569	hrůzu	-0.06188171
-4.6556	hrůzy,	-0.06201616
-4.178478	huba	-0.06216018
-4.6556	hubatou,	-0.06068904
-4.6556	hubený	-0.05975378
-4.6556	hubou	-0.04236432
-4.354569	hubou,	-0.05412883
-4.354569	hubu,	-0.0532871
-4.354569	huby	-0.2455142
-4.6556	huby,	-0.06200656
-4.6556	hubě	-0.04236432
-4.6556	hubě,	-0.06078535
-4.354569	hubě;	-0.05915492
-4.6556	hudba	-0.0573728
-4.6556	hudba,	-0.05213934
-4.6556	hudby,	-0.06008183
-4.6556	hudlaři	-0.04751767
-4.6556	hum,”	-0.06218897
-4.6556	humánní	-0.04751767
-4.6556	hučet	-0.06210257
-4.6556	hučí	-0.04751767
-4.6556	hvízdl	-0.04751767
-4.6556	hvězd;	-0.06142042
-4.6556	hvězdy	-0.05975378
-4.6556	hvězdář	-0.06060235
-4.6556	hvězdáře	-0.06008183
-4.6556	hygiena;	-0.04751767
-4.6556	hygienickým	-0.06218897
-4.6556	hypochondr	-0.06127617
-4.6556	hysterické	-0.04751767
-4.6556	hysterku,	-0.06216977
-4.354569	hádal	-0.2501948
-4.6556	hádali	-0.05632336
-4.6556	hádky,	-0.06218897
-4.6556	hájil	-0.06217937
-4.6556	házel	-0.06218897
-4.6556	hřbetě	-0.04751767
-4.354569	hřebík	-0.03182928
-4.6556	hřebík,	-0.06127617
-4.354569	hřeje	-0.04108651
-4.354569	hřích	-0.04235426
-4.354569	hříchy,	-0.05961862
-4.6556	hříchů	-0.04236432
-4.6556	hříšník,	-0.06218897
-4.6556	hříšně	-0.06217937
-4.354569	hůl	-0.02698511
-4.6556	hůlka	-0.04236432
-4.6556	hůř:	-0.06193934
-2.81675	i	-0.08340999
-4.6556	ignorovala;	-0.06208337
-4.6556	ihned	-0.06218897
-4.6556	ikonou	-0.06217937
-4.6556	ilegálních	-0.06218897
-4.6556	iluze	-0.04236432
-4.6556	import	-0.06214097
-4.354569	in	-0.06217936
-4.6556	indigem,	-0.06218897
-4.178478	informace	-0.03892485
-4.6556	informovat	-0.05908726
-4.6556	injekci	-0.04751767
-4.6556	inkoustem	-0.04751767
-4.6556	inkriminovaného	-0.06217937
-4.6556	inkriminovaný	-0.06216017
-4.6556	inkunábulí	-0.06060235
-4.354569	inspektor	-0.04687186
-4.6556	inspektory	-0.06157424
-4.6556	inspektoři,	-0.06218897
-4.6556	inspirace,	-0.06193934
-4.6556	instance,	-0.05213934
-4.6556	instanci!	-0.06200656
-4.6556	instinkt;	-0.04751767
-4.6556	instrumentem	-0.06218897
-4.6556	intelektuála:	-0.06125693
-4.6556	inteligentní	-0.04751767
-4.6556	intervalech,	-0.06218897
-4.6556	intimity,	-0.06218897
-4.6556	intuitivní	-0.06218897
-4.6556	inu,	-0.06139158
-4.6556	invalida	-0.04236432
-4.6556	invalidita,	-0.06215057
-3.877448	invalidní	-0.1836672
-4.6556	inzerát,	-0.05632336
-4.6556	inzerátech	-0.06211217
-4.6556	inšpicírovat	-0.06218897
-4.354569	izby	-0.04750773
-4.6556	izbě	-0.06218897
-4.6556	ja,	-0.06215057
-2.4597	jak	-0.2863667
-3.956629	jakmile	-0.4392163
-2.250766	jako	-0.1139009
-4.053539	jakoby	-0.06205457
-3.614207	jakou	-0.07209081
-4.6556	jakoukoliv	-0.06216017
-4.6556	jakoupak	-0.06213137
-4.178478	jakousi	-0.06216977
-4.354569	jakož	-0.2595324
-3.877448	jakpak	-0.1095879
-3.224236	jaksi	-0.05082525
-4.354569	jaká	-0.05212951
-3.655599	jaké	-0.05090972
-4.6556	jakého	-0.0557295
-4.6556	jakékoliv	-0.06217937
-4.6556	jakém	-0.06216977
-3.956629	jakési	-0.06211218
-3.541656	jaký	-0.03564702
-4.6556	jakých	-0.06218897
-4.6556	jakýchsi	-0.06218897
-4.6556	jakým	-0.06217937
-3.956629	jakýmsi	-0.06215058
-4.053539	jakýsi	-0.06215058
-3.877448	jakživ	-0.1181484
-4.354569	jakživi	-0.06071793
-4.6556	jakživy	-0.05937718
-4.6556	jakžtakž	-0.06218897
-4.354569	jal	-0.05217862
-4.6556	jamce	-0.06218897
-4.6556	japabyne,	-0.06216977
-4.053539	jasné	-0.02432274
-4.6556	jasným	-0.06216017
-4.6556	jasnějších	-0.06218897
-4.6556	jaterní	-0.06218897
-4.6556	javor	-0.05819698
-4.6556	javoru	-0.0557295
-4.6556	jazyk;	-0.06216017
-4.6556	jazykem	-0.06060235
-4.6556	jazykem,	-0.06117035
-3.376846	jde	-0.1914542
-4.6556	jde!	-0.06203537
-4.6556	jdeme	-0.0614685
-4.6556	jdete	-0.04236432
-4.6556	jdeš	-0.06218897
-4.6556	jdeš?	-0.06210257
-4.178478	jdi	-0.04784518
-4.354569	jdi,	-0.06077571
-4.354569	jdou	-0.04604582
-3.509471	jdu	-0.1428601
-4.6556	jdu,	-0.06217937
-4.178478	jděte	-0.05180523
-4.6556	jděte,	-0.06065052
-1.956629	je	-0.1859919
-4.178478	je!	-0.05773176
-3.400327	je,	-0.1710071
-4.6556	je,”	-0.06218897
-3.752509	je-li	-0.1355572
-4.6556	je:	-0.05213934
-4.053539	je?	-0.05728545
-4.6556	jed!	-0.06051564
-4.6556	jed,	-0.05660541
-4.6556	jede	-0.06215057
-4.6556	jedem	-0.04236432
-2.907411	jeden	-0.1368408
-4.178478	jeden,	-0.170481
-4.6556	jeden;	-0.06216977
-4.6556	jedenadvacet	-0.06218897
-4.6556	jedenadvacátém	-0.05219827
-3.614207	jedenáct	-0.09231806
-4.354569	jedenácté	-0.06213136
-4.6556	jedete,	-0.06218897
-4.6556	jedinečných	-0.06216977
-4.6556	jedinou	-0.06217937
-4.354569	jediné	-0.06216976
-4.354569	jediného	-0.06217936
-4.6556	jedinému	-0.06218897
-4.178478	jediný	-0.06137235
-3.400327	jedna	-0.2129888
-4.6556	jedna,	-0.06217937
-4.053539	jednak	-0.1451064
-4.6556	jednatelem,	-0.06218897
-4.6556	jedni	-0.06218897
-3.810501	jedno	-0.06199696
-4.178478	jedno,	-0.05861332
-4.6556	jednoduchá	-0.04236432
-4.6556	jednoduché,	-0.05918393
-4.6556	jednoduché;	-0.05213934
-4.6556	jednoduchý	-0.06203537
-4.6556	jednoduchý,	-0.06181447
-4.053539	jednoduše	-0.06167035
-3.42515	jednoho	-0.07941543
-3.877448	jednom	-0.05996608
-4.053539	jednomu	-0.06215058
-4.6556	jednomu,	-0.05213934
-4.6556	jednonohého	-0.06218897
-4.354569	jednonohý	-0.04235426
-4.6556	jednotu	-0.06216017
-3.111531	jednou	-0.05663259
-4.178478	jednou,	-0.04939992
-3.614207	jednu	-0.06168957
-4.6556	jednání	-0.05975378
-4.6556	jednání;	-0.04751767
-3.509471	jedné	-0.05768326
-4.053539	jedním	-0.06215058
-4.6556	jedněch	-0.06212177
-4.354569	jedu	-0.06056381
-4.354569	jedu,	-0.06217936
-4.6556	jedí	-0.06153579
-4.6556	jehel	-0.04236432
-4.6556	jehel,	-0.04751767
-4.053539	jehla	-0.04469889
-4.6556	jehlami;	-0.06218897
-4.6556	jehle	-0.06217937
-4.6556	jehlou	-0.06218897
-4.6556	jehlou?	-0.06097789
-3.810501	jehlu	-0.14677
-4.6556	jehlu,	-0.06201616
-4.178478	jehly	-0.03800236
-4.6556	jehlám,	-0.06193934
-3.03235	jeho	-0.06795178
-4.6556	jeho,	-0.06153579
-3.701357	jej	-0.05698442
-4.6556	jej,	-0.06218897
-4.6556	jejej,	-0.05213934
-3.376846	jejich	-0.06160307
-3.42515	její	-0.08070531
-4.6556	jejích	-0.06218897
-4.354569	jejího	-0.06216976
-4.6556	jejím	-0.06216977
-4.6556	jejími	-0.06218897
-4.6556	jejímu	-0.06216977
-4.6556	jektaje	-0.06201616
-4.178478	jektal	-0.05809041
-3.752509	jel	-0.1454898
-4.6556	jel,	-0.05892289
-4.6556	jela	-0.06057345
-4.6556	jelen,	-0.06218897
-4.6556	jeleních	-0.06218897
-4.178478	jeli	-0.03971399
-4.6556	jelikož	-0.06218897
-4.6556	jelimánek,	-0.05660541
-4.6556	jelitem,	-0.06216977
-4.6556	jelo	-0.05819698
-4.6556	jemné	-0.06218897
-4.6556	jemný	-0.06139158
-4.6556	jemu	-0.0573728
-2.721101	jen	-0.09869772
-2.774786	jenom	-0.03151935
-4.6556	jenom,	-0.05660541
-4.6556	jenomže,	-0.06218897
-4.178478	jenže	-0.06135311
-4.6556	jest	-0.06216977
-3.752509	jestli	-0.1313551
-4.354569	jet	-0.04500855
-4.6556	jet,	-0.06151656
-4.6556	jeti	-0.06169918
-4.6556	jevišti	-0.04236432
-4.354569	jezdil	-0.06094901
-4.354569	jezdila	-0.0588842
-4.6556	jezdí	-0.06008183
-4.6556	jezdí,	-0.06213137
-4.6556	jezevčík	-0.0573728
-4.6556	ječela	-0.04236432
-4.178478	jeďte	-0.1629652
-4.6556	jeřáby;	-0.06166074
-4.6556	ješitnost	-0.06060235
-4.6556	ješitnosti	-0.06218897
-4.6556	ješitností,	-0.06158385
-2.736521	ještě	-0.08087747
-4.6556	ještě,	-0.06217937
-4.6556	jež	-0.06217937
-4.6556	ježibabo	-0.04751767
-4.6556	ježit	-0.06217937
-4.6556	ježíšmankote,	-0.06210257
-4.053539	ježíšmarjá,	-0.05945446
-2.81675	ji	-0.05336848
-4.6556	ji!	-0.05908726
-4.178478	ji,	-0.04412894
-4.6556	ji;	-0.06025541
-4.6556	ji?”	-0.06218897
-3.752509	jich	-0.05643036
-3.33338	jim	-0.1135031
-4.178478	jim,	-0.0533263
-4.354569	jim:	-0.06215056
-4.6556	jimi:	-0.05660541
-3.752509	jinak	-0.3069491
-4.178478	jinak,	-0.05867138
-4.6556	jinak,”	-0.06215057
-4.6556	jinak;	-0.06216017
-4.6556	jinam	-0.06216017
-4.354569	jinde	-0.02698511
-4.053539	jindy	-0.04207287
-4.354569	jindy,	-0.044399
-4.354569	jinou	-0.06215056
-4.053539	jiná	-0.04212314
-4.178478	jináč	-0.05177574
-3.576418	jiné	-0.04152966
-4.6556	jiné-ulice	-0.06175683
-3.541656	jiného	-0.1552072
-4.178478	jiného,	-0.05180523
-4.6556	jiném	-0.06218897
-4.354569	jinému,	-0.05636227
-3.956629	jiní	-0.06172801
-4.6556	jiní,	-0.05660541
-4.6556	jiní;	-0.05918393
-3.810501	jiný	-0.04713031
-4.354569	jiný,	-0.044399
-3.614207	jiných	-0.04220354
-4.6556	jiným	-0.06218897
-3.956629	jiným,	-0.05574899
-4.6556	jinými	-0.06218897
-4.6556	jistotu	-0.0557295
-4.354569	jistotu,	-0.05887453
-4.6556	jistou	-0.06217937
-4.6556	jisté	-0.0614685
-4.6556	jisté,	-0.06065052
-3.701357	jistě	-0.05156924
-4.354569	jistě,	-0.05498846
-4.6556	jižní	-0.06218897
-4.354569	jmenoval	-0.05206074
-4.178478	jmenoval,	-0.04660333
-4.6556	jmenoval;	-0.05859396
-4.6556	jmenovalo:	-0.06218897
-4.6556	jmenuj	-0.06192974
-4.053539	jmenuje	-0.05201162
-4.178478	jmenuje,	-0.05747956
-4.6556	jmenuju	-0.06218897
-4.6556	jmenují	-0.04236432
-4.354569	jména	-0.05844876
-4.6556	jména,	-0.06218897
-3.701357	jménem	-0.09894818
-4.053539	jméno	-0.06207377
-4.053539	jménu	-0.1499714
-3.576418	jo	-1.094109
-3.655599	jo,	-0.2411165
-4.178478	jo;	-0.03628395
-4.6556	jo?	-0.06217937
-1.830173	jsem	-0.2663741
-3.137085	jsem,	-0.2934445
-4.6556	jsem:	-0.06218897
-4.053539	jsem;	-0.1288474
-3.479508	jsi	-0.0862171
-2.823091	jsme	-0.2225224
-4.354569	jsme,	-0.06150695
-2.983501	jsou	-0.07213513
-4.6556	jsou,	-0.04751767
-4.6556	jsou:	-0.06193934
-2.899724	jste	-0.1360663
-4.6556	jste,	-0.06212177
-4.6556	jste?	-0.06218897
-4.6556	justice	-0.05819698
-4.6556	justiční	-0.06218897
-4.6556	jutou,	-0.06218897
-4.6556	jutu,	-0.06218897
-2.130555	já	-0.4290626
-4.6556	já!	-0.06207377
-3.701357	já,	-0.08606727
-4.178478	já;	-0.04006764
-4.354569	já?	-0.06212176
-4.6556	jámu	-0.06157424
-4.6556	játrech;	-0.06204497
-4.178478	jářku,	-0.05874879
-4.6556	jé,	-0.06191052
-2.939596	jí	-0.06320411
-4.354569	jí,	-0.05891321
-4.354569	jím	-0.04111674
-3.655599	jít	-0.02690183
-4.6556	jít,	-0.0618625
-4.6556	jízdní	-0.06216977
-4.6556	jízlivě	-0.06216977
-2.485338	k	-0.2885317
-4.6556	kabristanů	-0.04751767
-4.6556	kabát;	-0.06216017
-4.354569	kabátu	-0.02698511
-4.6556	kacíři,	-0.05660541
-4.6556	kadenci	-0.04751767
-4.6556	kadenci,	-0.06218897
-4.6556	kafe	-0.04236432
-4.6556	kafe,	-0.06218897
-4.6556	kafemlejnek	-0.06060235
-4.6556	kafi	-0.06218897
-4.6556	kajícníka	-0.05908726
-4.6556	kakabus	-0.06127617
-4.6556	kaktus	-0.06218897
-4.6556	kaktus,	-0.06171839
-4.6556	kaktusu;	-0.05918393
-3.810501	kaktusy	-0.02876137
-4.6556	kaktusy!	-0.06093939
-4.6556	kaktusy,	-0.06218897
-4.178478	kaktusy;	-0.04436901
-4.354569	kaktusy?	-0.06065051
-4.6556	kaktusář	-0.06216017
-4.6556	kaktusář,	-0.04751767
-4.354569	kaktusáři	-0.06192973
-4.354569	kaktusáři,	-0.03710841
-4.6556	kaktusářů	-0.04751767
-4.6556	kaktusářů;	-0.06206417
-4.178478	kaktusů	-0.3570128
-4.6556	kaktusů,	-0.05897124
-4.6556	kalamáře	-0.06194894
-4.6556	kalika	-0.06157424
-4.6556	kaliko,	-0.06218897
-4.6556	kalupu	-0.0557295
-4.6556	kaluž	-0.06218897
-4.178478	kam	-0.06156463
-4.6556	kamarád,	-0.06218897
-4.354569	kamaráda	-0.02698511
-4.354569	kamaráda,	-0.06216016
-4.6556	kamaráda;	-0.06157424
-4.6556	kamarádi,	-0.06178565
-4.6556	kamarádil	-0.05219827
-4.6556	kamarády;	-0.05918393
-4.6556	kameloti	-0.06217937
-4.6556	kamenech	-0.04236432
-4.6556	kamenné	-0.06218897
-4.6556	kameny	-0.06218897
-4.6556	kampanile	-0.05819698
