
\data\
ngram 1=10393
ngram 2=33617
ngram 3=2763

\1-grams:
-2.308458	!	-2.411502
-4.741427	'	-0.08409967
-4.741427	(	-0.08409967
-4.741427	)	-0.07207176
-1.056044	,	-0.4213288
-3.051231	-	-0.7393124
-1.406773	.	-3.311789
-2.383492	:	-0.1675425
-1.744041	;	-0.412012
-1.286278	</s>
-3.486155	<num>	-0.3707737
-99	<s>	-0.5301191
-2.377815	?	-2.342421
-2.52924	A	-0.3246508
-4.741427	Aby	-0.08356369
-3.963276	Abych	-0.125592
-4.440397	Abys	-0.2755357
-3.700035	Abyste	-1.015725
-4.741427	Acta	-0.08409967
-4.440397	Advokát	-0.08405238
-4.741427	Afganistan	-0.04415316
-4.741427	Afrika	-0.04415316
-3.787185	Aha	-0.9793204
-4.741427	Akvárium	-0.04415316
-2.620853	Ale	-0.1985801
-4.741427	Alpách	-0.06674293
-4.440397	Amen	-0.2357626
-4.741427	Ameriky	-0.06674293
-4.741427	Amin	-0.07207176
-3.565336	Amina	-0.06087492
-4.741427	Aminko	-0.04415316
-3.896329	Amino	-0.2974912
-4.440397	Aminu	-0.04196273
-4.440397	Amině	-0.06673472
-4.741427	Anatolii	-0.07207176
-4.741427	Andrej	-0.08409967
-4.741427	Andrejeva	-0.04415316
-4.440397	Andulo	-0.2357626
-4.741427	Anebo	-0.08402088
-4.741427	Anglii	-0.07566062
-4.741427	Angličani	-0.07927584
-4.042458	Ani	-0.07131798
-4.741427	Annunzia	-0.04415316
-4.042458	Ano	-0.3085217
-3.787185	Anton	-0.9851822
-4.264306	Antona	-0.1488837
-4.741427	Antonína	-0.04415316
-4.741427	Arenelle	-0.04415316
-4.042458	Armén	-0.07500154
-4.741427	Arméni	-0.07620643
-4.741427	Arménie	-0.082798
-4.741427	Arménovi	-0.06674293
-4.042458	Asi	-0.366139
-4.741427	Aspoň	-0.08262414
-4.741427	Astrophytum	-0.08409967
-4.741427	Aszu	-0.08409967
-4.741427	Atak	-0.07566062
-4.741427	Au	-0.08196763
-4.042458	Ať	-0.2720947
-4.264306	Až	-0.07878172
-4.741427	BALADA	-0.08406027
-4.741427	BARONA	-0.08409967
-4.741427	Ba	-0.08384752
-4.440397	Babka	-0.06657071
-4.741427	Bacco	-0.04415316
-4.741427	Badenu	-0.08211009
-3.462674	Balabán	-0.4168931
-4.741427	Balabánovi	-0.06674293
-4.741427	Baladu	-0.08373716
-4.741427	Balady	-0.08373716
-4.741427	Bandinelliho	-0.04415316
-4.741427	Baran	-0.04415316
-4.440397	Baron	-0.2756775
-3.419208	Bartošek	-0.1941239
-4.042458	Bartoškovi	-0.03441571
-4.741427	Baryna	-0.08392633
-4.440397	Barynu	-0.04180647
-4.264306	Baum	-0.143022
-4.741427	Bejček	-0.04415316
-4.741427	Bellevue	-0.08081831
-4.440397	Benátkách	-0.04414451
-4.741427	Beran	-0.04415316
-4.741427	Bergr	-0.04415316
-4.741427	Bez	-0.08409967
-4.741427	Bezmoc	-0.0798728
-4.741427	Bezuchý	-0.04415316
-4.741427	Bhútánu	-0.04415316
-4.741427	Biagio	-0.08234742
-4.741427	Biarritzi	-0.07207176
-4.741427	Bimbal	-0.08234742
-4.741427	Bimbala	-0.08147657
-4.440397	Bobek	-0.03093975
-4.741427	Bobot	-0.08228415
-4.264306	Boha	-0.1846787
-4.741427	Bohu	-0.08409967
-4.741427	Bolest	-0.08409967
-4.440397	Bolívie	-0.06537987
-4.741427	Borneo	-0.04415316
-4.741427	Boucháme	-0.08338226
-4.264306	Bože	-0.4285422
-4.741427	Boží	-0.08389481
-4.741427	Brazílie	-0.04415316
-4.741427	Briggs	-0.08374505
-4.741427	Bristol	-0.04415316
-4.741427	Brna	-0.07620643
-4.741427	Browning	-0.07927584
-4.741427	Bubnech	-0.06674293
-4.741427	Budete	-0.0837214
-4.741427	Budečské	-0.08401301
-4.741427	Bukurešti	-0.07620643
-4.741427	Butera	-0.04415316
-4.440397	Buď	-0.08334279
-4.741427	Bydlí	-0.08260834
-3.662246	Byl	-0.1503095
-4.042458	Byla	-0.1395426
-3.700035	Bylo	-0.1321381
-4.741427	Byly	-0.07545979
-4.440397	Bystřice	-0.2753308
-4.741427	Básník	-0.07566062
-4.741427	Bílek	-0.04415316
-4.741427	Být	-0.08406816
-4.741427	Běžte	-0.07566062
-4.264306	Bůh	-0.07921211
-4.741427	Bůhví	-0.08234742
-4.741427	CUPOVI	-0.06104066
-4.741427	Castrogiovanni	-0.07207176
-4.440397	Cařihradě	-0.06400428
-4.440397	Celou	-0.08390268
-4.741427	Celé	-0.08390269
-4.741427	Celý	-0.0840524
-4.440397	Cephalocereus	-0.2757012
-4.741427	Cestou	-0.07566062
-4.741427	Charles	-0.08409967
-4.741427	Chemického	-0.08409179
-4.042458	Chemickém	-0.5162504
-4.741427	Chemický	-0.08409967
-4.741427	Chlapečka	-0.08350848
-4.741427	Chmelenského	-0.0827743
-4.741427	Chvilku	-0.07850254
-4.741427	Chvíli	-0.07850254
-4.741427	Chytli	-0.04415316
-4.741427	Chámovo	-0.06674293
-4.741427	Cikán	-0.08147657
-3.462674	Co	-0.0455737
-3.787185	Copak	-0.1108766
-4.741427	Copák	-0.0798728
-4.741427	Cože	-0.04415316
-4.741427	Curych	-0.06674293
-4.440397	Curychu	-0.08194387
-4.264306	Cítil	-0.1959755
-4.741427	DIRIGENTA	-0.08409967
-4.741427	Dar	-0.08407603
-4.741427	Darebáci	-0.04415316
-4.741427	De	-0.08409967
-4.264306	Dejte	-0.1919953
-4.741427	Den	-0.08402877
-4.741427	Devět	-0.08399725
-4.741427	Dickense	-0.04415316
-4.139368	Dillinger	-0.07430921
-4.741427	Dimitra	-0.08406816
-4.741427	Divná	-0.08337437
-4.741427	Dlouhé	-0.08409967
-4.741427	Dnes	-0.08150034
-4.741427	Dneska	-0.08409179
-4.042458	Do	-0.05989284
-4.264306	Dobeš	-0.1620626
-4.440397	Dobrou	-0.2755909
-4.264306	Dobrá	-0.153427
-4.741427	Dobré	-0.08409179
-4.741427	Dobrý	-0.08393421
-4.741427	Docent	-0.08392633
-4.741427	Dohromady	-0.07545979
-4.741427	Dokazoval	-0.04415316
-4.741427	Dokonale	-0.08409967
-3.896329	Doktor	-0.1824888
-4.264306	Doktore	-0.4285422
-4.741427	Doktoři	-0.08404452
-4.264306	Doležal	-0.1843753
-4.741427	Dominga	-0.04415316
-4.741427	Domácí	-0.08391057
-4.741427	Doprovodím	-0.08356369
-4.741427	Dosavadní	-0.08408391
-4.741427	Dostanu	-0.08402088
-4.264306	Douglas	-0.05793119
-4.741427	Druhou	-0.082798
-4.741427	Dudenka	-0.04415316
-4.440397	Dudáš	-0.02507796
-4.741427	Dundr	-0.0828296
-4.440397	Dva	-0.08398148
-4.741427	Dvaapadesát	-0.08399725
-4.741427	Dvanácti	-0.08409967
-4.440397	Dydydy	-0.2357626
-4.741427	Dynda	-0.082798
-4.440397	Dyť	-0.2729433
-4.741427	DÍTĚTEM	-0.06104066
-4.741427	Dámě	-0.08210218
-4.741427	Démon	-0.06674293
-4.440397	Děkuju	-0.2757012
-4.741427	Dělají	-0.07545979
-4.741427	Důstojnosti	-0.04415316
-4.440397	Echinocactus	-0.08409178
-4.741427	Egypt	-0.04415316
-4.741427	Ehm	-0.04415316
-4.741427	Einbeinig	-0.04415316
-4.741427	EmO	-0.04415316
-4.741427	Evropy	-0.06674293
-4.440397	Evropě	-0.08397359
-4.440397	Falešný	-0.08406026
-4.741427	Filipíny	-0.04415316
-4.440397	Firbas	-0.0814924
-4.741427	Firbase	-0.07620643
-4.741427	Fochovy	-0.08407603
-4.741427	Fodor	-0.04415316
-4.741427	Formosu	-0.08210218
-4.741427	Fotr	-0.04415316
-4.440397	Francii	-0.02507796
-4.741427	Frič	-0.04415316
-4.741427	Frontdiensttauglich	-0.08196763
-4.741427	Fuj	-0.08409179
-4.741427	GANDARY	-0.06104066
-4.741427	GRÓFINKA	-0.06104066
-4.741427	Gadete	-0.08409967
-4.042458	Gandara	-0.1484594
-4.741427	Gandarou	-0.08228415
-4.741427	Gandarovi	-0.08409967
-4.741427	Gandarovu	-0.08409967
-4.741427	Gandarovy	-0.08408391
-4.741427	Gandaru	-0.08409179
-4.741427	Gandary	-0.06674293
-4.741427	Gandarův	-0.08406027
-3.361216	Gierke	-0.1275503
-4.741427	Gierkeho	-0.08409967
-4.741427	Gierkem	-0.06674293
-4.741427	Gierkemu	-0.06674293
-4.440397	Gierkovo	-0.06673472
-4.440397	Gierkovu	-0.08406026
-4.741427	Gottfrieda	-0.08409967
-4.741427	Graessnerii	-0.04415316
-4.264306	Grenoblu	-0.02301568
-4.741427	Großpapa	-0.08196763
-4.741427	Grusona	-0.0827743
-4.741427	Gráessner	-0.04415316
-4.741427	Grébovky	-0.04415316
-4.440397	Grófinka	-0.04252654
-4.741427	Guinea	-0.08196763
-4.741427	HAVLENY	-0.06104066
-4.741427	HIRSCHE	-0.06104066
-4.741427	HISTORIE	-0.08409967
-4.741427	Hadry	-0.04415316
-4.741427	Hamsuna	-0.04415316
-4.440397	Hannover	-0.04180647
-4.264306	Hanák	-0.143022
-4.741427	Hardyho	-0.04415316
-4.264306	Harvard	-0.4681104
-4.741427	Hasit	-0.04415316
-4.741427	HavIeno	-0.04415316
-4.741427	Havelka	-0.04415316
-4.741427	Havelko	-0.04415316
-4.042458	Havlem	-0.06452375
-3.510978	Havlena	-0.1183536
-4.264306	Havleno	-0.143022
-4.741427	Havlenovi	-0.08228415
-4.741427	Havlenu	-0.07207176
-4.741427	Havleny	-0.08211009
-4.440397	Havlenův	-0.08368985
-4.741427	Helejte	-0.04415316
-4.440397	Hergot	-0.04180647
-4.741427	Himl	-0.04415316
-3.462674	Hirsch	-0.08370003
-3.662246	Hirsche	-0.06449664
-4.042458	Hirschem	-0.01487042
-4.139368	Hirschovi	-0.06278156
-4.741427	Hirschovou	-0.07207176
-3.838337	Hirschová	-0.1431552
-4.741427	Hirschové	-0.06674293
-4.440397	Hlas	-0.2756775
-4.741427	Hledat	-0.07207176
-4.741427	Hledejte	-0.08350848
-4.741427	Hledá	-0.07566062
-4.264306	Hm	-0.4285422
-4.440397	Hned	-0.08134974
-4.440397	Hochman	-0.07204745
-4.741427	Hochmana	-0.04415316
-4.741427	Hochmane	-0.04415316
-4.741427	Hohe	-0.08409967
-4.440397	Holan	-0.2357626
-4.440397	Holane	-0.2357626
-4.264306	Holben	-0.07655123
-4.741427	Holbene	-0.04415316
-4.741427	Holbenovi	-0.07207176
-3.896329	Holbenovy	-0.2659382
-4.264306	Holbenových	-0.2020279
-4.440397	Holenku	-0.2357626
-3.250066	Holub	-0.9521757
-4.741427	Holube	-0.04415316
-4.741427	Holubem	-0.08211009
-4.741427	Honem	-0.04415316
-4.741427	Honit	-0.08404452
-4.741427	Hooker	-0.04415316
-3.662246	Horvát	-0.04669343
-4.440397	Horváta	-0.06673472
-4.741427	Horvátovi	-0.04415316
-4.741427	Horálek	-0.04415316
-4.741427	Horší	-0.0798728
-4.042458	Hospodin	-0.1503645
-4.741427	Hospodinem	-0.04415316
-4.264306	Houdek	-0.153427
-4.042458	Hrom	-0.2467203
-4.741427	Hromádka	-0.04415316
-4.741427	Huber	-0.082798
-4.741427	Huga	-0.06674293
-3.565336	Hugo	-0.3292727
-4.741427	Hum	-0.04415316
-4.741427	Husa	-0.08409967
-4.741427	Hybernské	-0.08395785
-4.264306	I	-0.08056426
-4.741427	Indie	-0.04415316
-4.741427	Indiáni	-0.08394209
-4.741427	Indiánům	-0.07927584
-4.139368	Inu	-0.441195
-4.741427	Irma	-0.08337437
-4.440397	Irmu	-0.0810722
-4.741427	Itálie	-0.04415316
-4.741427	Itálii	-0.08400512
-4.741427	Ivan	-0.04415316
-4.741427	Ivanův	-0.08406027
-4.741427	JEHLA	-0.06104066
-4.741427	JUC	-0.06674293
-4.741427	JURAJI	-0.08409967
-3.595299	Jak	-0.2990092
-4.741427	Jakmile	-0.08304285
-4.440397	Jako	-0.08282168
-4.264306	Jakpak	-0.0407633
-4.741427	Jaksi	-0.08384752
-4.741427	Jaké	-0.08406027
-4.139368	Jakživ	-0.1587038
-4.440397	Jakživi	-0.08127839
-4.741427	Jan	-0.08409179
-4.741427	Jana	-0.08409967
-4.741427	Jandera	-0.04415316
-4.264306	Janské	-0.1584896
-4.741427	Jasiny	-0.07207176
-4.741427	Jasině	-0.06674293
-4.741427	Jdi	-0.04415316
-4.440397	Jděte	-0.04196273
-3.787185	Je	-0.2179799
-4.440397	Jeden	-0.08390268
-4.741427	Jedenáctá	-0.08408391
-4.440397	Jedna	-0.08406026
-4.440397	Jednoho	-0.08395784
-3.595299	Jednou	-0.02487092
-4.440397	Jejej	-0.2357626
-4.741427	Jelikož	-0.07566062
-3.787185	Jen	-0.1592858
-4.042458	Jenom	-0.1437276
-3.896329	Jenže	-0.1707436
-4.440397	Jestli	-0.07565258
-4.741427	Jezusmankote	-0.08196763
-3.896329	Ještě	-0.1248542
-4.440397	Ježíšikriste	-0.2357626
-3.741427	Ježíšmarjá	-1.001438
-4.741427	Jinak	-0.0834296
-4.741427	Jindy	-0.07566062
-4.440397	Jináč	-0.08222876
-4.741427	Jistě	-0.08210218
-4.139368	Jo	-0.441195
-4.741427	Josefa	-0.08409967
-4.440397	Jsem	-0.08408389
-3.595299	Juraj	-1.190169
-4.139368	Juraje	-0.4811099
-4.741427	Jurajem	-0.08409967
-4.264306	Juraji	-0.1597505
-4.741427	Justitze	-0.08409967
-2.449171	Já	-0.484444
-4.741427	Jílek	-0.04415316
-4.440397	K	-0.08405238
-4.741427	KAKTUS	-0.06104066
-4.741427	KALINY	-0.06104066
-4.741427	KASAŘI	-0.0828217
-4.741427	KRIMINÁLNÍKA	-0.06104066
-4.741427	KTERÝ	-0.08409967
-4.264306	Kadaník	-0.08226833
-4.741427	Kadaníka	-0.08228415
-4.741427	Kadaníkovi	-0.07207176
-4.741427	Kadaníkovou	-0.04415316
-4.741427	Kadaníková	-0.08409179
-4.440397	Kadaníkové	-0.03548302
-4.741427	Kalina	-0.08409967
-3.250066	Kalous	-0.3459633
-4.741427	Kalousi	-0.04415316
-4.741427	Kalousovi	-0.08338226
-3.510978	Kalousová	-0.3594581
-4.741427	Kalousové	-0.07566062
-4.741427	Kalousovům	-0.07620643
-4.741427	Kalousů	-0.08304285
-4.440397	Kamaráde	-0.2357626
-4.741427	Kamenice	-0.08081831
-4.741427	Kamenici	-0.08147657
-4.042458	Karas	-0.07809773
-4.741427	Karláku	-0.04415316
-4.741427	Karpatech	-0.07620643
-4.741427	Kavka	-0.04415316
-4.741427	Každej	-0.08406816
-4.741427	Každá	-0.08409967
-4.139368	Každý	-0.08003981
-4.741427	Kde	-0.0798728
-3.838337	Kdepak	-0.7144843
-4.264306	Kdo	-0.08263995
-4.741427	Kdosi	-0.08394209
-3.896329	Kdyby	-0.187991
-4.264306	Kdybych	-0.08104842
-4.741427	Kdybychom	-0.08387117
-4.440397	Kdybyste	-0.2755357
-2.985553	Když	-0.2804115
-4.440397	Keith	-0.06233455
-4.741427	Keithovi	-0.08147657
-4.741427	Kellera	-0.04415316
-4.741427	Kew	-0.08409967
-4.741427	Klimko	-0.08409967
-4.741427	Kluk	-0.04415316
-4.741427	Kobylisích	-0.06674293
-4.741427	Kohut	-0.04415316
-4.440397	Kolikrát	-0.08060395
-4.741427	Kolikátého	-0.0798728
-4.741427	Komisař	-0.07566062
-3.963276	Konečně	-0.2293219
-4.741427	Kongo	-0.08147657
-4.741427	Kopytenka	-0.082798
-4.440397	Kopytenko	-0.0427172
-4.741427	Korea	-0.08196763
-4.741427	Kostariky	-0.04415316
-4.440397	Kostelecký	-0.03548302
-4.741427	Kostelník	-0.08409179
-4.264306	Koukej	-0.4285422
-4.741427	Koukejte	-0.04415316
-4.139368	Koukněte	-0.4727024
-4.741427	Koupil	-0.07850254
-4.741427	Kovalenka	-0.04415316
-4.440397	Kovalenko	-0.0427172
-4.741427	Košíř	-0.07207176
-4.741427	Krakovem	-0.04415316
-4.741427	Krasoslava	-0.08409967
-4.042458	Kratochvíl	-0.01363072
-4.741427	Kristapána	-0.04415316
-4.741427	Kristeježíši	-0.04415316
-4.440397	Kristepane	-0.2357626
-4.741427	Kritického	-0.08406816
-4.741427	Krkonoš	-0.08409967
-4.741427	Krok	-0.0827743
-4.440397	Krom	-0.2744864
-4.264306	Kroupa	-0.07431727
-4.139368	Krucemburské	-0.3360568
-4.440397	Krucinál	-0.2357626
-4.741427	Král	-0.04415316
-4.741427	Kuba	-0.04415316
-4.440397	Kubát	-0.02507796
-4.440397	Kukla	-0.06667732
-4.741427	Křemencové	-0.08401301
-4.741427	LYRICKÉM	-0.08409967
-4.264306	Lacina	-0.1600976
-4.741427	Lacinou	-0.07620643
-4.741427	Laitii	-0.07207176
-4.741427	Landa	-0.08376082
-4.264306	Landovou	-0.1620885
-3.627484	Landová	-0.1282889
-4.741427	Landové	-0.04415316
-4.741427	Landy	-0.04415316
-4.139368	Lebeda	-0.1292853
-4.741427	Lebedovi	-0.08245813
-4.741427	Lebedu	-0.04415316
-4.440397	Lehoty	-0.04287314
-4.741427	Lelek	-0.04415316
-4.440397	Lembergra	-0.07611015
-4.741427	Leone	-0.08196763
-4.741427	Leopold	-0.04415316
-4.741427	Leopoldii	-0.04415316
-4.741427	Lepota	-0.04415316
-4.264306	Lepoty	-0.1844819
-4.741427	Libérie	-0.04415316
-4.264306	Lidi	-0.4285422
-4.042458	Liverpoolu	-0.1766731
-4.741427	Lojzičko	-0.04415316
-4.440397	Lojzo	-0.2357626
-4.741427	Lojzu	-0.08409967
-3.379699	Lojzík	-0.1696044
-4.139368	Lojzíka	-0.1292161
-4.741427	Lojzíkem	-0.07207176
-4.741427	Lojzíkova	-0.08409967
-4.440397	Lojzíkovi	-0.08404451
-4.741427	Lojzíku	-0.04415316
-4.741427	Lombardie	-0.04415316
-4.741427	Lombardu	-0.082798
-4.741427	Londýna	-0.04415316
-4.741427	Lory	-0.0798728
-4.440397	Lotsenovou	-0.06673472
-4.741427	Lotsenův	-0.08409967
-4.741427	Louis	-0.08409967
-4.741427	Lucifer	-0.07620643
-3.963276	Lujza	-0.07849455
-4.741427	Lujzce	-0.08409967
-4.440397	Lujze	-0.2357626
-4.264306	Lujzička	-0.08390269
-4.440397	Lujzou	-0.0801352
-4.264306	Lujzu	-0.08394998
-4.264306	Lujzy	-0.1899996
-4.042458	Lída	-0.3387375
-4.139368	Lído	-0.2943471
-4.440397	Lídu	-0.04195405
-4.741427	Lídě	-0.08196763
-4.741427	Líznera	-0.04415316
-4.741427	Löbla	-0.08409179
-4.741427	MURDER	-0.07207176
-4.741427	MUŽ	-0.04415316
-4.741427	Mackenzie	-0.08081831
-4.741427	Madagaskar	-0.08196763
-4.440397	Madam	-0.2357626
-4.741427	Makedonec	-0.08403664
-4.741427	Malacorrhiza	-0.08409967
-4.741427	Malý	-0.04415316
-4.741427	Mamillaria	-0.08409967
-4.440397	Maminko	-0.2357626
-4.440397	Manasses	-0.04054564
-4.042458	Mandel	-0.0148889
-4.741427	Mandela	-0.07620643
-4.741427	Mandelův	-0.08402088
-4.264306	Marca	-0.07184495
-3.627484	Marco	-0.08126557
-4.741427	Marcova	-0.08409179
-4.440397	Marcovi	-0.0702214
-4.264306	Marcovy	-0.1846295
-4.741427	Maria	-0.04415316
-4.741427	Marie	-0.08409967
-4.741427	Martin	-0.08409179
-3.963276	Maryna	-0.0737368
-3.595299	Maryno	-0.6858304
-3.896329	Marynu	-0.2239469
-4.264306	Maryny	-0.4684729
-4.741427	Maryně	-0.07207176
-4.440397	Marš	-0.2708852
-4.741427	Matejovou	-0.06674293
-4.139368	Matejovu	-0.1103821
-3.838337	Matejová	-0.7136865
-4.264306	Matejové	-0.143022
-4.440397	Matko	-0.2357626
-4.741427	Matěje	-0.04415316
-4.741427	Maupassanta	-0.06674293
-4.741427	Mazanian	-0.07207176
-4.741427	Mařenko	-0.04415316
-4.741427	Mašková	-0.04415316
-3.510978	Mejzlík	-0.6262005
-4.440397	Mejzlíku	-0.03548302
-4.741427	Melocactus	-0.08409967
-4.741427	Menšík	-0.04415316
-4.440397	Menšíku	-0.2357626
-4.741427	Menšíků	-0.08409967
-4.440397	Meranu	-0.07001803
-4.741427	Mexika	-0.04415316
-4.741427	Meyer	-0.04415316
-4.264306	Mihálička	-0.1935805
-4.264306	Mihály	-0.0633603
-4.440397	Mihályovou	-0.06171296
-4.741427	Mihálíčku	-0.08409967
-4.741427	Milostivá	-0.04415316
-4.741427	Milovicích	-0.0798728
-4.741427	Milá	-0.08320075
-4.741427	Milý	-0.08330335
-4.440397	Mimoto	-0.04315887
-4.741427	Ministerstvo	-0.08404452
-4.741427	Mladý	-0.08321653
-4.440397	Mládenci	-0.2357626
-4.741427	Mládenče	-0.08409179
-4.264306	Mne	-0.1918905
-4.741427	Mnohokrát	-0.08408391
-3.787185	Mně	-0.1143394
-4.440397	Moc	-0.08403663
-4.741427	Modlete	-0.07566062
-4.741427	Moh	-0.08350848
-4.741427	Moment	-0.04415316
-4.741427	Mordiáno	-0.04415316
-4.440397	Možná	-0.2357626
-4.741427	Možné	-0.07545979
-4.741427	Mrtvého	-0.07620643
-4.741427	Mrtvý	-0.0798728
-3.741427	Musil	-0.06696821
-4.741427	Musile	-0.04415316
-4.741427	Musilem	-0.06674293
-4.741427	Musilovi	-0.06674293
-4.741427	Musilův	-0.0840524
-4.741427	Musí	-0.07545979
-4.741427	Musíme	-0.08361889
-4.741427	Musíte	-0.08272689
-4.741427	Muži	-0.04415316
-3.787185	My	-0.1425983
-4.741427	Myhala	-0.08409967
-4.440397	Myslel	-0.03800419
-4.741427	Myslím	-0.04415316
-4.741427	Myslíte	-0.04415316
-4.440397	Má	-0.08387116
-4.741427	Málek	-0.07207176
-4.741427	Máli	-0.08409967
-4.264306	Mám	-0.08138939
-4.741427	Máme	-0.08260834
-4.741427	Máničce	-0.08404452
-4.741427	Mánička	-0.04415316
-4.741427	Máry	-0.04415316
-4.440397	Máš	-0.08309021
-4.741427	Müller	-0.04415316
-4.139368	Měl	-0.07578912
-4.741427	Mělo	-0.07545979
-4.741427	Měly	-0.08409179
-4.741427	Městě	-0.07207176
-4.139368	Můj	-0.08404453
-4.440397	Můžete	-0.0742528
-4.741427	N	-0.0837214
-4.741427	NEMOHL	-0.08409967
-4.741427	NOZE	-0.06104066
-3.440398	Na	-0.1935181
-4.741427	Nadává	-0.08407603
-4.741427	Nahoře	-0.08409967
-4.139368	Najednou	-0.03245948
-4.440397	Nakonec	-0.0699448
-4.741427	Napište	-0.04415316
-4.741427	Naprosto	-0.08408391
-4.440397	Například	-0.08337435
-4.741427	Nate	-0.04415316
-4.440397	Nato	-0.07980915
-4.440397	Nač	-0.08271897
-4.042458	Načež	-0.1397933
-4.741427	Naše	-0.08409967
-4.741427	Našinec	-0.08368198
-3.896329	Ne	-0.49462
-4.741427	Neapole	-0.06674293
-3.838337	Nebo	-0.06674292
-4.741427	Nebojte	-0.07566062
-4.741427	Nebude	-0.04415316
-4.741427	Nebudu	-0.07566062
-4.741427	Nebyl	-0.08398937
-4.741427	Nechal	-0.08262414
-4.741427	Nechte	-0.08368986
-4.741427	Nechtěl	-0.07850254
-4.741427	Nedá	-0.04415316
-4.741427	Nejdýl	-0.07545979
-3.838337	Nejdřív	-0.1101394
-4.741427	Nejkratší	-0.08402877
-4.741427	Nejlepší	-0.0798728
-4.741427	Nejsem	-0.08312181
-4.741427	Nejspíš	-0.08409967
-4.741427	Nejvíc	-0.08409967
-4.741427	Nejúčinnější	-0.07545979
-4.741427	Nekřičel	-0.08398937
-4.741427	Nelejte	-0.04415316
-4.741427	Nemluvňata	-0.04415316
-4.741427	Nemoc	-0.08409179
-4.741427	Nemocná	-0.04415316
-4.440397	Neměl	-0.07484866
-4.741427	Neměli	-0.08407603
-4.741427	Není	-0.08409179
-4.741427	Nepál	-0.08196763
-4.741427	Nerozsvěcet	-0.04415316
-4.741427	Nesmysl	-0.04415316
-4.741427	Nesmíte	-0.07566062
-4.741427	Newton	-0.082798
-4.741427	Nezaběhlo	-0.04415316
-4.741427	Neříkej	-0.08371352
-4.741427	Neříkejte	-0.07545979
-4.741427	Nešťastné	-0.08386329
-4.264306	Nic	-0.1620885
-4.741427	Nicaragua	-0.04415316
-4.741427	Nikam	-0.08408391
-4.741427	Nikdo	-0.08334281
-4.741427	Nikdy	-0.04415316
-4.741427	Nizozemsko	-0.04415316
-4.741427	Nizze	-0.07620643
-3.419208	No	-0.4156279
-4.741427	Nono	-0.04415316
-4.741427	Norska	-0.06674293
-4.741427	Nos	-0.07566062
-4.440397	Novoves	-0.054209
-4.741427	Nová	-0.08409967
-4.741427	Novém	-0.08408391
-4.741427	Nový	-0.08409967
-3.963276	Nu	-0.2720353
-4.741427	Nyčko	-0.08291649
-4.741427	Nám	-0.08409179
-4.741427	Náprsní	-0.08408391
-4.741427	Nás	-0.08304285
-4.741427	Náš	-0.08400512
-4.741427	Nýbrž	-0.0798728
-4.741427	Něco	-0.07566062
-4.741427	Nějak	-0.08409967
-4.741427	Nějakou	-0.08409967
-4.440397	Nějaký	-0.08372927
-4.264306	Někdy	-0.1878888
-4.741427	Několik	-0.08399725
-4.741427	Někteří	-0.08368198
-4.741427	Němci	-0.08126255
-3.963276	O	-0.08304285
-4.741427	OBYČEJNÁ	-0.08409179
-4.741427	Oba	-0.08406027
-4.741427	Obchod	-0.0798728
-4.741427	Oberhnder	-0.04415316
-4.042458	Oberhuber	-0.02467173
-4.741427	Oberhuberem	-0.07566062
-4.741427	Oberhuberovým	-0.08409967
-4.440397	Obžalovaná	-0.04413588
-4.741427	Ochraně	-0.08409967
-3.838337	Od	-0.4453204
-4.741427	Odpoledne	-0.08409179
-4.741427	Odsouzena	-0.08294019
-4.741427	Okresní	-0.08400512
-4.741427	Olšanech	-0.08409967
-3.440398	On	-0.1438953
-3.787185	Ona	-0.1035953
-4.741427	Onehdy	-0.07850254
-4.264306	Oni	-0.07340593
-3.399005	Ono	-0.5709592
-4.741427	Onoho	-0.08409179
-4.741427	Orientě	-0.08234742
-4.440397	Ostatně	-0.0746877
-4.741427	Ostende	-0.07207176
-4.741427	Otce	-0.04415316
-4.741427	Otci	-0.08334281
-4.440397	Otec	-0.2754727
-4.741427	Otevřel	-0.07850254
-4.741427	Otáhal	-0.082798
-4.440397	Otče	-0.2357626
-4.440397	PANA	-0.08409178
-4.741427	PODVODNÍKA	-0.06104066
-4.741427	POROTCE	-0.06104066
-4.741427	POSLEDNÍ	-0.08409967
-4.440397	POVÍDKA	-0.08405238
-4.741427	PTÁCI	-0.06104066
-4.741427	Pa	-0.0837214
-4.741427	Pacient	-0.08408391
-4.741427	Padesát	-0.08397361
-3.399005	Pak	-0.100351
-4.264306	Palermu	-0.160167
-4.741427	Palermě	-0.082798
-4.741427	Palte	-0.08196763
-4.741427	Pamatuj	-0.08150034
-3.565336	Pan	-0.2109199
-2.860614	Pane	-0.6078152
-4.741427	Panebože	-0.04415316
-4.741427	Panenko	-0.08409967
-4.741427	Panečku	-0.04415316
-3.486155	Paní	-0.2721498
-4.741427	Papoušek	-0.07566062
-4.741427	Pardubic	-0.08081831
-4.264306	Pardubicích	-0.179657
-4.440397	Paulus	-0.05851642
-4.741427	Paříže	-0.08196763
-3.896329	Pepek	-0.06368242
-4.440397	Pepka	-0.07749597
-4.741427	Pepkem	-0.07545979
-4.264306	Pepku	-0.153427
-4.741427	Per	-0.08409967
-4.741427	Persii	-0.08390269
-4.741427	Perunovy	-0.04415316
-4.741427	Peterka	-0.04415316
-4.741427	Philippa	-0.04415316
-4.264306	Pilocereus	-0.4684729
-3.440398	Pitr	-0.05696262
-4.440397	Pitra	-0.07615829
-4.741427	Pitrovi	-0.04415316
-4.741427	Pivoda	-0.04415316
-3.838337	Pištora	-0.438716
-4.741427	Pištoro	-0.04415316
-4.741427	Pištorou	-0.04415316
-3.343487	Plichta	-0.1383509
-4.264306	Plichto	-0.4285422
-4.440397	Plichtu	-0.0653552
-3.896329	Po	-0.129319
-4.741427	Podaří	-0.07566062
-4.741427	Podkarpatsku	-0.08081831
-4.139368	Podle	-0.08271109
-4.741427	Podvody	-0.04415316
-4.741427	Pojedu	-0.08409967
-4.741427	Pojď	-0.04415316
-4.741427	Polgár	-0.04415316
-4.139368	Polgáre	-0.441195
-4.741427	Policie	-0.08409179
-4.741427	Politika	-0.04415316
-4.741427	Političce	-0.06674293
-4.741427	Polizei	-0.08196763
-4.440397	Pomalu	-0.07393037
-4.440397	Posel	-0.2756775
-4.264306	Posla	-0.1941103
-4.264306	Poslední	-0.08369774
-4.741427	Poslouchej	-0.04415316
-3.236277	Poslouchejte	-1.478559
-4.741427	Poslu	-0.08406816
-4.440397	Poslušně	-0.2756933
-4.440397	Poslyš	-0.2357626
-4.042458	Poslyšte	-0.4763354
-4.741427	Potlačené	-0.08404452
-3.236277	Potom	-0.155009
-4.741427	Potřásl	-0.07850254
-4.741427	Povídky	-0.08234742
-4.741427	Pozdrav	-0.08408391
-4.741427	Později	-0.07566062
-4.264306	Počkej	-0.4285422
-3.595299	Počkejte	-1.136137
-4.741427	Pořádný	-0.08398937
-4.741427	Pošlete	-0.08272689
-4.741427	Prahu	-0.08211009
-4.264306	Prahy	-0.1846541
-3.741427	Praze	-0.2584658
-3.741427	Pro	-0.3369471
-3.963276	Proboha	-0.6550967
-4.741427	Probíral	-0.07850254
-4.741427	Procházka	-0.04415316
-4.741427	Proježíšekrista	-0.04415316
-4.440397	Prokrindapána	-0.2357626
-4.264306	Prokristapána	-0.4285422
-4.741427	Prokristáčka	-0.07620643
-4.741427	Prostějova	-0.04415316
-3.510978	Prosím	-0.6398366
-4.741427	Protasov	-0.06674293
-4.741427	Protiva	-0.04415316
-3.700035	Proto	-0.1248572
-4.042458	Protože	-0.03942961
-3.896329	Proč	-0.1353847
-4.741427	Pročpak	-0.08384752
-4.440397	První	-0.04409269
-4.741427	Pryč	-0.08210218
-4.741427	Práskl	-0.07850254
-4.741427	Prý	-0.08309022
-4.741427	Pusťte	-0.08389481
-4.264306	Páni	-0.1620885
-4.741427	Pánové	-0.04415316
-4.741427	Pánu	-0.08409967
-4.741427	Páně	-0.06674293
-4.741427	Páter	-0.08406816
-4.741427	PŘÍBĚH	-0.08406027
-4.741427	PŘÍBĚHY	-0.08409967
-4.741427	PŘÍPAD	-0.08406027
-4.741427	Přece	-0.07545979
-3.963276	Před	-0.139017
-4.042458	Předně	-0.07018889
-4.440397	Předseda	-0.2756697
-4.139368	Při	-0.08403665
-4.741427	Přihlas	-0.08260834
-4.741427	Přijďte	-0.08150034
-4.139368	Přitom	-0.0661933
-4.741427	Přišel	-0.0829007
-4.741427	Případ	-0.08245813
-4.741427	Přítelíčku	-0.04415316
-4.741427	Pšt	-0.04415316
-4.741427	Půjčte	-0.08395785
-4.741427	Půl	-0.0840524
-4.139368	Racek	-0.1410474
-4.741427	Radlicích	-0.08409179
-4.741427	Rakousko	-0.04415316
-4.741427	Rakouská	-0.07566062
-4.440397	Readingu	-0.2583523
-4.741427	Reymonta	-0.07207176
-4.741427	Roseggera	-0.04415316
-4.741427	Roubalová	-0.08234742
-4.741427	Rozsvěťte	-0.04415316
-4.440397	Rozuměl	-0.04364333
-4.741427	Rožmberku	-0.083816
-3.838337	Rus	-0.1933058
-3.896329	Rusa	-0.1008453
-4.741427	Rusové	-0.08398149
-4.741427	Rusvák	-0.08081831
-4.741427	Rusy	-0.06674293
-4.440397	Rusňák	-0.08289278
-4.440397	Rusňáček	-0.02507796
-4.741427	Rád	-0.08350848
-4.264306	Ráno	-0.1938054
-4.440397	Ráček	-0.04282983
-4.440397	Ráčka	-0.08210216
-4.440397	Růžence	-0.08401299
-3.787185	Růženka	-0.1758093
-4.741427	Růženko	-0.04415316
-4.741427	Růženkou	-0.08401301
-4.042458	Růženku	-0.1461477
-3.963276	S	-0.08395784
-4.741427	SBÍRKA	-0.08409967
-4.741427	SMRT	-0.08409967
-4.741427	SOUD	-0.08409179
-4.741427	SPÁT	-0.06104066
-4.741427	STARÉHO	-0.08409967
-4.741427	Safra	-0.04415316
-4.741427	Sakra	-0.08196763
-4.741427	Samozřejmě	-0.08350848
-4.741427	San	-0.08409967
-4.440397	Scholle	-0.2636811
-4.741427	Sdružení	-0.08409179
-4.741427	Sedmihradsku	-0.07620643
-4.741427	Sedněte	-0.08150034
-4.440397	Seděl	-0.07727998
-4.440397	Sepp	-0.07561242
-4.741427	Seppe	-0.04415316
-4.741427	Seppem	-0.08304285
-4.741427	Settlements	-0.08147657
-4.440397	Severýnovou	-0.02507796
-3.662246	Severýnová	-0.1413853
-4.042458	Severýnové	-0.05118605
-4.440397	Siam	-0.03093975
-4.741427	Sierra	-0.08409967
-4.264306	Sir	-0.4684729
-4.741427	Skočte	-0.08359524
-4.440397	Skrz	-0.08229996
-3.741427	Skřivánek	-0.1648417
-4.741427	Slatině	-0.07620643
-4.741427	Slezské	-0.07207176
-4.741427	Slečno	-0.04415316
-4.741427	Smyrny	-0.0827743
-4.741427	Smím	-0.08408391
-3.838337	Snad	-0.08741695
-4.741427	Snubní	-0.08409967
-4.440397	Sofort	-0.08407602
-4.741427	Soud	-0.07566062
-4.741427	Soudce	-0.04415316
-3.379699	Spitz	-0.2158774
-4.440397	Spitze	-0.07617433
-4.741427	Spitzem	-0.08409967
-4.741427	Spitzovi	-0.04415316
-4.741427	Spolehni	-0.07566062
-4.741427	Spolek	-0.08409179
-4.264306	Spánek	-0.1574521
-4.264306	Starosta	-0.08361101
-4.741427	Starém	-0.08409967
-4.741427	Starý	-0.08307444
-4.741427	Stačí	-0.07545979
-4.741427	Sto	-0.08404452
-4.741427	Storma	-0.04415316
-4.741427	Stočes	-0.07207176
-4.741427	Straits	-0.08409967
-3.963276	Strejčku	-0.6550967
-4.741427	Strhl	-0.07850254
-4.741427	Strážník	-0.08409179
-3.963276	Strýc	-0.6948935
-4.741427	Stálo	-0.07545979
-4.440397	Státní	-0.2756775
-4.741427	Suicidium	-0.06674293
-4.741427	Svatého	-0.08409967
-4.741427	Sverige	-0.08408391
-4.741427	Svědomí	-0.04415316
-4.741427	SŇATKOVĚHO	-0.08409967
-4.741427	TELEGRAM	-0.06104066
-3.838337	Ta	-0.1232407
-3.838337	Tady	-0.07576502
-4.741427	Tadyhle	-0.08388693
-4.741427	Tahleta	-0.08409967
-2.580059	Tak	-0.2173229
-4.741427	Takhle	-0.07850254
-4.264306	Takovou	-0.08366621
-4.440397	Taková	-0.08409178
-4.440397	Takové	-0.08291648
-4.741427	Takového	-0.08404452
-4.042458	Takový	-0.1420987
-4.741427	Takových	-0.08409967
-4.741427	Taky	-0.08389481
-4.139368	Tam	-0.3339236
-4.741427	Tatka	-0.04415316
-4.741427	Tatky	-0.08228415
-4.741427	Tauglich	-0.08196763
-3.896329	Taussig	-0.2040811
-3.294269	Teda	-0.2650599
-3.294269	Tedy	-0.2224923
-3.896329	Tehdy	-0.1721192
-4.741427	Tehdá	-0.08245813
-4.741427	Telegram	-0.0798728
-3.250066	Ten	-0.1124002
-4.741427	Tenhle	-0.08409179
-4.440397	Teprve	-0.08260833
-4.741427	Terentík	-0.08228415
-4.741427	Terezie	-0.04415316
-3.787185	Teď	-0.1528666
-4.741427	Ti	-0.08386329
-4.440397	Tihle	-0.08388691
-4.741427	Tisíce	-0.07207176
-2.451393	To	-0.4920093
-4.139368	Tohle	-0.04091994
-4.741427	Toho	-0.04415316
-4.440397	Tomu	-0.07562045
-4.042458	Tonda	-0.02355934
-4.741427	Tondo	-0.06674293
-4.741427	Tondu	-0.07207176
-3.838337	Totiž	-0.09702147
-4.264306	Tož	-0.08278219
-4.741427	Trigemin	-0.082798
-4.741427	Trochu	-0.07850254
-4.741427	Trvá	-0.08356369
-3.741427	Tu	-0.1806626
-4.741427	Turci	-0.08081831
-4.042458	Turková	-0.03914141
-4.440397	Turkové	-0.06563473
-4.741427	Turnovsko	-0.082798
-3.326454	Ty	-0.1771245
-4.440397	Tyhle	-0.08397359
-4.741427	Tymich	-0.04415316
-4.741427	Táborsko	-0.07207176
-4.741427	Táhni	-0.04415316
-4.741427	Té	-0.08390269
-4.264306	Tím	-0.2019649
-4.741427	Tóth	-0.08409967
-4.741427	Tě	-0.08408391
-4.741427	Těbůh	-0.04415316
-4.741427	Těch	-0.08402877
-4.741427	Těm	-0.08408391
-4.042458	Třeba	-0.06085788
-4.440397	Třetí	-0.08396572
-4.741427	Tři	-0.08400512
-4.440397	Třináctého	-0.2756618
-4.264306	U	-0.08366621
-4.741427	UKRADENA	-0.08409179
-4.741427	UKRADENÝ	-0.08409967
-4.741427	Uctivá	-0.08409179
-4.741427	Udal	-0.04415316
-4.741427	Uf	-0.04415316
-4.741427	Uher	-0.04415316
-4.741427	Ukaž	-0.04415316
-4.139368	Ukažte	-0.2948327
-4.741427	Ukázalo	-0.07566062
-4.741427	Uvnitř	-0.07545979
-4.741427	UŠNÍ	-0.08409967
-4.264306	Už	-0.0736884
-3.222914	V	-0.4571766
-4.440397	VRAŽDA	-0.2526501
-4.741427	Vasylův	-0.08228415
-4.741427	Vaňka	-0.08228415
-4.741427	Vašaty	-0.04415316
-4.741427	Vdova	-0.08409967
-4.042458	Ve	-0.1507824
-4.741427	Velebný	-0.08330335
-4.741427	Veliký	-0.08408391
-4.741427	Veličenstva	-0.04415316
-4.741427	Velkomožný	-0.08330335
-4.741427	Velkoobchodník	-0.04415316
-4.741427	Velké	-0.08402877
-4.741427	Vem	-0.0840524
-4.741427	Vemte	-0.08150034
-4.741427	Vichy	-0.04415316
-4.741427	Vidíte	-0.04415316
-4.264306	Viděl	-0.1959755
-4.440397	Vincku	-0.2357626
-4.741427	Vinohradech	-0.06674293
-3.787185	Vitásek	-0.3679708
-4.440397	Vitáska	-0.02507796
-4.741427	Vlado	-0.04415316
-4.741427	Vlakem	-0.04415316
-4.741427	Vloni	-0.0835558
-4.741427	Vo	-0.08409967
-4.741427	Vogt	-0.082798
-4.741427	Vojtou	-0.04415316
-4.741427	Volova	-0.08409967
-4.264306	Volovy	-0.2020121
-4.440397	Volové	-0.08406814
-4.741427	Vorobec	-0.08228415
-4.042458	Voves	-0.08616455
-4.264306	Vrací	-0.1528275
-4.741427	Vrah	-0.0837687
-4.741427	Vražda	-0.04415316
-4.741427	Vršovic	-0.04415316
-4.741427	Vršovicích	-0.08406027
-4.440397	Vstaňte	-0.2357626
-4.264306	Vtom	-0.1935966
-3.565336	Vy	-0.2643963
-4.741427	Vydíráním	-0.06674293
-4.741427	Vypište	-0.08398149
-4.741427	Vysočanech	-0.07620643
-4.741427	Vyšetřující	-0.0840524
-4.741427	Vzadu	-0.07566062
-4.741427	Vzal	-0.07850254
-4.264306	Václav	-0.08214174
-4.440397	Václave	-0.03548302
-4.741427	Václavem	-0.08408391
-4.741427	Vídni	-0.08409967
-4.440397	Vídně	-0.03548302
-3.440398	Víte	-0.9586036
-4.440397	Víš	-0.2357626
-4.741427	Výborně	-0.08196763
-4.741427	VĚCI	-0.08409967
-4.741427	Věděl	-0.07850254
-4.042458	Věra	-0.0395169
-4.741427	Věrou	-0.08379235
-4.440397	Věry	-0.2357626
-4.440397	Věře	-0.08281378
-4.741427	Však	-0.08309022
-4.440397	Všechno	-0.04331465
-4.741427	Všechny	-0.08384752
-4.741427	Všelijaké	-0.08362678
-4.741427	Všemohoucímu	-0.08147657
-4.741427	Všichni	-0.04415316
-4.741427	Vůbec	-0.06674293
-4.741427	Vždy	-0.0798728
-3.510978	Vždyť	-0.2438053
-4.264306	W	-0.1846459
-4.741427	Wand	-0.04415316
-4.741427	Weilovi	-0.08211009
-4.264306	Westermann	-0.1892863
-4.741427	Westermannem	-0.07207176
-4.741427	Westermaruz	-0.0798728
-4.741427	Wild	-0.06674293
-4.741427	Wildovy	-0.08409967
-4.741427	Wislizen	-0.082798
-4.741427	Wislizena	-0.08343749
-4.741427	Wislizenii	-0.04415316
-4.741427	Wittia	-0.04415316
-3.741427	Z	-0.2014
-4.741427	ZLODĚJI	-0.06104066
-4.741427	ZMIZENÍ	-0.08409179
-4.741427	ZNÁMEK	-0.06104066
-4.741427	ZPOVEĎ	-0.06104066
-4.741427	ZTRACENÉ	-0.08409967
-3.537308	Za	-0.1442658
-4.440397	Zabil	-0.2701119
-4.741427	Zach	-0.04415316
-4.741427	Zanelli	-0.04415316
-4.741427	Zanelliovou	-0.06674293
-4.440397	Zanelliová	-0.04414451
-4.440397	Zanelliů	-0.0810008
-4.440397	Zaplaťpánbůh	-0.2357626
-4.741427	Zas	-0.07850254
-4.741427	Zase	-0.08081831
-4.741427	Zasloužila	-0.0828296
-4.741427	Zatlačte	-0.08368198
-4.741427	Zato	-0.08409179
-4.440397	Zatracený	-0.275315
-4.741427	Zatračená	-0.08409967
-4.440397	Zatrápená	-0.2754175
-4.741427	Zatrápení	-0.08389481
-3.896329	Zatím	-0.2575902
-4.741427	Zavraždil	-0.07850254
-4.741427	Zavražděný	-0.08321653
-4.741427	Zcela	-0.08409967
-4.741427	Zdeničky	-0.06674293
-4.264306	Ze	-0.2019412
-4.741427	Zesnulá	-0.08409179
-3.787185	Zkrátka	-0.07614532
-4.741427	Zkuste	-0.07545979
-4.440397	Zničehonic	-0.26727
-4.741427	Zrovna	-0.08390269
-4.741427	Zvedl	-0.08350848
-4.741427	Zvonek	-0.08409967
-4.741427	ZÁVRAŤ	-0.06104066
-4.741427	Záhadný	-0.08398937
-4.741427	Zéland	-0.04415316
-4.741427	Zřítila	-0.07566062
-4.741427	Zůstal	-0.0828296
-1.563314	a	-0.07488501
-4.741427	abeced	-0.06674293
-4.741427	abnormálnímu	-0.04415316
-2.708004	aby	-0.1873078
-3.209949	abych	-0.2283526
-3.963276	abychom	-0.1837513
-4.139368	abys	-0.08245023
-3.537308	abyste	-0.4871837
-4.741427	adalin	-0.04415316
-4.440397	adresu	-0.07204745
-3.896329	advokát	-0.0717153
-4.440397	advokáta	-0.07206365
-4.741427	advokátských	-0.08409967
-4.741427	advokátů	-0.08400512
-4.741427	advokátův	-0.08409179
-4.741427	aeroplánem	-0.08211009
-4.440397	aféra	-0.2583523
-4.440397	aféry	-0.054209
-4.264306	agent	-0.08152412
-4.741427	agenti	-0.08081831
-4.741427	agentů	-0.08409967
-4.741427	aha	-0.04415316
-4.741427	aktovce	-0.08364255
-4.440397	aktovkou	-0.07964206
-4.741427	akurátnost	-0.07207176
-4.741427	akvaristé	-0.04415316
-4.440397	akvaristů	-0.2357626
-4.741427	alarmujte	-0.08402877
-2.24174	ale	-0.2152353
-4.741427	alejemi	-0.07207176
-4.741427	algokratin	-0.04415316
-4.440397	alibi	-0.02507796
-4.741427	alimenty	-0.08397361
-4.741427	amatér	-0.07620643
-4.440397	amen	-0.06394652
-4.741427	analýze	-0.06674293
-4.741427	anatol	-0.08210218
-4.741427	anatolák	-0.08373716
-4.741427	andílek	-0.04415316
-4.440397	anglicky	-0.03548302
-4.741427	anglické	-0.08403664
-4.440397	anglický	-0.08395784
-4.741427	angličtiny	-0.07207176
-2.754656	ani	-0.123228
-4.440397	anilinem	-0.04414451
-4.741427	anilinu	-0.06674293
-4.741427	aniž	-0.0828296
-4.139368	ano	-0.1083106
-4.264306	anonymní	-0.2019491
-4.741427	anonymních	-0.08407603
-4.741427	antikvity	-0.0831297
-4.741427	arabskou	-0.08409967
-4.741427	arch	-0.08406816
-4.741427	archeolog	-0.04415316
-4.741427	arest	-0.0798728
-4.741427	argumentů	-0.04415316
-4.741427	armáda	-0.0798728
-4.440397	arménský	-0.08277428
-4.741427	artilerie	-0.06674293
-3.326454	asi	-0.08727863
-4.741427	asistenti	-0.07207176
-3.264306	aspoň	-0.08667071
-4.440397	astmaticky	-0.2636811
-4.741427	astronomické	-0.08409179
-4.741427	atentáty	-0.08402877
-4.741427	atrofie	-0.08409967
-4.264306	auditor	-0.04407543
-4.741427	auditorem	-0.08359524
-4.741427	auditorium	-0.07207176
-4.741427	aura	-0.08409967
-4.440397	aurea	-0.2756854
-4.440397	auta	-0.2636811
-4.741427	autem	-0.08359524
-4.741427	autor	-0.07566062
-4.741427	autorské	-0.08409967
-4.741427	autě	-0.08408391
-3.537308	ať	-0.1286715
-4.741427	aťs	-0.08343749
-3.088215	až	-0.1848169
-3.896329	ba	-0.2714414
-4.741427	baba	-0.04415316
-4.440397	babička	-0.03488352
-4.741427	babičku	-0.07207176
-4.741427	babku	-0.06674293
-4.264306	babo	-0.4684729
-4.741427	babu	-0.08397361
-4.440397	baby	-0.04410997
-4.741427	bachratý	-0.07207176
-4.741427	bafů	-0.07207176
-4.741427	baganči	-0.082798
-4.741427	bajonetem	-0.0840524
-4.440397	bajonety	-0.03548302
-4.440397	bakaná	-0.03548302
-4.741427	baladické	-0.08409967
-4.741427	baladu	-0.04415316
-4.741427	balík	-0.04415316
-4.741427	bandito	-0.08363467
-4.741427	bank	-0.04415316
-4.741427	bankovky	-0.04415316
-4.741427	banky	-0.04415316
-4.741427	baret	-0.07207176
-4.741427	barevná	-0.08409967
-4.139368	baron	-0.3188954
-4.440397	barona	-0.08081036
-4.741427	barvené	-0.08352426
-4.741427	barvený	-0.08391845
-4.741427	barvili	-0.08409967
-4.741427	barvivy	-0.07620643
-4.741427	barvu	-0.07927584
-4.741427	barvách	-0.04415316
-4.741427	barvě	-0.08371352
-4.741427	barzoj	-0.08406027
-4.440397	barák	-0.08409178
-4.440397	baráku	-0.06670192
-4.440397	bas	-0.07526688
-4.264306	basa	-0.04413589
-4.741427	basově	-0.07207176
-4.264306	basta	-0.02262563
-4.741427	bavil	-0.04415316
-4.741427	bavlněný	-0.08409179
-4.741427	bačkora	-0.07207176
-4.741427	beduín	-0.04415316
-4.741427	bejval	-0.08338226
-4.741427	bejvá	-0.08409179
-4.741427	bekem	-0.04415316
-4.741427	bellevue	-0.08409967
-4.741427	benyky	-0.04415316
-4.741427	benzín	-0.07620643
-4.440397	ber	-0.06655432
-4.741427	berany	-0.08081831
-4.741427	bere	-0.08228415
-4.741427	bergamo	-0.08196763
-4.741427	berlínského	-0.08406027
-4.741427	berlínský	-0.08409967
-4.741427	berní	-0.08409967
-4.741427	berou	-0.08409967
-4.741427	beránek	-0.07620643
-4.440397	bestie	-0.04180647
-4.741427	bestiální	-0.04415316
-3.310064	bez	-0.1381402
-4.741427	bezbranné	-0.08409967
-4.042458	beze	-0.2298949
-4.741427	bezesnou	-0.08398149
-4.741427	bezmeznou	-0.0840524
-4.741427	bezmezně	-0.08407603
-4.741427	bezmoc	-0.0798728
-4.264306	bezmocně	-0.08207843
-4.741427	bezohledného	-0.08409967
-4.741427	bezprostřednost	-0.07207176
-4.741427	bezpráví	-0.06674293
-4.440397	bezradně	-0.06171296
-4.264306	beztoho	-0.08397361
-4.741427	bezvědomí	-0.04415316
-4.741427	bibli	-0.08343749
-4.741427	bije	-0.04415316
-4.741427	bil	-0.04415316
-4.741427	bičem	-0.04415316
-4.741427	blahem	-0.08408391
-4.741427	blahobyt	-0.07620643
-4.741427	blahodárným	-0.07207176
-4.741427	blahovůli	-0.04415316
-4.741427	blamážemi	-0.07207176
-4.741427	blaženě	-0.07566062
-4.741427	blbec	-0.04415316
-4.741427	blbostmi	-0.04415316
-4.440397	bledou	-0.2636811
-4.139368	bledá	-0.02866361
-4.741427	bledé	-0.07207176
-4.741427	bledého	-0.08407603
-4.042458	bledý	-0.1746017
-4.741427	bledých	-0.08406027
-4.741427	bledým	-0.07207176
-4.741427	bledší	-0.08379235
-4.741427	blejská	-0.07927584
-4.741427	bližší	-0.08409967
-4.741427	blond	-0.08320075
-4.741427	blondýnka	-0.07566062
-4.741427	bloumá	-0.0831297
-4.741427	bludům	-0.07207176
-4.741427	blátem	-0.08228415
-3.896329	blázen	-0.3739527
-4.440397	bláznivá	-0.08249765
-4.741427	bláznivé	-0.08398149
-4.741427	bláznovství	-0.04415316
-4.264306	blíž	-0.07083096
-4.741427	bobeček	-0.04415316
-4.741427	body	-0.08409967
-4.741427	bodáky	-0.07620643
-4.741427	boha	-0.04415316
-4.264306	bohatá	-0.07018075
-4.741427	bohatého	-0.08407603
-4.440397	bohatý	-0.07187735
-4.440397	bohatých	-0.2756145
-4.440397	bohužel	-0.04401495
-4.741427	boj	-0.08081831
-4.741427	bojoval	-0.0827743
-4.741427	bojovat	-0.0827743
-4.741427	bojovný	-0.08210218
-4.741427	bojovně	-0.08409967
-4.741427	bojí	-0.07620643
-4.440397	bojím	-0.06171296
-4.741427	bojíte	-0.08409179
-4.741427	bok	-0.07850254
-4.440397	bolelo	-0.06598802
-3.440398	bolest	-0.132427
-3.838337	bolesti	-0.1307343
-4.741427	bolestné	-0.07207176
-4.741427	bolestně	-0.04415316
-4.042458	bolestí	-0.1619436
-4.741427	bolestín	-0.04415316
-4.741427	bolet	-0.07207176
-4.741427	bollandisté	-0.08230788
-4.264306	bolí	-0.06639026
-4.741427	bonbóny	-0.08147657
-4.741427	borůvčím	-0.08402088
-4.264306	boty	-0.1488837
-4.440397	botách	-0.02507796
-4.741427	bouchala	-0.08338226
-4.741427	bouchl	-0.0827743
-4.741427	bouchá	-0.04415316
-4.741427	bouře	-0.08081831
-4.741427	bouři	-0.08409967
-4.741427	bouřit	-0.04415316
-4.741427	boxerku	-0.04415316
-4.264306	bože	-0.4285422
-4.741427	božském	-0.0840524
-4.741427	božský	-0.07207176
-3.565336	boží	-0.1315841
-4.741427	božího	-0.08409179
-4.264306	božím	-0.04411862
-4.741427	brabec	-0.04415316
-4.741427	brada	-0.07207176
-4.741427	bradatý	-0.08409967
-4.440397	bradou	-0.02507796
-4.741427	brajgl	-0.06674293
-4.264306	bral	-0.1604532
-4.741427	bralo	-0.08211009
-4.741427	brankář	-0.08211009
-4.264306	bratr	-0.04410134
-4.741427	bratrance	-0.04415316
-4.741427	bratři	-0.08387117
-4.741427	bravuru	-0.082798
-4.264306	brašnář	-0.02505993
-4.741427	brašnáře	-0.08081831
-4.741427	brejle	-0.07207176
-4.741427	brejlil	-0.08409967
-4.139368	breku	-0.05125402
-4.741427	breptal	-0.07207176
-3.896329	brečel	-0.002178021
-4.264306	brečet	-0.08192013
-4.741427	brečí	-0.04415316
-4.741427	brilianty	-0.07207176
-4.264306	brouk	-0.03543898
-4.741427	brouků	-0.082798
-4.741427	brouzdal	-0.07566062
-4.741427	brouček	-0.04415316
-4.741427	brovninku	-0.08211009
-4.741427	brumlal	-0.04415316
-4.741427	brumlá	-0.07620643
-4.741427	brunátný	-0.08409967
-4.440397	brutální	-0.04413588
-4.741427	brutálnímu	-0.08406027
-3.462674	bručel	-0.3470154
-4.440397	bryndáček	-0.03548302
-4.741427	brzdy	-0.06674293
-4.139368	brzo	-0.07884552
-4.139368	bránil	-0.4727024
-4.741427	bróm	-0.07207176
-4.741427	bubny	-0.07207176
-4.741427	bububu	-0.04415316
-4.741427	buchary	-0.04415316
-3.06933	bude	-0.07114999
-4.042458	budeme	-0.08383176
-4.264306	budete	-0.08115947
-4.440397	budeš	-0.08369773
-4.042458	budou	-0.07533925
-4.440397	budoucího	-0.06673472
-3.662246	budu	-0.07024676
-4.139368	budí	-0.07518651
-4.741427	burcoval	-0.0840524
-4.741427	burzu	-0.07207176
-4.741427	burácel	-0.08307444
-4.741427	burácení	-0.08234742
-4.741427	bučí	-0.07207176
-3.896329	buď	-0.1204721
-4.440397	buďte	-0.0810722
-4.741427	buďto	-0.08081831
-4.741427	buřince	-0.04415316
-2.531912	by	-0.2415276
-2.860614	bych	-0.2223749
-4.139368	bychom	-0.07284851
-4.042458	bydlel	-0.1459565
-3.963276	bydlí	-0.07402713
-4.741427	bydlím	-0.08081831
-4.741427	bydlíme	-0.08081831
-4.741427	bydlíte	-0.08081831
-2.421281	byl	-0.1266636
-2.772944	byla	-0.05341172
-3.565336	byli	-0.07075042
-2.611094	bylo	-0.2090147
-3.222914	byly	-0.08997943
-4.264306	bys	-0.08267947
-3.326454	byste	-0.2285602
-4.139368	byt	-0.01099152
-4.440397	bytné	-0.04410997
-4.440397	byty	-0.07167475
-3.963276	bytě	-0.3423547
-4.741427	bzučení	-0.07207176
-4.440397	bába	-0.08090559
-4.741427	bábou	-0.08234742
-4.440397	bábu	-0.0761984
-4.440397	báby	-0.04180647
-4.741427	bábě	-0.06674293
-4.741427	báječnou	-0.06674293
-4.741427	báječný	-0.08370563
-4.440397	bál	-0.02507796
-4.741427	báli	-0.04415316
-3.963276	báseň	-0.07975145
-4.264306	básní	-0.06170468
-4.741427	básníci	-0.08409967
-4.741427	básník	-0.04415316
-4.741427	básníka	-0.04415316
-3.741427	básně	-0.1054393
-4.440397	básněmi	-0.02507796
-4.741427	bát	-0.08356369
-4.741427	báči	-0.04415316
-4.741427	bída	-0.08126255
-4.440397	bídný	-0.08209425
-4.741427	bídu	-0.04415316
-4.741427	bídě	-0.07207176
-4.741427	bílá	-0.04415316
-4.264306	bílé	-0.08406027
-4.264306	bílém	-0.04412726
-4.741427	bílí	-0.0834296
-3.963276	bílý	-0.09890032
-4.440397	bílých	-0.08407602
-4.741427	býk	-0.04415316
-2.949036	být	-0.03576611
-4.741427	bývají	-0.06674293
-4.440397	býval	-0.08331123
-4.440397	bývala	-0.04410997
-4.264306	bývalo	-0.05769687
-4.741427	bývá	-0.08395785
-4.741427	býváme	-0.06674293
-4.440397	bědoval	-0.07594163
-4.741427	bědovala	-0.08401301
-4.741427	běhají	-0.07927584
-4.042458	běhal	-0.2661287
-4.741427	běhat	-0.07620643
-4.440397	během	-0.08403663
-4.440397	běhání	-0.2357626
-4.741427	běloučký	-0.08409967
-4.741427	bělovlasé	-0.08320075
-4.139368	běžel	-0.1635533
-4.741427	běželi	-0.08211009
-4.741427	běžet	-0.08409967
-4.440397	běží	-0.2745496
-4.440397	běžím	-0.07809539
-4.741427	břehu	-0.08408391
-4.741427	břehů	-0.06674293
-4.741427	břicha	-0.07207176
-4.440397	břichem	-0.07206365
-4.741427	břitkou	-0.08409967
-4.741427	břitva	-0.06674293
-4.741427	bříškem	-0.07207176
-4.264306	bůh	-0.4285422
-4.741427	bůhví	-0.08392633
-4.741427	bůhvíjaká	-0.08409967
-4.741427	bůhvíkde	-0.07620643
-4.741427	caespitosum	-0.08407603
-4.741427	carcere	-0.08409967
-4.741427	care	-0.08409967
-4.741427	catenis	-0.08228415
-4.741427	cauda	-0.08409967
-4.440397	cavyky	-0.07000989
-4.741427	cavykách	-0.07207176
-4.741427	cedulka	-0.08210218
-4.440397	cela	-0.08313758
-4.440397	cele	-0.04413588
-4.741427	celkem	-0.08294019
-4.741427	cello	-0.04415316
-4.741427	celní	-0.08409967
-3.787185	celou	-0.3517345
-4.741427	celu	-0.08409967
-3.896329	cely	-0.1083086
-3.741427	celá	-0.1505093
-3.700035	celé	-0.07461525
-4.264306	celého	-0.08389481
-4.264306	celém	-0.2019412
-3.294269	celý	-0.1371981
-4.741427	cena	-0.06674293
-4.741427	centimetrů	-0.08409967
-3.537308	cenu	-0.1261496
-4.741427	ceny	-0.04415316
-4.741427	cest	-0.08409967
-4.440397	cesta	-0.08291648
-4.139368	cestou	-0.0827664
-4.741427	cestovatelem	-0.082798
-4.741427	cestování	-0.07207176
-3.741427	cestu	-0.06369893
-4.139368	cestující	-0.296338
-4.264306	cesty	-0.1834308
-4.440397	chalup	-0.07615829
-4.741427	chalupy	-0.07207176
-4.741427	chalupě	-0.08407603
-4.741427	charakter	-0.06674293
-4.741427	charakterní	-0.08409967
-4.741427	chasník	-0.04415316
-4.741427	chatrný	-0.08397361
-4.741427	chatrnější	-0.08379235
-3.537308	chce	-0.05276701
-3.838337	chcete	-0.05568888
-4.440397	chceš	-0.2357626
-4.741427	chci	-0.08400512
-4.741427	chcíplá	-0.08409179
-4.741427	chemikové	-0.08211009
-4.741427	chladná	-0.04415316
-4.741427	chladných	-0.07207176
-4.741427	chladně	-0.08320075
-3.565336	chlap	-0.03907435
-4.139368	chlapa	-0.06519892
-4.741427	chlape	-0.04415316
-4.741427	chlapeček	-0.08228415
-4.440397	chlapi	-0.04129389
-4.741427	chlapovi	-0.04415316
-4.741427	chlapské	-0.08409967
-4.741427	chlapy	-0.08408391
-4.139368	chlapík	-0.1346603
-4.440397	chlapíka	-0.04195405
-4.741427	chlapče	-0.04415316
-4.440397	chlapů	-0.07594965
-4.741427	chlastají	-0.07207176
-3.963276	chleba	-0.1735127
-4.741427	chlubili	-0.04415316
-4.741427	chlubivost	-0.07207176
-4.741427	chlubí	-0.04415316
-4.741427	chlup	-0.06674293
-4.440397	chlupy	-0.06171296
-4.440397	chlácholil	-0.0661194
-4.741427	chlácholivého	-0.08409967
-4.741427	chlácholivě	-0.04415316
-4.741427	chládek	-0.08333492
-4.741427	chléb	-0.04415316
-4.741427	chlív	-0.08359524
-4.741427	chodbičku	-0.04415316
-4.741427	chodbu	-0.07207176
-4.440397	chodby	-0.07618235
-4.042458	chodbě	-0.07187737
-3.700035	chodil	-0.08710387
-4.440397	chodili	-0.2357626
-4.139368	chodit	-0.1493017
-4.440397	chodníku	-0.07171527
-3.963276	chodí	-0.09295832
-4.741427	chopil	-0.07566062
-4.741427	choroba	-0.0798728
-4.741427	chorobná	-0.08409967
-4.741427	chorobou	-0.04415316
-4.741427	chorobu	-0.04415316
-4.741427	choutky	-0.04415316
-4.741427	chovají	-0.08409967
-4.264306	choval	-0.0828375
-4.741427	chovali	-0.08210218
-4.264306	chovat	-0.1998799
-4.741427	chová	-0.07566062
-4.741427	chraptivě	-0.07207176
-4.440397	chraptěl	-0.06659532
-4.741427	chrchlaje	-0.08409967
-4.440397	chrlil	-0.04054564
-4.741427	chrochtají	-0.08409967
-4.741427	chrochtat	-0.04415316
-4.741427	chrochtá	-0.08409967
-4.741427	chromého	-0.04415316
-4.440397	chrup	-0.04275186
-4.440397	chrám	-0.06537987
-4.741427	chrámech	-0.08409967
-4.741427	chránil	-0.04415316
-4.741427	chrápala	-0.07207176
-4.741427	chrčivě	-0.08409967
-4.741427	chtíčům	-0.08409967
-4.741427	chtějí	-0.08406027
-3.399005	chtěl	-0.03654391
-3.896329	chtěla	-0.07879767
-4.042458	chtěli	-0.04410135
-4.741427	chudou	-0.08409967
-4.741427	chudá	-0.08409179
-4.264306	chudák	-0.0837214
-4.440397	chudáka	-0.04315887
-4.741427	chudí	-0.08389481
-4.741427	chutě	-0.06674293
-4.741427	chuť	-0.08409967
-4.042458	chvilku	-0.04404953
-4.741427	chválili	-0.07620643
-3.963276	chvíle	-0.01756884
-4.139368	chvílemi	-0.06793824
-3.236277	chvíli	-0.1938964
-4.741427	chvílích	-0.07850254
-4.741427	chvěním	-0.07566062
-4.264306	chyba	-0.4511319
-4.741427	chybičku	-0.06674293
-4.440397	chybu	-0.0822604
-4.139368	chybí	-0.08288491
-4.741427	chybělo	-0.07620643
-4.741427	chyběly	-0.08081831
-4.741427	chybět	-0.08408391
-4.264306	chystá	-0.08331914
-4.440397	chytal	-0.07564455
-4.741427	chytil	-0.0827743
-4.264306	chytit	-0.1834061
-3.963276	chytli	-0.01780748
-4.440397	chytlo	-0.06171296
-4.741427	chytneme	-0.06674293
-4.741427	chytrák	-0.07207176
-4.741427	chytrý	-0.08321653
-4.741427	chytřejší	-0.08379235
-4.741427	cifry	-0.08409967
-4.440397	cigaret	-0.06537987
-4.741427	cigareta	-0.0827743
-4.440397	cigarety	-0.03093975
-4.139368	cikáni	-0.01600526
-4.741427	cikánská	-0.04415316
-4.741427	cimře	-0.04415316
-4.741427	cinkl	-0.08409967
-4.741427	cinknul	-0.08211009
-4.741427	ciráty	-0.07620643
-4.139368	cit	-0.1201263
-4.741427	citem	-0.04415316
-4.139368	citerista	-0.1100842
-4.741427	citlivka	-0.04415316
-4.440397	citové	-0.08409178
-4.440397	citu	-0.05851642
-4.042458	city	-0.05215366
-4.741427	citů	-0.08379235
-4.741427	civile	-0.04415316
-4.741427	civilní	-0.08408391
-4.741427	civilního	-0.04415316
-4.741427	civilu	-0.04415316
-4.741427	cize	-0.08409967
-4.741427	cizinec	-0.04415316
-4.741427	ciziny	-0.08230788
-4.741427	cizokrajného	-0.08409179
-4.741427	cizokrajnými	-0.08409967
-4.264306	cizí	-0.04401496
-4.264306	cizího	-0.2017284
-4.741427	cizími	-0.08408391
-2.393122	co	-0.1821697
-4.741427	colubrina	-0.08407603
-4.741427	comandante	-0.04415316
-4.741427	confessionis	-0.06674293
-3.787185	copak	-0.08712372
-4.741427	corniger	-0.04415316
-4.741427	corpus	-0.08409967
-3.896329	cosi	-0.203189
-3.963276	couro	-0.6929111
-3.963276	cti	-0.1644972
-4.741427	ctibažný	-0.04415316
-4.741427	ctihodné	-0.08407603
-4.741427	ctihodní	-0.08402088
-4.741427	ctil	-0.07207176
-4.042458	ctižádost	-0.2122662
-4.741427	ctižádosti	-0.08196763
-4.741427	cukat	-0.06104066
-4.741427	cuklo	-0.04415316
-4.741427	curyšské	-0.08409967
-4.741427	cvakaly	-0.06674293
-4.741427	cvičení	-0.07620643
-4.741427	cvičili	-0.08081831
-4.741427	cynického	-0.07207176
-4.741427	cácorka	-0.04415316
-4.741427	césurách	-0.04415316
-4.741427	cín	-0.06674293
-4.741427	cíp	-0.082877
-4.741427	církev	-0.0831297
-3.700035	cítil	-0.08365201
-4.264306	cítili	-0.201413
-4.139368	cítit	-0.02505091
-4.741427	cítí	-0.08404452
-4.741427	cítím	-0.04415316
-4.741427	cítíte	-0.08408391
-4.741427	cůpek	-0.06674293
-4.741427	d	-0.08409967
-4.042458	dají	-0.0684775
-4.741427	daktyloskopie	-0.04415316
-4.741427	daktyloskopista	-0.08404452
-4.440397	daktýlky	-0.03548302
-3.419208	dal	-0.1415054
-4.042458	dala	-0.0789093
-4.741427	daleko	-0.08403664
-4.741427	daleké	-0.08407603
-3.838337	dali	-0.07598177
-3.896329	dalo	-0.1302269
-4.741427	daly	-0.08409967
-4.264306	další	-0.04406679
-4.741427	dalších	-0.08402877
-4.741427	daroval	-0.08344538
-4.741427	darovat	-0.06674293
-4.741427	daruju	-0.08409179
-4.741427	dary	-0.08359524
-4.741427	datum	-0.07207176
-4.741427	daří	-0.08409967
-4.741427	dbát	-0.08312181
-4.741427	dcera	-0.04415316
-4.741427	dcerou	-0.08211009
-4.741427	dcery	-0.08409179
-4.440397	dddo	-0.08406026
-4.741427	dech	-0.08409967
-4.440397	dechem	-0.03800419
-4.139368	dechu	-0.02505994
-4.741427	defraudanta	-0.07207176
-4.741427	defraudanti	-0.07207176
-4.741427	dej	-0.08406027
-4.139368	dejme	-0.3345963
-4.741427	dejte	-0.07927584
-4.741427	dekret	-0.08334281
-4.440397	deku	-0.03548302
-4.741427	delicti	-0.06674293
-4.741427	delikt	-0.08409967
-4.741427	deliktu	-0.07207176
-4.741427	demarše	-0.04415316
-3.399005	den	-0.09793162
-4.741427	denní	-0.04415316
-4.440397	denně	-0.07982506
-4.741427	derbent	-0.04415316
-4.741427	dervišů	-0.07620643
-3.462674	deset	-0.2815886
-4.741427	desetiletý	-0.08398149
-4.741427	desetkrát	-0.06674293
-4.741427	desperátního	-0.06674293
-4.741427	desáté	-0.08409179
-4.042458	detektiv	-0.04358282
-4.741427	detektivovi	-0.04415316
-4.741427	detektivy	-0.07620643
-4.741427	detektivům	-0.07207176
-4.440397	devadesát	-0.2757012
-4.741427	devatenáct	-0.082798
-4.264306	devět	-0.04397177
-4.741427	dezentér	-0.06674293
-4.741427	dezerce	-0.0827743
-4.741427	deziluze	-0.07207176
-4.440397	dešifrování	-0.04412724
-4.741427	dešti	-0.08371352
-4.440397	diamant	-0.07001803
-4.741427	diamantem	-0.08409179
-4.741427	diamanty	-0.082798
-4.741427	diametrálně	-0.08400512
-4.440397	dio	-0.04414451
-4.741427	diplomati	-0.08406816
-3.896329	direkci	-0.1496159
-4.741427	dirigent	-0.07207176
-4.440397	dirigoval	-0.0756847
-4.741427	disciplinárku	-0.04415316
-4.741427	dispozici	-0.08262414
-4.440397	div	-0.08146863
-4.264306	divil	-0.01538745
-4.741427	divizní	-0.08400512
-4.741427	divizním	-0.08407603
-4.264306	divnou	-0.08379235
-4.440397	divná	-0.08388691
-3.741427	divné	-0.1383984
-4.741427	divného	-0.08230788
-3.963276	divný	-0.04408406
-4.440397	divných	-0.2636811
-4.440397	divným	-0.08409178
-4.264306	divně	-0.08369774
-4.741427	divoce	-0.04415316
-4.440397	divocí	-0.2756854
-4.741427	divoké	-0.08409967
-4.741427	divotvorné	-0.08409967
-4.741427	diví	-0.04415316
-4.440397	divím	-0.03488352
-4.741427	divže	-0.07850254
-4.741427	diéty	-0.04415316
-4.741427	diškerece	-0.07620643
-4.440397	diťátko	-0.2357626
-4.741427	dlani	-0.06674293
-4.741427	dlažbu	-0.07207176
-3.896329	dlouho	-0.0325127
-4.741427	dlouhou	-0.08406027
-4.264306	dlouhá	-0.07201507
-4.264306	dlouhé	-0.04410998
-4.741427	dlouhého	-0.08409179
-4.440397	dlouhý	-0.04414451
-4.741427	dlouhých	-0.08406027
-4.741427	dlouhými	-0.08210218
-4.741427	dluh	-0.08147657
-4.741427	dluhem	-0.04415316
-4.264306	dluhy	-0.1620799
-4.741427	dluhům	-0.04415316
-4.741427	dlužen	-0.04415316
-3.537308	dne	-0.072006
-4.741427	dnech	-0.08409179
-3.787185	dnes	-0.05803995
-4.264306	dneska	-0.07076598
-4.741427	dnešní	-0.08409967
-4.741427	dnešním	-0.08409967
-3.627484	dny	-0.05887806
-3.595299	dní	-0.0177396
-4.741427	dně	-0.08399725
-4.440397	dnů	-0.07846262
-4.741427	dnům	-0.08406816
-2.338307	do	-0.2206245
-4.741427	dob	-0.04415316
-4.741427	dobrodruh	-0.04415316
-4.741427	dobrodružnosti	-0.04415316
-4.741427	dobrodružností	-0.06674293
-4.264306	dobrodružství	-0.1764604
-4.440397	dobrou	-0.08407602
-4.741427	dobrovolné	-0.08407603
-4.741427	dobrovolně	-0.07207176
-4.440397	dobrozdání	-0.06671832
-4.741427	dobru	-0.06674293
-4.042458	dobrá	-0.2137487
-4.741427	dobráka	-0.08409967
-4.042458	dobré	-0.1314618
-4.741427	dobrého	-0.08409967
-4.741427	dobrém	-0.08406816
-4.440397	dobrý	-0.08409178
-4.741427	dobrých	-0.08395785
-3.963276	dobu	-0.07253311
-3.486155	doby	-0.07413434
-4.139368	době	-0.04315024
-3.310064	dobře	-0.1871957
-3.486155	docela	-0.06100904
-3.963276	docent	-0.3675101
-4.741427	docenta	-0.08409179
-4.741427	docentem	-0.08409967
-4.741427	docházely	-0.08407603
-4.741427	dochází	-0.08408391
-4.741427	docílit	-0.04415316
-4.264306	dodal	-0.08390269
-4.741427	dodala	-0.08409967
-4.741427	dodavatele	-0.06674293
-4.741427	dodnes	-0.08409967
-3.963276	dodával	-0.1357908
-4.741427	dodávala	-0.08320075
-4.741427	dodávat	-0.08408391
-4.741427	dodává	-0.04415316
-4.741427	dohazoval	-0.08409967
-4.741427	dohořívá	-0.08409179
-4.741427	dohromady	-0.04415316
-4.741427	dojat	-0.08210218
-4.440397	dojatě	-0.03488352
-4.741427	dojde	-0.08409967
-4.741427	dojede	-0.08211009
-4.741427	dojeli	-0.08211009
-4.440397	dojem	-0.02507796
-4.741427	dokonalí	-0.08409967
-4.741427	dokonalý	-0.08409967
-3.896329	dokonce	-0.1200605
-4.741427	dokonám	-0.04415316
-4.741427	dokořán	-0.07207176
-3.236277	doktor	-0.5652876
-4.139368	doktora	-0.1690514
-3.838337	doktore	-0.7138861
-4.741427	doktorem	-0.06674293
-4.741427	doktorovi	-0.04415316
-4.741427	doktoru	-0.08409967
-4.741427	doktory	-0.04415316
-4.741427	doktoři	-0.08399725
-3.963276	dokud	-0.1239802
-4.440397	dokázat	-0.03548302
-4.741427	doků	-0.07620643
-4.741427	dolarové	-0.08409967
-3.963276	dole	-0.03456581
-4.741427	doličný	-0.04415316
-4.741427	dolní	-0.08395785
-4.264306	dolus	-0.03363781
-3.595299	dolů	-0.1647493
-3.662246	doma	-0.04391404
-4.741427	domečku	-0.07207176
-4.741427	domino	-0.07207176
-4.741427	domlouvat	-0.06674293
-4.741427	domlouvám	-0.08368198
-4.741427	domluva	-0.04415316
-4.741427	domluvili	-0.06674293
-4.741427	domluvit	-0.06674293
-4.741427	domluvu	-0.08126255
-4.741427	domluvy	-0.08387117
-4.741427	domnělou	-0.08409967
-4.741427	domov	-0.06674293
-4.741427	domova	-0.08409967
-4.741427	domovnice	-0.04415316
-4.741427	domovnici	-0.08395785
-4.741427	domovní	-0.08406816
-4.741427	domovníci	-0.07207176
-4.264306	domovník	-0.04220571
-4.741427	domovníka	-0.06674293
-4.741427	domovníkovi	-0.04415316
-4.741427	domovníkovým	-0.08409967
-4.741427	domovníkův	-0.08409179
-3.741427	domu	-0.1671021
-4.741427	domácká	-0.08406027
-4.440397	domácnost	-0.03488352
-4.741427	domácnosti	-0.0798728
-4.139368	domácí	-0.08382389
-4.741427	domácích	-0.08400512
-4.264306	domě	-0.06397129
-3.399005	domů	-0.2246312
-4.139368	donesl	-0.0828217
-4.440397	donesla	-0.08221293
-4.440397	dopadl	-0.04412724
-4.741427	dopadla	-0.08409967
-4.741427	dopadlo	-0.08228415
-4.440397	dopadne	-0.07945898
-3.700035	dopis	-0.07798168
-4.741427	dopisovala	-0.08356369
-4.139368	dopisy	-0.02879784
-4.139368	dopisů	-0.06128979
-4.741427	doporučil	-0.08409967
-4.741427	doprava	-0.07927584
-4.741427	doprovodím	-0.04415316
-4.741427	doptat	-0.04415316
-4.440397	dopustil	-0.03488352
-4.741427	dopustí	-0.08409967
-4.741427	dopáleně	-0.04415316
-4.741427	dopálil	-0.06674293
-4.741427	dorozumíme	-0.08389481
-4.741427	dort	-0.0827743
-4.741427	doručili	-0.08388693
-4.741427	dosah	-0.08409967
-4.741427	dosahuje	-0.08409967
-4.741427	doslovně	-0.08395785
-4.741427	dospíval	-0.07620643
-4.741427	dospěle	-0.08230788
-3.700035	dost	-0.06629179
-3.343487	dostal	-0.04962155
-4.741427	dostala	-0.08211009
-4.264306	dostali	-0.04386808
-4.741427	dostaly	-0.08362678
-3.963276	dostane	-0.07265444
-4.741427	dostanete	-0.08387117
-4.741427	dostaneš	-0.04415316
-4.440397	dostanou	-0.08194387
-3.627484	dostat	-0.06586009
-4.440397	dostával	-0.08273477
-4.440397	dostávala	-0.08268736
-4.741427	dostávali	-0.08373716
-4.741427	dostává	-0.08406816
-3.896329	dosud	-0.08377659
-4.741427	dosvědčovali	-0.06674293
-4.741427	dosvědčím	-0.08379235
-4.741427	dosvědčíme	-0.08196763
-4.741427	dosvědčíte	-0.04415316
-4.741427	dotazy	-0.08147657
-4.741427	dotkl	-0.07566062
-4.741427	dotknout	-0.06674293
-4.741427	dotyčná	-0.08407603
-4.264306	dotyčného	-0.08404452
-4.741427	dotyčném	-0.08406816
-4.741427	dotyční	-0.08406027
-4.741427	dotýká	-0.08409967
-4.741427	dotěrným	-0.07620643
-4.741427	doufal	-0.04415316
-3.963276	dovede	-0.1183242
-4.440397	dovedete	-0.2756775
-4.139368	dovedl	-0.08051661
-4.440397	dovedli	-0.08258461
-4.264306	dovedou	-0.06602909
-4.741427	dovedu	-0.08409179
-4.741427	dovezli	-0.07927584
-4.741427	dovezu	-0.08294019
-4.440397	dovnitř	-0.02507796
-4.741427	dovolení	-0.04415316
-4.741427	dovolili	-0.04415316
-4.741427	dovolujete	-0.08228415
-4.741427	dovolával	-0.07566062
-4.741427	dovtípil	-0.04415316
-4.440397	dovídáme	-0.2357626
-4.741427	doznala	-0.04415316
-4.741427	doznávala	-0.08383176
-3.741427	dozorce	-0.04778296
-4.741427	dozvíme	-0.04415316
-4.741427	dočetl	-0.04415316
-4.440397	dočista	-0.08350058
-4.741427	dočíst	-0.08351637
-4.139368	došel	-0.1633616
-4.741427	došla	-0.08409967
-4.440397	dožral	-0.2636811
-4.440397	dožralo	-0.2357626
-4.741427	dožrán	-0.08210218
-4.741427	dožívá	-0.08402877
-4.139368	dr	-0.4637847
-4.741427	drahocenný	-0.08406027
-4.741427	drahá	-0.04415316
-4.741427	drahý	-0.08409967
-4.741427	drahých	-0.08409967
-4.741427	dramatická	-0.08409967
-4.741427	dramatickým	-0.08407603
-4.741427	drandil	-0.08150034
-4.440397	drbal	-0.2701119
-4.741427	drdůlek	-0.08409967
-4.741427	drkotají	-0.08391845
-4.440397	drkotal	-0.081096
-4.741427	drkotali	-0.08391845
-4.741427	drmolil	-0.08394998
-3.838337	drobet	-0.1109938
-4.741427	drobnou	-0.07207176
-4.440397	drobného	-0.2636811
-4.741427	drobný	-0.08321653
-4.741427	drsní	-0.08409967
-4.440397	drsný	-0.04414451
-4.741427	drtivě	-0.06674293
-4.741427	druh	-0.08409967
-4.741427	druha	-0.07620643
-4.741427	druhem	-0.08409967
-4.264306	druhou	-0.07435755
-4.741427	druhu	-0.04415316
-4.741427	druhy	-0.08409179
-4.042458	druhá	-0.04899675
-3.565336	druhé	-0.1077791
-4.264306	druhého	-0.2019097
-4.042458	druhém	-0.07203127
-4.264306	druhému	-0.04217101
-3.700035	druhý	-0.03186467
-4.042458	druhým	-0.1709169
-4.440397	druzí	-0.06652971
-4.741427	drzost	-0.04415316
-4.741427	dráhu	-0.06674293
-4.741427	dráhy	-0.07207176
-4.741427	dráze	-0.08408391
-4.139368	držel	-0.1668542
-4.741427	drželi	-0.08409179
-4.440397	držet	-0.04362603
-4.042458	drží	-0.1303482
-4.741427	držím	-0.08403664
-4.741427	držíte	-0.082877
-4.741427	duběnkami	-0.07207176
-4.741427	ducha	-0.06674293
-4.741427	duchař	-0.07207176
-4.264306	duchem	-0.201894
-4.741427	duchovní	-0.08409967
-4.741427	duchovně	-0.08409967
-4.741427	dudek	-0.06674293
-4.741427	duní	-0.04415316
-4.741427	duplikáty	-0.08409967
-4.741427	dupání	-0.07207176
-4.139368	duše	-0.08216549
-4.741427	dušeně	-0.08409967
-4.741427	dušezpytným	-0.07207176
-3.700035	duši	-0.158242
-4.741427	dušovali	-0.07207176
-3.250066	dva	-0.1541781
-3.963276	dvacet	-0.09883119
-4.440397	dvaceti	-0.2756382
-4.741427	dvacetiletý	-0.08398149
-4.741427	dvacetkrát	-0.08402088
-3.787185	dvanáct	-0.05685879
-4.741427	dvanácti	-0.08409967
-3.741427	dveře	-0.1612682
-4.264306	dveřmi	-0.05849137
-4.264306	dveří	-0.06330246
-3.700035	dveřích	-0.06414331
-4.741427	dvora	-0.04415316
-4.264306	dvorek	-0.04573928
-4.139368	dvorku	-0.1248216
-3.963276	dvou	-0.08138938
-4.264306	dvoře	-0.03876558
-4.741427	dvéře	-0.07207176
-3.361216	dvě	-0.1660969
-4.741427	dvěma	-0.08400512
-4.440397	dvůr	-0.07205555
-4.741427	dychtivou	-0.08409967
-4.741427	dychtivě	-0.06674293
-4.741427	dycky	-0.0798728
-4.042458	dyť	-0.1075924
-3.838337	dá	-0.2357412
-3.510978	dál	-0.1866896
-3.787185	dále	-0.1556409
-4.440397	dálky	-0.04414451
-4.440397	dálo	-0.02507796
-4.741427	dály	-0.08404452
-3.896329	dám	-0.08027033
-4.741427	dáma	-0.04415316
-4.440397	dáme	-0.08210216
-4.741427	dámou	-0.07207176
-4.139368	dámě	-0.03545661
-3.700035	dát	-0.07003433
-4.440397	dáte	-0.08407602
-4.741427	dávají	-0.0831297
-4.264306	dával	-0.0595929
-4.741427	dávala	-0.08409179
-4.741427	dávali	-0.08406027
-4.741427	dávat	-0.04415316
-4.741427	dávejte	-0.08406027
-4.741427	dávky	-0.08409967
-4.264306	dávno	-0.07991257
-4.741427	déle	-0.07545979
-4.741427	dík	-0.0837687
-4.741427	dílem	-0.08391845
-4.741427	dílny	-0.04415316
-4.741427	díra	-0.082798
-4.741427	dírka	-0.07207176
-3.250066	dítě	-0.07131856
-4.440397	dítěte	-0.2357626
-4.139368	dítětem	-0.1467281
-4.741427	dítěti	-0.07927584
-3.896329	díval	-0.2395235
-4.440397	dívala	-0.0761984
-4.440397	dívali	-0.04222304
-4.440397	dívat	-0.04412724
-4.741427	dívám	-0.07927584
-4.440397	díváte	-0.07914836
-4.741427	díže	-0.0798728
-4.741427	díži	-0.04415316
-4.741427	dýchalo	-0.07620643
-4.440397	dýku	-0.06171296
-4.741427	dýl	-0.04415316
-4.440397	děcko	-0.07861422
-4.741427	dědeček	-0.08343749
-4.741427	dědečkovi	-0.06674293
-4.741427	dědil	-0.06674293
-4.741427	dědit	-0.06674293
-4.741427	děj	-0.07620643
-4.440397	děje	-0.08368985
-4.741427	dějin	-0.06674293
-4.741427	dějí	-0.08406816
-4.741427	děkujeme	-0.04415316
-4.264306	děkuju	-0.4285422
-3.787185	děl	-0.2664281
-4.741427	děla	-0.08409179
-3.741427	dělají	-0.0523058
-3.510978	dělal	-0.04874931
-4.440397	dělala	-0.07964206
-4.042458	dělali	-0.2306341
-4.741427	dělanou	-0.08409967
-3.361216	dělat	-0.1101157
-4.139368	dělejte	-0.1259636
-3.486155	dělá	-0.06859522
-4.440397	dělám	-0.2583523
-4.741427	děláme	-0.08403664
-4.741427	dělány	-0.08371352
-4.741427	dělání	-0.08406027
-4.440397	děláte	-0.08219711
-4.440397	děsit	-0.2678158
-4.741427	děsná	-0.08406816
-4.440397	děsné	-0.04414451
-4.741427	děsného	-0.08409967
-4.440397	děsný	-0.08399723
-4.741427	děsných	-0.08409967
-4.741427	děsným	-0.08409967
-4.440397	děsně	-0.08408389
-4.741427	dětem	-0.08409967
-3.627484	děti	-0.02143814
-4.741427	dětičkami	-0.07927584
-4.741427	dětmi	-0.08147657
-4.741427	dětské	-0.08409967
-4.741427	dětský	-0.08409967
-4.440397	dětství	-0.054209
-4.741427	děvkař	-0.07207176
-4.440397	děvče	-0.04410133
-4.440397	děvčátko	-0.04129389
-4.741427	děťátko	-0.07207176
-4.741427	dřeva	-0.06674293
-4.741427	dřevěná	-0.07620643
-4.741427	dřevěné	-0.08408391
-4.741427	dřevěný	-0.08395785
-4.741427	dřímal	-0.04415316
-3.787185	dřív	-0.06611942
-4.741427	důkladnost	-0.07207176
-4.741427	důkladná	-0.06674293
-4.741427	důkladný	-0.08409179
-4.741427	důlek	-0.08081831
-4.264306	důležité	-0.06468851
-4.741427	důležitého	-0.08260834
-4.741427	důležitě	-0.08409179
-4.741427	důležitější	-0.06674293
-4.440397	dům	-0.08143693
-4.440397	důmyslu	-0.2636811
-4.741427	důraz	-0.07927584
-4.741427	důsledný	-0.04415316
-4.741427	důstojnost	-0.08230788
-4.741427	důstojnou	-0.06674293
-4.741427	důstojníci	-0.08387905
-4.139368	důstojný	-0.1573615
-4.440397	důstojně	-0.0761984
-4.741427	důvod	-0.08409967
-4.741427	důvtipu	-0.07620643
-4.741427	důvěrnosti	-0.07850254
-4.741427	důvěrné	-0.08409967
-4.741427	důvěrníkem	-0.04415316
-4.741427	důvěrný	-0.08409967
-4.741427	důvěrně	-0.06674293
-4.440397	důvěrou	-0.08409178
-3.896329	důvěru	-0.01895299
-4.440397	důvěry	-0.2357626
-4.741427	důvěryhodné	-0.08409967
-4.741427	důvěře	-0.07620643
-4.741427	džentlmeni	-0.06674293
-4.741427	einrücken	-0.08196763
-4.741427	elegantně	-0.08409967
-4.741427	elektrickou	-0.08409967
-4.741427	energicky	-0.08395785
-4.741427	energii	-0.04415316
-4.741427	enyky	-0.04415316
-4.741427	equina	-0.06674293
-4.440397	erár	-0.2747312
-4.741427	erární	-0.08393421
-4.741427	esli	-0.08210218
-4.741427	et	-0.08409967
-4.741427	evandělíci	-0.08406027
-4.741427	execiráku	-0.04415316
-4.440397	exempláře	-0.07206365
-4.741427	exhumaci	-0.08409967
-4.741427	existence	-0.07620643
-4.741427	existoval	-0.07620643
-4.741427	experimentu	-0.08394209
-4.741427	exponovaná	-0.08409179
-4.264306	extra	-0.07070099
-4.741427	extáze	-0.08409967
-4.741427	fabrikantem	-0.08409967
-4.741427	fabriky	-0.07927584
-4.741427	fair	-0.06674293
-4.741427	fakana	-0.08228415
-4.042458	faldíčky	-0.05819884
-4.741427	falešné	-0.08393421
-4.741427	falešný	-0.08391845
-4.741427	famílie	-0.04415316
-4.741427	fantazie	-0.082798
-4.741427	fantazii	-0.04415316
-4.741427	fantazu	-0.07207176
-4.741427	faru	-0.07620643
-4.741427	farář	-0.08359524
-4.741427	feldvébl	-0.07620643
-4.741427	felčar	-0.08150034
-4.741427	fenu	-0.08409967
-4.741427	fialový	-0.08407603
-4.741427	fialovým	-0.08409179
-4.741427	figur	-0.08360312
-4.741427	fiktivní	-0.08400512
-4.440397	filatelista	-0.07597373
-4.741427	filatelisti	-0.04415316
-4.741427	filatelistické	-0.08409967
-4.741427	filozofové	-0.0828296
-4.264306	fimbriatus	-0.06355856
-4.741427	firem	-0.04415316
-4.741427	firma	-0.06674293
-4.264306	firmy	-0.2020279
-4.741427	flašinetář	-0.04415316
-4.741427	flašinetáře	-0.04415316
-4.264306	flek	-0.05849972
-4.741427	flekatá	-0.08359524
-4.741427	fleku	-0.08409967
-4.741427	fleky	-0.07620643
-4.741427	flirtovala	-0.08210218
-4.741427	flákač	-0.04415316
-4.741427	flámu	-0.07207176
-4.741427	foliantů	-0.08403664
-4.741427	forma	-0.082798
-4.741427	formalitách	-0.06674293
-4.741427	formátu	-0.08110394
-4.741427	fortele	-0.08371352
-4.741427	forvard	-0.08081831
-4.741427	fotbalista	-0.07207176
-4.741427	fotelu	-0.08409967
-4.440397	fotografie	-0.04391127
-4.440397	fotografii	-0.0748728
-4.741427	fotografovat	-0.08196763
-4.741427	foukl	-0.08211009
-4.741427	fousatý	-0.08391057
-4.741427	fousů	-0.08409967
-4.741427	fošen	-0.07207176
-4.741427	frajlinka	-0.04415316
-4.741427	francefús	-0.04415316
-4.440397	francouzsky	-0.06936661
-4.741427	franků	-0.08211009
-4.741427	frigidní	-0.08399725
-4.741427	frkal	-0.07207176
-3.896329	frontu	-0.230763
-4.741427	fuchtle	-0.04415316
-4.741427	fuj	-0.08409179
-4.741427	fuk	-0.04415316
-4.741427	funebráků	-0.04415316
-4.741427	fungovat	-0.06674293
-4.741427	funkcím	-0.04415316
-4.741427	funěla	-0.08309022
-4.440397	fyzický	-0.2756697
-4.741427	fyzik	-0.06674293
-4.741427	fádní	-0.08401301
-4.741427	fór	-0.08404452
-4.741427	fůru	-0.08408391
-4.741427	galantnosti	-0.08409967
-4.741427	galoše	-0.07207176
-4.741427	galán	-0.08395785
-4.440397	gatích	-0.07206365
-4.741427	gaunerů	-0.0837687
-4.741427	gauneři	-0.04415316
-4.741427	gazda	-0.08409967
-4.741427	gazdové	-0.08409967
-4.741427	gazdy	-0.08234742
-4.741427	gazdů	-0.07207176
-4.741427	generace	-0.08409967
-4.741427	generál	-0.07207176
-4.741427	generále	-0.04415316
-4.741427	geniální	-0.08321653
-4.264306	geometr	-0.06065007
-4.741427	gesta	-0.07620643
-4.741427	glochidy	-0.04415316
-4.741427	gotýsek	-0.07620643
-4.741427	grafolog	-0.07620643
-4.741427	grafologický	-0.08406816
-4.741427	gramy	-0.08350848
-4.440397	gramů	-0.02507796
-4.741427	grenoble	-0.08409967
-4.440397	grófinka	-0.08335857
-4.741427	grófinkou	-0.06674293
-4.741427	gumou	-0.04415316
-4.741427	gustem	-0.08110394
-4.741427	gymnazista	-0.04415316
-4.741427	gypsovku	-0.06674293
-4.264306	hadr	-0.4285422
-4.741427	hadry	-0.04415316
-4.741427	hadráře	-0.08407603
-4.440397	haf	-0.08408389
-4.741427	hafhaf	-0.04415316
-4.741427	hafáček	-0.0840524
-4.741427	hajat	-0.08196763
-4.440397	halt	-0.273577
-4.042458	halíře	-0.2023267
-4.741427	hamadan	-0.06674293
-4.264306	hambatá	-0.4663566
-4.741427	hanbou	-0.06674293
-4.741427	hanbu	-0.04415316
-4.741427	hanby	-0.06674293
-4.741427	hanbíš	-0.04415316
-4.741427	hanebnou	-0.04415316
-4.741427	hantýruje	-0.06674293
-4.741427	hapatykářské	-0.04415316
-4.741427	haraburdí	-0.04415316
-4.741427	harant	-0.08389481
-4.741427	haranta	-0.0828296
-4.741427	harf	-0.07620643
-4.264306	hasit	-0.01601446
-4.741427	hasič	-0.07566062
-4.741427	hasiči	-0.08147657
-4.741427	hasičský	-0.08409967
-4.741427	hasičů	-0.08379235
-4.741427	hasáku	-0.04415316
-4.741427	havran	-0.07207176
-4.741427	hazard	-0.07620643
-4.741427	hazardní	-0.08409179
-4.741427	hašením	-0.07620643
-4.741427	hedvábné	-0.08409967
-4.440397	hedvábí	-0.06171296
-4.741427	hejbaly	-0.04415316
-4.741427	hejble	-0.07207176
-4.741427	hejblů	-0.07620643
-4.440397	hekal	-0.02507796
-4.440397	hele	-0.03548302
-4.741427	hemžilo	-0.08409967
-4.741427	hercem	-0.082798
-4.264306	hergot	-0.4285422
-4.741427	heroická	-0.08409967
-4.741427	hezky	-0.08409967
-4.264306	hezká	-0.1899834
-4.741427	hezké	-0.08409179
-4.741427	hezký	-0.07207176
-4.741427	hezoučké	-0.08406816
-4.440397	historie	-0.04307231
-4.741427	historii	-0.0840524
-4.741427	historka	-0.08350059
-4.440397	hlad	-0.02507796
-4.741427	hladký	-0.08210218
-4.741427	hlaholil	-0.08333492
-4.741427	hlaholila	-0.08309022
-3.462674	hlas	-0.1010064
-4.139368	hlasem	-0.05135596
-4.264306	hlasitě	-0.06333552
-4.741427	hlasovat	-0.0813339
-4.741427	hlasy	-0.08409179
-4.264306	hlasů	-0.03346967
-4.741427	hlav	-0.08403664
-4.042458	hlava	-0.05654017
-4.042458	hlavní	-0.1463946
-3.896329	hlavně	-0.1247903
-3.462674	hlavou	-0.4195028
-3.838337	hlavu	-0.0853781
-3.896329	hlavy	-0.4879494
-4.264306	hlavě	-0.03460995
-4.741427	hledají	-0.08409179
-4.139368	hledal	-0.07807145
-4.139368	hledali	-0.03382358
-4.042458	hledat	-0.07034341
-4.741427	hledač	-0.08409967
-4.741427	hlediska	-0.0828296
-4.139368	hledá	-0.03910646
-4.741427	hledám	-0.04415316
-4.741427	hledáte	-0.08228415
-4.264306	hledí	-0.07980917
-3.963276	hleděl	-0.0779596
-4.264306	hledět	-0.1604532
-4.741427	hleď	-0.08407603
-4.440397	hleďte	-0.08407602
-4.440397	hloub	-0.054209
-4.741427	hloubku	-0.07207176
-4.440397	hloubky	-0.03548302
-4.440397	hloupost	-0.06987154
-4.440397	hlouposti	-0.03093975
-4.741427	hloupostí	-0.07620643
-4.741427	hloupá	-0.08196763
-4.440397	hloupé	-0.02507796
-4.741427	hloupě	-0.08409179
-4.741427	hlouček	-0.07207176
-4.741427	hluboce	-0.08406027
-4.440397	hluboko	-0.04414451
-4.741427	hluboká	-0.08409967
-4.440397	hluboké	-0.08406026
-4.741427	hluboký	-0.08409179
-4.741427	hluchý	-0.04415316
-4.741427	hluk	-0.08409967
-4.741427	hlásal	-0.08230788
-4.741427	hlásala	-0.08334281
-4.139368	hlásil	-0.296338
-4.741427	hlásila	-0.08409967
-4.440397	hlásit	-0.03885299
-4.264306	hlásím	-0.1620712
-4.741427	hlášeni	-0.08210218
-4.440397	hlášeno	-0.06673472
-4.741427	hlášení	-0.04415316
-4.741427	hlídač	-0.08338226
-4.440397	hlídače	-0.02507796
-4.264306	hm	-0.4285422
-4.741427	hmatal	-0.07850254
-4.741427	hmotnému	-0.08409967
-4.741427	hmyz	-0.06674293
-4.741427	hnal	-0.08388693
-4.440397	hnali	-0.0791882
-3.440398	hned	-0.1099784
-4.741427	hnedle	-0.08407603
-4.741427	hni	-0.04415316
-4.741427	hniloba	-0.08409967
-4.440397	hnoje	-0.03548302
-4.741427	hnojiště	-0.07207176
-4.741427	hnout	-0.06674293
-4.741427	hnusného	-0.04415316
-4.440397	hnědou	-0.08409178
-4.440397	hnědý	-0.02507796
-4.741427	hněvem	-0.08230788
-2.651522	ho	-0.01726085
-4.440397	hoch	-0.2678158
-4.741427	hochu	-0.04415316
-4.741427	hochštapler	-0.04415316
-4.264306	hodil	-0.08084212
-3.440398	hodin	-0.1731922
-4.741427	hodina	-0.08359524
-4.741427	hodinka	-0.08408391
-4.741427	hodinku	-0.08359524
-4.440397	hodinky	-0.07072534
-3.787185	hodinu	-0.06377193
-3.537308	hodiny	-0.1017969
-4.440397	hodině	-0.08378445
-4.741427	hodna	-0.07620643
-4.741427	hodnostní	-0.08407603
-4.741427	hodnou	-0.07207176
-4.264306	hodná	-0.03087744
-4.741427	hodné	-0.08390269
-4.741427	hodného	-0.08406816
-4.741427	hodní	-0.04415316
-4.264306	hodný	-0.1611202
-4.440397	hodně	-0.08400511
-4.741427	hodí	-0.04415316
-4.741427	hojila	-0.06674293
-4.741427	hojnosti	-0.07207176
-4.139368	hokynáře	-0.1288531
-4.440397	hokynáři	-0.054209
-4.741427	holdoval	-0.0831297
-4.741427	holdují	-0.08409967
-4.440397	hole	-0.06394652
-4.741427	holedbat	-0.08352426
-4.741427	holemi	-0.07927584
-4.741427	holendr	-0.04415316
-4.741427	holiči	-0.082798
-4.139368	holka	-0.116253
-4.741427	holky	-0.07207176
-4.741427	holohlavý	-0.04415316
-4.440397	holomek	-0.04345307
-4.741427	holomku	-0.04415316
-4.440397	holá	-0.08407602
-4.440397	holí	-0.07521061
-4.741427	holčičce	-0.04415316
-4.741427	holčička	-0.08334281
-4.741427	holčičku	-0.08210218
-3.627484	honem	-0.1967255
-4.741427	honili	-0.0831297
-4.440397	honit	-0.08291648
-4.440397	honorace	-0.03548302
-4.741427	honorací	-0.08228415
-4.741427	honorované	-0.08407603
-4.741427	honosíme	-0.04415316
-4.741427	hora	-0.07207176
-4.741427	horalově	-0.04415316
-4.741427	horeček	-0.04415316
-4.741427	horečku	-0.04415316
-4.741427	horečkách	-0.07207176
-4.440397	horko	-0.06671832
-4.741427	horký	-0.08409179
-4.741427	horlivostí	-0.04415316
-4.741427	horlivé	-0.08409967
-4.440397	horlivě	-0.08409178
-4.741427	hornatý	-0.08147657
-4.741427	horny	-0.07207176
-4.741427	horoucně	-0.04415316
-4.741427	horoval	-0.08312181
-4.741427	horské	-0.08409967
-4.741427	hory	-0.04415316
-4.264306	horách	-0.05849137
-4.741427	horácký	-0.08409967
-4.741427	horár	-0.04415316
-4.741427	horší	-0.08403664
-4.264306	horšího	-0.182789
-4.741427	horším	-0.08379235
-4.741427	hospoda	-0.04415316
-4.440397	hospodou	-0.08397359
-4.042458	hospody	-0.1240834
-4.741427	hospodyně	-0.08391845
-4.440397	hospodě	-0.04413588
-4.741427	host	-0.08409179
-4.741427	hotel	-0.07207176
-4.741427	hotelovém	-0.08407603
-3.963276	hotelu	-0.01285177
-4.741427	hotelů	-0.08150034
-4.741427	hotov	-0.07207176
-4.440397	hotových	-0.06670192
-4.741427	houpe	-0.07207176
-4.741427	housce	-0.08371352
-4.042458	housek	-0.02219892
-4.440397	housku	-0.07926786
-3.700035	housky	-0.006465867
-4.741427	housliček	-0.07207176
-4.741427	hovadské	-0.08409967
-4.440397	hovor	-0.03950815
-4.741427	hovořil	-0.08211009
-4.264306	hovořili	-0.01877907
-4.741427	hovoří	-0.08210218
-4.741427	hořcově	-0.08408391
-4.741427	hoře	-0.04415316
-4.741427	hořekovaly	-0.08390269
-4.440397	hořela	-0.08406026
-4.741427	hořelo	-0.08409967
-4.741427	hořely	-0.08391845
-4.741427	hořet	-0.08398937
-4.741427	hořké	-0.08408391
-4.741427	hoří	-0.08409179
-4.440397	hra	-0.03548302
-4.741427	hrabal	-0.08333492
-4.440397	hradě	-0.08312179
-4.741427	hraj	-0.08272689
-4.741427	hraje	-0.08409179
-4.741427	hrajete	-0.08338226
-4.741427	hrají	-0.08211009
-4.741427	hranice	-0.04415316
-4.440397	hranicemi	-0.05851642
-4.741427	hraná	-0.0840524
-4.741427	hrda	-0.04415316
-4.741427	hrdi	-0.04415316
-4.741427	hrdinné	-0.07207176
-4.741427	hrdinný	-0.07207176
-4.741427	hrdinové	-0.07927584
-4.741427	hrdinská	-0.07207176
-4.741427	hrdinství	-0.08210218
-4.741427	hrdinu	-0.04415316
-4.741427	hrdiny	-0.07566062
-4.741427	hrdla	-0.08230788
-4.741427	hrdlem	-0.08409967
-4.440397	hrdlo	-0.06486968
-4.741427	hrdě	-0.06674293
-4.741427	hrejte	-0.04415316
-4.741427	hrnou	-0.08386329
-4.741427	hrnu	-0.07566062
-4.741427	hrnéček	-0.0831297
-4.741427	hrnéčků	-0.06674293
-4.741427	hrníčku	-0.04415316
-4.741427	hrníčků	-0.04415316
-4.741427	hrobové	-0.0840524
-4.741427	hrobového	-0.08409179
-4.741427	hrobě	-0.04415316
-4.741427	hrom	-0.08211009
-4.440397	hromada	-0.08409178
-4.741427	hromadou	-0.08409967
-3.963276	hromadu	-0.08395784
-4.741427	hromady	-0.08147657
-4.741427	hrome	-0.04415316
-4.741427	hromoval	-0.07850254
-4.741427	hromovat	-0.08307444
-4.741427	hrozil	-0.04415316
-4.440397	hrozno	-0.07559635
-4.264306	hrozná	-0.20202
-4.440397	hrozné	-0.08297966
-4.741427	hrozného	-0.08147657
-4.741427	hrozný	-0.08409179
-3.896329	hrozně	-0.08400512
-4.741427	hroznější	-0.08304285
-4.741427	hrtan	-0.04415316
-4.440397	hrubec	-0.05851642
-4.741427	hrubosti	-0.04415316
-4.741427	hrubostmi	-0.07207176
-4.741427	hrubou	-0.08409179
-4.741427	hrubé	-0.08407603
-4.440397	hrubý	-0.2636811
-4.741427	hrubě	-0.04415316
-4.741427	hry	-0.06674293
-4.440397	hrál	-0.04195405
-4.741427	hrálo	-0.04415316
-4.741427	hrály	-0.08400512
-4.440397	hrát	-0.08408389
-4.440397	hráč	-0.05851642
-4.741427	hráči	-0.04415316
-4.139368	hrůza	-0.2338325
-4.741427	hrůze	-0.07207176
-3.662246	hrůzou	-0.1310103
-4.440397	hrůzu	-0.08383963
-4.741427	hrůzy	-0.04415316
-4.264306	huba	-0.08407603
-4.741427	hubatou	-0.04415316
-4.741427	hubený	-0.08210218
-4.264306	hubou	-0.143022
-4.440397	hubu	-0.2357626
-4.264306	huby	-0.1488837
-4.139368	hubě	-0.1013366
-4.440397	hudba	-0.03950815
-4.741427	hudby	-0.04415316
-4.741427	hudlaři	-0.07207176
-4.741427	hum	-0.04415316
-4.741427	humánní	-0.07207176
-4.741427	hučet	-0.08402877
-4.741427	hučí	-0.07207176
-4.741427	hvízdl	-0.07207176
-4.741427	hvězd	-0.07620643
-4.741427	hvězdy	-0.08210218
-4.741427	hvězdář	-0.082798
-4.741427	hvězdáře	-0.08234742
-4.741427	hygiena	-0.07620643
-4.741427	hygienickým	-0.08409967
-4.741427	hypochondr	-0.08334281
-4.741427	hysterické	-0.07207176
-4.741427	hysterku	-0.04415316
-4.440397	hádal	-0.26727
-4.741427	hádali	-0.07927584
-4.741427	hádky	-0.04415316
-4.741427	hájil	-0.08409179
-4.741427	házel	-0.08409967
-4.741427	hřbetě	-0.07207176
-4.264306	hřebík	-0.01515671
-4.440397	hřeje	-0.06568405
-4.440397	hřích	-0.06673472
-4.440397	hříchy	-0.2357626
-4.741427	hříchů	-0.06674293
-4.741427	hříšník	-0.04415316
-4.741427	hříšně	-0.08409179
-4.440397	hůl	-0.054209
-4.741427	hůlka	-0.06674293
-4.741427	hůř	-0.08230788
-2.902578	i	-0.124052
-4.741427	ignorovala	-0.07620643
-4.741427	ihned	-0.08409967
-4.741427	ikonou	-0.08409179
-4.741427	ilegálních	-0.08409967
-4.741427	iluze	-0.06674293
-4.741427	import	-0.08406027
-4.440397	in	-0.08409178
-4.741427	indigem	-0.04415316
-4.264306	informace	-0.063831
-4.741427	informovat	-0.08147657
-4.741427	injekci	-0.07207176
-4.741427	inkoustem	-0.07207176
-4.741427	inkriminovaného	-0.08409179
-4.741427	inkriminovaný	-0.08407603
-4.741427	inkunábulí	-0.082798
-4.440397	inspektor	-0.07154503
-4.741427	inspektory	-0.08359524
-4.741427	inspektoři	-0.04415316
-4.741427	inspirace	-0.04415316
-4.741427	instance	-0.04415316
-4.741427	instanci	-0.08196763
-4.741427	instinkt	-0.07620643
-4.741427	instrumentem	-0.08409967
-4.741427	intelektuála	-0.08230788
-4.741427	inteligentní	-0.07207176
-4.741427	intervalech	-0.04415316
-4.741427	intimity	-0.04415316
-4.741427	intuitivní	-0.08409967
-4.741427	inu	-0.04415316
-4.741427	invalida	-0.06674293
-4.741427	invalidita	-0.04415316
-3.963276	invalidní	-0.3055096
-4.741427	inzerát	-0.04415316
-4.741427	inzerátech	-0.08391057
-4.741427	inšpicírovat	-0.08409967
-4.440397	izby	-0.07201505
-4.741427	izbě	-0.08409967
-4.741427	ja	-0.04415316
-2.545528	jak	-0.3193251
-4.042458	jakmile	-0.3590481
-2.336594	jako	-0.155079
-4.139368	jakoby	-0.08347694
-3.700035	jakou	-0.09607154
-4.741427	jakoukoliv	-0.08406816
-4.741427	jakoupak	-0.08398149
-4.264306	jakousi	-0.08408391
-4.440397	jakož	-0.2751731
-3.963276	jakpak	-0.1311307
-3.310064	jaksi	-0.07595639
-4.440397	jaká	-0.07545174
-3.741427	jaké	-0.07433338
-4.741427	jakého	-0.07850254
-4.741427	jakékoliv	-0.08409179
-4.741427	jakém	-0.08407603
-4.042458	jakési	-0.08399726
-3.627484	jaký	-0.06391744
-4.741427	jakých	-0.08409967
-4.741427	jakýchsi	-0.08409967
-4.741427	jakým	-0.08409179
-4.042458	jakýmsi	-0.08406816
-4.139368	jakýsi	-0.08405241
-3.963276	jakživ	-0.1385362
-4.440397	jakživi	-0.08263994
-4.741427	jakživy	-0.08150034
-4.741427	jakžtakž	-0.08409967
-4.440397	jal	-0.07563651
-4.741427	jamce	-0.08409967
-4.741427	japabyne	-0.04415316
-4.139368	jasné	-0.05205191
-4.741427	jasným	-0.08407603
-4.741427	jasnějších	-0.08409967
-4.741427	jaterní	-0.08406816
-4.741427	javor	-0.08081831
-4.741427	javoru	-0.07850254
-4.741427	jazyk	-0.07620643
-4.440397	jazykem	-0.0427172
-3.440398	jde	-0.2102101
-4.741427	jdeme	-0.08350059
-4.741427	jdete	-0.06674293
-4.440397	jdeš	-0.08224458
-4.042458	jdi	-0.0975098
-4.440397	jdou	-0.07087155
-3.565336	jdu	-0.1245623
-4.139368	jděte	-0.03441571
-2.013074	je	-0.1867242
-4.440397	jed	-0.04180647
-4.741427	jede	-0.08406816
-4.741427	jedem	-0.06674293
-2.963276	jeden	-0.1497804
-4.741427	jedenadvacet	-0.08409967
-4.741427	jedenadvacátém	-0.07566062
-3.700035	jedenáct	-0.1604885
-4.440397	jedenácté	-0.08398935
-4.741427	jedete	-0.04415316
-4.741427	jedinečných	-0.08408391
-4.741427	jedinou	-0.08409179
-4.440397	jediné	-0.08407602
-4.440397	jediného	-0.08406026
-4.741427	jedinému	-0.08409967
-4.264306	jediný	-0.08317707
-3.462674	jedna	-0.2043672
-4.139368	jednak	-0.1650756
-4.741427	jednatelem	-0.04415316
-4.741427	jedni	-0.08409967
-3.741427	jedno	-0.1280532
-4.741427	jednoduchá	-0.06674293
-4.440397	jednoduché	-0.03548302
-4.440397	jednoduchý	-0.04386807
-4.139368	jednoduše	-0.0836741
-3.510978	jednoho	-0.1009835
-3.963276	jednom	-0.08222085
-4.042458	jednomu	-0.04409271
-4.741427	jednonohého	-0.08407603
-4.440397	jednonohý	-0.06673472
-4.741427	jednotu	-0.08402088
-3.161644	jednou	-0.05840499
-3.700035	jednu	-0.08248976
-4.440397	jednání	-0.07416415
-3.595299	jedné	-0.1267188
-4.139368	jedním	-0.08405241
-4.741427	jedněch	-0.08401301
-4.139368	jedu	-0.1280047
-4.741427	jedí	-0.08356369
-4.440397	jehel	-0.02507796
-4.139368	jehla	-0.069497
-4.741427	jehlami	-0.07620643
-4.741427	jehle	-0.08409179
-4.440397	jehlou	-0.08227623
-3.838337	jehlu	-0.1136455
-4.264306	jehly	-0.0631537
-4.741427	jehlám	-0.04415316
-3.107959	jeho	-0.04918575
-3.741427	jej	-0.0394296
-4.741427	jejej	-0.04415316
-3.462674	jejich	-0.08258464
-3.510978	její	-0.1215044
-4.741427	jejích	-0.08409967
-4.440397	jejího	-0.08407602
-4.741427	jejím	-0.0840524
-4.741427	jejími	-0.08409179
-4.741427	jejímu	-0.08406027
-4.741427	jektaje	-0.08391845
-4.264306	jektal	-0.0752669
-3.787185	jel	-0.1290553
-4.741427	jela	-0.0827743
-4.741427	jelen	-0.04415316
-4.741427	jeleních	-0.08409967
-4.264306	jeli	-0.06457318
-4.741427	jelikož	-0.08409967
-4.741427	jelimánek	-0.04415316
-4.741427	jelitem	-0.04415316
-4.741427	jelo	-0.08081831
-4.741427	jemné	-0.08409179
-4.741427	jemný	-0.08321653
-4.741427	jemu	-0.0798728
-2.806929	jen	-0.1393865
-2.854937	jenom	-0.009088621
-4.741427	jenomže	-0.04415316
-4.264306	jenže	-0.08337437
-4.741427	jest	-0.08408391
-3.838337	jestli	-0.1712373
-4.264306	jet	-0.02868151
-4.741427	jeti	-0.08368198
-4.741427	jevišti	-0.06674293
-4.440397	jezdil	-0.08308232
-4.440397	jezdila	-0.08136559
-4.440397	jezdí	-0.04222304
-4.741427	jezevčík	-0.0798728
-4.741427	ječela	-0.06674293
-4.264306	jeďte	-0.1850475
-4.741427	jeřáby	-0.07620643
-4.741427	ješitnost	-0.082798
-4.741427	ješitnosti	-0.08409967
-4.741427	ješitností	-0.04415316
-2.817148	ještě	-0.08571567
-4.741427	jež	-0.08409179
-4.741427	ježibabo	-0.07207176
-4.741427	ježit	-0.08409179
-4.741427	ježíšmankote	-0.04415316
-4.139368	ježíšmarjá	-0.441195
-2.860614	ji	0.0008130968
-3.838337	jich	-0.07909259
-3.326454	jim	-0.1169515
-4.741427	jimi	-0.08230788
-3.627484	jinak	-0.252353
-4.741427	jinam	-0.08406816
-4.440397	jinde	-0.054209
-3.963276	jindy	-0.07874795
-4.440397	jinou	-0.08401299
-4.139368	jiná	-0.06642309
-4.264306	jináč	-0.07509805
-3.627484	jiné	-0.06533876
-3.537308	jiného	-0.1841973
-4.741427	jiném	-0.08402088
-4.440397	jinému	-0.2357626
-3.896329	jiní	-0.03498057
-3.787185	jiný	-0.06615016
-3.700035	jiných	-0.09571904
-3.963276	jiným	-0.3677001
-4.741427	jinými	-0.08409967
-4.264306	jistotu	-0.1559482
-4.741427	jistou	-0.08409179
-4.440397	jisté	-0.04348767
-3.700035	jistě	-0.06318599
-4.741427	jižní	-0.08409967
-3.963276	jmenoval	-0.1768583
-4.741427	jmenovalo	-0.08230788
-4.741427	jmenuj	-0.08388693
-3.896329	jmenuje	-0.1606192
-4.741427	jmenuju	-0.08409179
-4.741427	jmenují	-0.06674293
-4.264306	jména	-0.0405979
-3.787185	jménem	-0.1197882
-4.139368	jméno	-0.0839815
-4.139368	jménu	-0.3362695
-3.326454	jo	-1.078988
-1.892008	jsem	-0.2527227
-3.565336	jsi	-0.1096245
-2.896329	jsme	-0.2075214
-3.051231	jsou	-0.05353993
-2.970575	jste	-0.1110561
-4.440397	jurvej	-0.2756618
-4.741427	justice	-0.08081831
-4.741427	justiční	-0.08409967
-4.741427	jutou	-0.04415316
-4.741427	jutu	-0.04415316
-2.19612	já	-0.4358802
-4.741427	jámu	-0.08359524
-4.741427	játrech	-0.07620643
-4.264306	jářku	-0.4285422
-4.741427	jé	-0.04415316
-3.009034	jí	-0.04548851
-4.440397	jím	-0.06571692
-3.700035	jít	-0.01111268
-4.741427	jízdní	-0.08408391
-4.741427	jízlivě	-0.08386329
-2.571166	k	-0.3384269
-4.741427	kabristanů	-0.07207176
-4.741427	kabát	-0.07620643
-4.440397	kabátu	-0.054209
-4.741427	kacíři	-0.04415316
-4.440397	kadenci	-0.03093975
-4.440397	kafe	-0.02507796
-4.741427	kafemlejnek	-0.082798
-4.741427	kafi	-0.08409967
-4.741427	kajícníka	-0.08147657
-4.741427	kakabus	-0.08334281
-4.440397	kaktus	-0.04414451
-4.741427	kaktusu	-0.07620643
-3.595299	kaktusy	-0.08289821
-4.440397	kaktusář	-0.04410133
-4.139368	kaktusáři	-0.1292248
-4.440397	kaktusářů	-0.06394652
-4.139368	kaktusů	-0.2772714
-4.741427	kalamáře	-0.08390269
-4.741427	kalika	-0.08359524
-4.741427	kaliko	-0.04415316
-4.741427	kalupu	-0.07850254
-4.741427	kaluž	-0.08407603
-4.264306	kam	-0.08354792
-4.741427	kamarád	-0.04415316
-4.042458	kamaráda	-0.06876601
-4.741427	kamarádi	-0.04415316
-4.741427	kamarádil	-0.07566062
-4.741427	kamarády	-0.07620643
-4.741427	kameloti	-0.08409179
-4.741427	kamenech	-0.06674293
-4.741427	kamenné	-0.08409967
-4.741427	kameny	-0.08409967
-4.741427	kampanile	-0.08081831
-4.741427	kampanilu	-0.07620643
-4.741427	kamsi	-0.07927584
-4.741427	kamzíky	-0.06674293
-4.741427	kaméliemi	-0.06674293
-4.741427	kamínkem	-0.06674293
-4.440397	kanapi	-0.06667732
-4.741427	kanceláře	-0.08404452
-4.741427	kanceláři	-0.07620643
-4.741427	kanár	-0.07207176
-4.741427	kanára	-0.08081831
-4.741427	kapacita	-0.07927584
-4.741427	kapacity	-0.04415316
-4.264306	kapesníkem	-0.07569275
-4.741427	kapitola	-0.04415316
-4.139368	kapitán	-0.07509805
-4.741427	kapitáne	-0.04415316
-4.741427	kapky	-0.06674293
-4.741427	kapradí	-0.082798
-4.741427	kaprála	-0.07620643
-4.741427	kapse	-0.04415316
-4.440397	kapsy	-0.06673472
-4.741427	kapsářů	-0.07207176
-4.741427	karamany	-0.07207176
-4.741427	karel	-0.08409967
-4.741427	kariéru	-0.07207176
-4.741427	karkulce	-0.04415316
-4.741427	karta	-0.04415316
-4.741427	kartel	-0.07620643
-4.741427	kartoun	-0.07207176
-4.440397	kasa	-0.03950815
-4.264306	kasař	-0.03402692
-4.741427	kasaři	-0.04415316
-4.440397	kase	-0.08373715
-4.741427	kasematy	-0.04415316
-4.264306	kasu	-0.04334927
-4.440397	kasy	-0.07206365
-4.741427	katar	-0.07207176
-4.741427	katastrofální	-0.08407603
-4.741427	katolickém	-0.08409179
-4.741427	katolíky	-0.08081831
-4.741427	kavalec	-0.07207176
-4.741427	kavkám	-0.08362678
-4.264306	kavárně	-0.03093086
-4.741427	kazit	-0.08409967
-4.264306	kašlu	-0.4636649
-4.741427	kaštany	-0.06674293
-4.139368	každou	-0.1691539
-4.042458	každá	-0.08393422
-4.139368	každé	-0.08308234
-4.042458	každého	-0.08260835
-4.741427	každém	-0.08409967
-4.264306	každému	-0.06640667
-3.343487	každý	-0.08391801
-4.440397	každým	-0.08402087
-3.379699	kde	-0.08067276
-4.741427	kdekdo	-0.08398149
-4.741427	kdekomu	-0.08389481
-4.139368	kdepak	-0.04244854
-4.741427	kdes	-0.08245813
-4.042458	kdesi	-0.3667234
-4.741427	kdežto	-0.08409179
-3.294269	kdo	-0.2315968
-3.896329	kdopak	-0.2617387
-3.440398	kdy	-0.1129985
-3.379699	kdyby	-0.1210802
-3.595299	kdybych	-0.1218064
-4.264306	kdybychom	-0.08348481
-3.787185	kdybyste	-0.1105011
-4.139368	kdykoliv	-0.1609265
-4.741427	kdysi	-0.08409967
-2.413048	když	-0.3649057
-4.741427	kdyžs	-0.0829007
-3.279029	ke	-0.4517919
-4.741427	kejchnout	-0.04415316
-4.741427	kelimy	-0.06674293
-4.741427	khorasan	-0.06674293
-4.264306	kilometrů	-0.04398041
-4.741427	kirman	-0.04415316
-4.440397	klacek	-0.06868973
-4.741427	klade	-0.0833507
-4.741427	kladl	-0.08409967
-4.741427	kladlo	-0.08394998
-4.741427	klame	-0.04415316
-4.139368	klarinet	-0.158106
-4.741427	klarinetový	-0.04415316
-4.741427	klasický	-0.08409967
-4.741427	klec	-0.08210218
-4.741427	kleci	-0.07620643
-4.741427	klecí	-0.07207176
-4.440397	klekl	-0.07132606
-4.741427	klepen	-0.08230788
-4.741427	klepny	-0.07207176
-4.741427	klepů	-0.04415316
-4.741427	klesla	-0.06674293
-4.741427	kleslo	-0.08399725
-4.440397	klečela	-0.07925989
-4.741427	klečeli	-0.08338226
-4.440397	klid	-0.03548302
-4.741427	klidem	-0.08409967
-4.741427	klidnou	-0.08404452
-4.741427	klidným	-0.08409967
-4.741427	klidně	-0.08248976
-4.264306	klient	-0.0820547
-4.741427	klientelu	-0.08343749
-4.741427	klikyháky	-0.08409967
-4.741427	klobouk	-0.08230788
-4.741427	klobouky	-0.07207176
-4.741427	kloudná	-0.08408391
-3.537308	kluk	-0.1153971
-3.838337	kluka	-0.0620225
-4.440397	kluku	-0.08407602
-4.741427	klást	-0.08409179
-4.741427	klíč	-0.082798
-4.741427	klíční	-0.08409179
-4.741427	kmitl	-0.08409967
-4.741427	kmín	-0.04415316
-4.741427	knih	-0.07207176
-4.741427	knihu	-0.04415316
-4.741427	knihy	-0.07620643
-4.741427	knize	-0.08409179
-4.741427	kněžský	-0.08081831
-3.741427	koberce	-0.2388689
-3.896329	koberci	-0.1567004
-4.264306	kobercích	-0.04251789
-4.139368	koberců	-0.02634847
-3.361216	koberec	-0.1320561
-4.741427	koberečky	-0.04415316
-4.741427	kobka	-0.04415316
-4.741427	kobylku	-0.06674293
-4.741427	kochají	-0.07620643
-3.838337	koho	-0.1601949
-4.741427	kohos	-0.07545979
-4.741427	kojence	-0.07207176
-4.741427	kojenců	-0.08196763
-4.440397	kojenec	-0.2738935
-4.139368	koktal	-0.1213247
-4.741427	koktaly	-0.04415316
-4.741427	kolega	-0.04415316
-3.741427	kolego	-0.9323859
-4.741427	kolegovi	-0.08409967
-4.741427	kolegové	-0.04415316
-4.741427	kolegy	-0.08409179
-4.264306	kolem	-0.08383964
-4.741427	kolen	-0.08110394
-4.264306	kolena	-0.06214404
-4.741427	kolenem	-0.08312181
-4.741427	koleno	-0.08402877
-4.741427	koleny	-0.08398937
-4.264306	kolik	-0.08406027
-4.741427	kolo	-0.08409179
-4.741427	kolony	-0.08409179
-4.741427	kom	-0.08234742
-4.741427	komandýr	-0.04415316
-4.741427	komandýrem	-0.06674293
-4.741427	komandýrovu	-0.07620643
-4.741427	kometo	-0.04415316
-3.222914	komisař	-0.3596249
-3.537308	komisaři	-1.155498
-4.264306	komisařství	-0.02962015
-4.042458	komoru	-0.01437126
-4.139368	komtesa	-0.1693903
-4.741427	komteska	-0.08409967
-4.741427	komtesko	-0.04415316
-4.741427	komteskou	-0.04415316
-4.741427	komtesou	-0.07620643
-4.440397	komtesu	-0.08406814
-4.264306	komu	-0.0702946
-4.741427	komupak	-0.07850254
-4.741427	komíny	-0.07620643
-4.741427	konají	-0.08406027
-4.741427	konal	-0.07620643
-4.264306	konce	-0.07611016
-4.741427	koncert	-0.08210218
-4.741427	koncích	-0.07620643
-3.787185	konec	-0.04310723
-4.741427	konejšivě	-0.04415316
-4.741427	koneček	-0.08409967
-3.963276	konečně	-0.08315337
-4.440397	konflikt	-0.054209
-4.741427	konfrontuje	-0.08210218
-4.264306	koni	-0.02867255
-4.741427	konstatovat	-0.04415316
-4.741427	kontor	-0.06674293
-4.741427	kontorem	-0.08245813
-3.627484	kontoru	-0.06494647
-4.741427	kontraband	-0.07207176
-4.741427	kontrašpionáže	-0.04415316
-4.741427	kontrfejem	-0.07620643
-4.741427	kontrolu	-0.06674293
-4.741427	konvenčně	-0.08409967
-4.741427	konání	-0.08409179
-4.741427	koních	-0.07207176
-4.741427	končil	-0.08307444
-4.741427	končinách	-0.08409967
-4.741427	kopali	-0.08409179
-4.741427	kopané	-0.04415316
-4.741427	kopistem	-0.07620643
-4.741427	kopl	-0.08368986
-4.741427	korekce	-0.06674293
-4.741427	korekci	-0.04415316
-4.741427	korektní	-0.08321653
-4.741427	korespondenci	-0.04415316
-4.741427	korodovat	-0.07620643
-4.741427	korouhevník	-0.04415316
-3.510978	korun	-0.2420239
-4.139368	koruny	-0.1013366
-4.741427	korunách	-0.04415316
-4.741427	korunám	-0.08409967
-4.440397	koruně	-0.04414451
-4.741427	korupce	-0.08196763
-4.440397	kost	-0.07072534
-4.741427	kostel	-0.04415316
-4.440397	kostela	-0.02507796
-4.440397	kostele	-0.08386327
-4.741427	kostelem	-0.04415316
-4.741427	kostelník	-0.04415316
-4.741427	kostelích	-0.07207176
-4.741427	kostelíčka	-0.08147657
-4.741427	kosti	-0.06674293
-4.741427	kostrč	-0.08409179
-4.741427	kotě	-0.082798
-4.741427	koudel	-0.07620643
-4.741427	kouk	-0.07207176
-4.139368	koukal	-0.1230898
-4.741427	koukalo	-0.07927584
-4.741427	koukat	-0.0831297
-3.963276	koukejte	-0.3521603
-4.741427	koukl	-0.08409179
-4.741427	koukněte	-0.07566062
-4.440397	kouká	-0.06710349
-4.440397	koukám	-0.2357626
-3.963276	koupil	-0.05764664
-4.741427	koupila	-0.08338226
-4.139368	koupit	-0.0328142
-4.440397	koupím	-0.04412724
-4.440397	kousal	-0.05893397
-4.264306	kousek	-0.07516238
-4.741427	kousku	-0.0831297
-4.741427	kousky	-0.08262414
-4.741427	kouta	-0.07620643
-4.139368	koutě	-0.03810931
-4.741427	koutů	-0.08409967
-4.741427	kouzelnictví	-0.06674293
-4.741427	kouři	-0.04415316
-4.741427	kouřil	-0.08409179
-4.741427	kouřila	-0.08409179
-4.741427	kouřilo	-0.06674293
-4.741427	kouří	-0.08395785
-4.741427	kozácké	-0.08409967
-4.741427	kozí	-0.08409967
-4.440397	kočka	-0.03093975
-4.741427	kočku	-0.06674293
-3.963276	kočárek	-0.06758652
-4.139368	kočárkem	-0.02948619
-4.741427	kočárku	-0.082798
-4.741427	koňskou	-0.08409967
-4.741427	kořenů	-0.04415316
-4.741427	kořist	-0.04415316
-4.741427	kořistí	-0.08393421
-4.741427	koše	-0.07207176
-4.741427	koši	-0.08402088
-4.741427	košili	-0.08408391
-4.741427	košiláček	-0.04415316
-4.741427	košilím	-0.082798
-4.741427	koších	-0.07927584
-4.741427	kožichy	-0.08230788
-4.741427	kožichů	-0.082798
-4.741427	kožuchu	-0.06674293
-4.741427	kožuchách	-0.08147657
-4.741427	koží	-0.04415316
-4.741427	krabice	-0.07566062
-4.741427	krabici	-0.07850254
-4.042458	krade	-0.09961607
-4.440397	kradená	-0.2583523
-4.741427	kradl	-0.08386329
-4.139368	kradou	-0.06703797
-4.741427	kradu	-0.08228415
-4.264306	kraj	-0.08194388
-4.741427	krajan	-0.04415316
-4.440397	krajinského	-0.08402087
-4.440397	krajinský	-0.08407602
-4.741427	krajinských	-0.08409179
-4.741427	krajinách	-0.04415316
-4.741427	krajíčku	-0.04415316
-4.741427	kramářku	-0.04415316
-4.741427	krapet	-0.08407603
-4.741427	krasovědným	-0.07620643
-4.741427	kravál	-0.07620643
-4.741427	kravály	-0.08359524
-4.741427	krchov	-0.06674293
-4.741427	kredit	-0.08321653
-4.741427	krejcar	-0.06674293
-4.741427	krejčí	-0.04415316
-4.741427	krepdešínovým	-0.08409967
-4.264306	krev	-0.07740001
-4.741427	krevní	-0.08409967
-4.741427	krevních	-0.08409967
-4.440397	kriminál	-0.07189355
-4.042458	kriminále	-0.006088957
-4.139368	kriminální	-0.1686965
-4.741427	kriminálních	-0.08409179
-4.440397	kriminálník	-0.06660352
-4.264306	kriminálu	-0.08054838
-4.139368	kristepane	-0.441195
-4.741427	kriticky	-0.08307444
-4.741427	kritik	-0.04415316
-4.741427	kritikem	-0.04415316
-4.741427	krizi	-0.08409967
-4.440397	krk	-0.08404451
-4.440397	krku	-0.04252654
-4.264306	krokem	-0.07374488
-4.440397	kroky	-0.08146863
-3.896329	krom	-0.2643829
-4.139368	kromě	-0.08246605
-4.440397	kroutil	-0.2755672
-4.741427	kroutit	-0.08395785
-4.741427	kroutí	-0.08404452
-4.741427	kroutě	-0.08395785
-4.741427	krov	-0.0798728
-4.741427	kruci	-0.04415316
-4.264306	krucinál	-0.4285422
-4.741427	kruhu	-0.08371352
-4.741427	krutostí	-0.04415316
-4.741427	krutě	-0.04415316
-4.440397	krvavé	-0.2757012
-4.741427	krvavě	-0.07207176
-4.139368	krve	-0.03323063
-4.741427	krvi	-0.06674293
-4.741427	krvácelo	-0.08399725
-4.440397	krví	-0.04195405
-4.741427	krysa	-0.07207176
-4.741427	krysy	-0.08409179
-4.741427	krysám	-0.08409967
-4.741427	krytou	-0.06674293
-4.264306	krádež	-0.02277988
-4.440397	krádeže	-0.08144485
-4.741427	krádeží	-0.08356369
-4.741427	králík	-0.08391845
-3.963276	krám	-0.09754162
-4.741427	krámek	-0.08333492
-4.741427	krámkem	-0.08320075
-4.264306	krámku	-0.04358282
-4.042458	krámu	-0.1095205
-4.741427	krámy	-0.06674293
-3.963276	krámě	-0.09873611
-4.264306	krása	-0.1606612
-4.042458	krásnou	-0.2607362
-4.139368	krásná	-0.04369522
-4.440397	krásné	-0.07203935
-4.440397	krásného	-0.054209
-3.741427	krásný	-0.09208091
-4.741427	krásných	-0.08409967
-3.838337	krásně	-0.1012691
-3.838337	krást	-0.1710837
-4.741427	krásy	-0.08409967
-4.741427	krátkostí	-0.08110394
-4.741427	krátkých	-0.08409967
-4.741427	krátí	-0.082798
-4.741427	kráčel	-0.04415316
-4.741427	kráčet	-0.08338226
-4.440397	krčil	-0.2756775
-4.741427	krčili	-0.08406816
-4.741427	krčku	-0.08356369
-4.741427	krčmou	-0.04415316
-4.741427	krčmu	-0.04415316
-4.741427	ksichtě	-0.06674293
-4.741427	kterak	-0.04415316
-3.741427	kterou	-0.1881845
-3.462674	která	-0.1072309
-3.310064	které	-0.1165377
-3.896329	kterého	-0.1137167
-4.440397	kterém	-0.07828703
-4.741427	kterémkoliv	-0.08406816
-4.264306	kterému	-0.4600497
-4.741427	kterépak	-0.08409967
-3.033857	který	-0.158312
-3.896329	kterých	-0.07483258
-4.741427	kterýkoliv	-0.08403664
-4.440397	kterým	-0.08409178
-3.963276	kteří	-0.0741561
-4.741427	kuchali	-0.07620643
-4.741427	kuchařka	-0.08398937
-4.440397	kuchyně	-0.2357626
-4.440397	kuchyňce	-0.07206365
-4.440397	kuchyňky	-0.0441186
-4.741427	kudla	-0.04415316
-4.139368	kufr	-0.03087745
-4.741427	kufrař	-0.04415316
-3.963276	kufru	-0.06596339
-4.741427	kufry	-0.06674293
-4.440397	kufřík	-0.04413588
-4.741427	kufříku	-0.08409967
-4.440397	kujóna	-0.08342958
-4.741427	kujóne	-0.04415316
-4.741427	kulatá	-0.07207176
-4.741427	kulaté	-0.08408391
-4.741427	kulhá	-0.082798
-4.741427	kulminaci	-0.08406816
-4.741427	kultury	-0.07207176
-4.741427	kumbálek	-0.08081831
-4.741427	kunčofta	-0.08409179
-4.741427	kunčofty	-0.0813339
-4.741427	kupce	-0.07927584
-4.741427	kupodivu	-0.08406816
-4.741427	kupovat	-0.06674293
-4.741427	kupují	-0.0798728
-4.741427	kupy	-0.08409967
-4.741427	kupé	-0.08262414
-4.440397	kuráž	-0.04401495
-4.741427	kuráží	-0.08407603
-4.440397	kurýroval	-0.08344536
-4.741427	kurýrovat	-0.08395785
-3.510978	kus	-0.1213451
-4.741427	kuse	-0.08409179
-4.440397	kusem	-0.08206259
-4.741427	kusu	-0.08406816
-4.741427	kusy	-0.04415316
-4.741427	kvartýru	-0.06674293
-4.741427	kvas	-0.06674293
-4.741427	kvasu	-0.04415316
-4.440397	kvašení	-0.05794791
-4.741427	kverulant	-0.04415316
-4.741427	kverulanti	-0.07207176
-4.741427	kvičela	-0.04415316
-4.741427	kvočna	-0.04415316
-4.741427	kvásek	-0.07620643
-4.741427	kvér	-0.07207176
-4.741427	kvérgrifech	-0.04415316
-4.741427	kvílela	-0.08401301
-4.741427	květy	-0.08147657
-3.627484	kvůli	-0.1312657
-4.741427	kyne	-0.04415316
-4.741427	kynoucího	-0.06674293
-4.741427	kyprou	-0.08409967
-4.741427	kyseliny	-0.08409179
-4.741427	kytici	-0.0827743
-4.139368	kámen	-0.1291902
-4.741427	káral	-0.08409967
-4.440397	káravě	-0.08127046
-4.741427	kát	-0.04415316
-3.896329	kázal	-0.2258957
-4.741427	kázni	-0.07207176
-4.741427	kód	-0.07207176
-4.741427	kódu	-0.08406027
-4.741427	kýble	-0.08210218
-4.741427	kým	-0.04415316
-4.741427	kývaje	-0.08395785
-4.741427	kývnutí	-0.0840524
-4.741427	kňučení	-0.04415316
-4.741427	křestním	-0.08403664
-4.741427	křesťansky	-0.07927584
-4.741427	křesťanskému	-0.08399725
-4.440397	křeče	-0.02507796
-4.741427	křečovitě	-0.08409967
-4.741427	křečí	-0.07207176
-4.741427	křečích	-0.06674293
-4.741427	křik	-0.06674293
-3.700035	křikl	-0.1837409
-4.741427	křiku	-0.04415316
-4.440397	křivda	-0.06671832
-4.440397	křivdil	-0.06451549
-4.264306	křivé	-0.04409271
-3.565336	křičel	-0.1528141
-4.440397	křičela	-0.0799046
-4.741427	křičelo	-0.06674293
-4.440397	křičet	-0.07745598
-4.139368	křičí	-0.03494529
-4.264306	křičím	-0.05879207
-4.741427	křoupavé	-0.07207176
-4.741427	křída	-0.04415316
-4.741427	kříž	-0.04415316
